nep4 3 I N Li 
cutoff 7.7 5.9 106 49
n_max 4 4
basis_size 12 12
l_max 4 2 0
ANN 30 0
  1.8280660e-01
  7.0882231e-01
  1.0434480e+00
  1.2638280e+00
  1.6391510e+00
 -4.0658715e-01
  9.7958040e-01
 -8.9357585e-01
  4.6120685e-01
  4.1798520e-04
  6.4580458e-01
  3.6534798e+00
  1.8729805e+00
  1.6448013e-01
  1.4202041e-02
  3.0593705e-01
  3.5893238e+00
  8.2459158e-01
  5.5737531e-01
  2.0476487e-01
 -1.6244208e-04
  2.4911110e+00
  2.1705265e+00
  6.1629939e-01
 -1.5061680e-02
 -8.7464996e-02
  1.6605315e-01
 -1.0906998e-01
 -3.4575522e-01
 -4.4340126e-05
  8.8105839e-01
  1.3018438e-01
 -1.2612728e-04
  4.0850195e-04
 -3.6314744e-04
  3.1101960e-04
  8.6952059e-05
 -6.8884132e-05
  5.7744386e-05
 -2.0732550e-05
 -3.2094165e-04
 -3.5058027e-05
  3.8822027e-04
 -8.1009784e-05
  1.6890710e-05
  3.8144292e-04
  1.5939318e-04
 -8.8070527e-05
  3.3463872e-05
 -1.7367510e-04
 -6.8831380e-04
 -2.9077128e-04
  9.3150622e-05
  2.8914513e-04
 -1.0221601e-04
 -2.0382678e-04
 -3.1157682e-04
 -4.2377419e-06
  8.7056906e-05
 -3.9703169e-04
  4.8332947e-01
 -6.1864370e-01
 -1.7484390e+00
 -2.6614326e-01
 -4.7576724e-04
 -2.1166600e-04
  6.2603634e-05
  2.5251796e-04
  2.3303449e-01
  1.1592182e-04
 -3.0500721e-04
  4.6006727e-04
  1.5151470e-04
 -1.1792551e-04
  5.6600996e-04
  8.2969618e-06
  2.0771266e-04
 -1.9755340e-01
 -1.5608800e-04
  1.4874192e-02
  3.7590475e-04
 -5.5357238e-04
 -3.1094777e-04
  9.3573253e-05
 -2.9685050e-03
  3.2226319e-04
  6.3964348e-05
  2.1921025e-05
  2.7265958e-04
  1.9280116e-04
  5.2439564e-01
  2.2393622e-01
 -1.0432921e-01
 -1.9985230e+00
 -5.8023340e-01
  7.2626156e-01
  9.3211569e-02
  8.1365222e-01
  6.2640870e-01
 -1.8822726e+00
  4.2237318e-01
 -1.4366491e+00
  5.1904514e-02
  8.0457538e-01
 -1.0911041e+00
  5.1123440e-01
 -1.3291162e+00
  2.5480092e-01
 -1.2890662e-01
 -6.0330236e-01
  1.4497277e+00
 -3.8670052e-02
  1.7536789e+00
 -2.7742448e-01
 -1.1396812e-01
 -6.7256248e-01
  4.3158042e-03
  6.8926078e-01
 -1.4439011e-01
  1.4565139e-01
 -2.6205333e-03
  1.5834346e-01
 -2.4850360e-01
 -5.2345812e-04
  2.7552653e-02
  2.5067478e-04
 -7.1669070e-05
  3.7681337e-02
 -1.7547038e-04
 -1.5292077e-01
  8.5924868e-04
  3.8903840e-02
 -1.2644567e-03
  4.3163940e-04
  1.7887341e-04
 -1.7953978e-04
  1.4797227e-03
  2.6273510e-01
 -4.7470007e-06
  3.3994716e-02
 -9.6244621e-05
 -1.8500368e-04
 -6.1687118e-05
 -1.4619801e-04
  1.5715563e-05
  2.9541210e-05
  2.1187573e-04
 -6.8171549e-04
 -1.7396938e-04
 -3.5963047e-04
 -2.4361148e+00
  3.5114229e-02
  3.5033736e-02
  1.3042074e-01
  4.1316904e-02
 -2.0434163e-05
  1.3567413e-04
  3.7750226e-01
  5.6825404e-04
  6.5684592e-04
 -5.6633318e-04
  1.2327915e-03
  2.2413167e-01
  5.4299468e-05
  3.5051853e-05
  1.0659450e-04
 -2.0877570e-04
  5.8994565e-02
  2.8215440e-05
  5.2088907e-04
 -2.4574108e-05
  1.4175744e-04
 -7.8382312e-05
  3.3437967e-04
 -2.2708949e-04
 -5.3708620e-05
  4.2282714e-04
 -6.0371702e-05
 -1.3539572e-04
 -6.2495586e-05
  1.5724084e-01
 -7.0824623e-02
 -5.1815122e-01
 -1.5295462e-01
 -3.8131204e-01
  9.3741946e-02
  2.6267150e-01
  4.3114427e-01
  5.0734135e-04
 -4.4163343e-01
  2.8789610e-02
  4.5316243e-01
 -5.7158788e-05
 -4.4664451e-01
 -5.8308034e-04
  6.5874535e-01
  3.0119011e-01
  1.7109128e+00
 -3.3959615e-01
 -1.3022612e-01
  2.8344131e-01
  5.1106191e-01
  7.4263744e-02
  2.9987632e-03
  4.1610867e-01
 -2.5625885e-04
  7.7034254e-03
 -8.7155102e-05
 -5.5436301e-04
 -1.7403309e-04
  7.2478408e-01
  8.0521530e-01
 -4.6793029e-02
 -9.7778514e-02
 -1.8774552e-04
 -1.0593649e-03
 -7.7264367e-06
  7.7053359e-05
  5.8372359e-04
 -1.4330289e-05
 -4.6947018e-05
 -2.3692966e-04
  1.2426316e-04
  2.0780196e-04
  9.0619520e-05
 -2.2321517e-04
 -6.4847773e-05
  5.9631006e-03
 -3.6318688e-05
  5.5896642e-04
  1.6942115e-05
  8.5165730e-06
 -4.2844535e-05
 -7.9322461e-05
  1.7650540e-04
  3.2203973e-04
 -2.0715347e-04
 -3.3349592e-05
  2.6752317e-04
  5.4414111e-05
 -6.8062380e-02
  7.1863160e-02
 -8.0687836e-02
 -1.0297212e-01
  5.5799302e-02
  5.4340845e-04
 -3.1221739e-04
  2.1015992e-04
  9.4168783e-05
  1.6132240e-04
  5.4347451e-04
  4.1460342e-04
 -1.2846725e-04
  8.1991218e-04
  5.7586454e-05
  7.3425072e-05
  2.8613670e-04
  1.5026373e-03
 -1.2864457e-06
  1.1566019e-02
 -2.0763267e-05
  1.4437527e-03
 -1.5184667e-04
  7.1359709e-06
 -7.6217773e-05
  1.0641799e-04
 -3.6833747e-04
 -5.8025122e-05
  9.0486821e-05
  4.9198663e-04
  1.3007333e+00
 -9.8353475e-02
 -1.1393719e+00
 -2.6289382e+00
 -7.3809916e-01
  8.2876749e-02
  2.5943047e-01
  2.1554430e+00
 -4.9078324e-01
 -8.0601943e-01
 -2.1652313e-04
  9.0821546e-01
  6.8922818e-01
 -5.3689855e-01
 -5.5146307e-01
  5.2202016e-01
  4.2385497e-04
  2.3287332e+00
  4.8646685e-03
 -8.5607523e-01
  2.8517854e-01
 -4.5144779e-04
  1.0461278e-01
  4.3747926e-01
 -1.8343410e+00
 -2.7655555e-05
  9.3348883e-04
  2.1967200e-05
 -3.6999898e-04
 -5.1431928e-04
  1.3160540e+00
  6.8795249e-02
 -8.7136716e-02
 -2.1870627e+00
 -8.3787322e-01
  7.0570834e-02
  2.0336578e-04
 -6.0403973e-01
 -1.3537731e+00
 -1.5137861e+00
  4.5592323e-01
  2.8260730e-03
 -2.8153691e-02
  7.1632022e-01
 -1.4901311e+00
  5.6756586e-02
  1.4231123e-03
 -1.5140307e-02
  5.4705618e-03
 -7.8431749e-01
 -3.9098794e-03
  4.3661268e-05
 -2.0188275e-04
 -2.9580710e-03
 -7.5526732e-01
 -2.7802488e-04
  2.6569817e-06
 -3.0877542e-01
  6.8728978e-06
  3.8247395e-04
 -2.6258551e-02
  2.3361573e-01
  9.9574903e-04
 -1.6341041e-03
  6.9455594e-02
  6.2014302e-04
 -2.5986854e-04
  2.2763740e-04
  2.0214112e-04
 -2.1212838e-05
  2.9248447e-04
 -1.2834086e-04
  1.0440142e-04
 -1.4889985e-04
 -2.5703400e-04
 -7.4902009e-06
  1.7483212e-04
  1.4521427e-03
  6.8501598e-05
  1.4615843e-04
  1.5559043e-04
 -3.5107517e-04
 -3.4254082e-04
  5.3856865e-04
 -2.3432559e-04
 -6.2410647e-05
  2.6878470e-04
 -2.5121923e-04
 -7.6733522e-05
  2.2605698e-05
 -5.8104452e-02
  1.4122227e+00
  1.0600973e+00
 -1.7896159e-01
  9.5402338e-03
  4.4346138e-04
 -1.2803325e-04
  4.8346929e-02
  1.1484140e-01
  3.9302255e-04
  7.0939976e-04
  4.2425705e-05
  7.4313146e-05
  1.1339271e-05
  1.1396586e-04
  1.0262170e-02
  4.7368705e-04
  1.6976373e-02
  6.4949098e-04
  1.5211435e-01
  2.5681219e-01
  1.0382923e-03
  4.4435970e-04
  6.0298461e-03
  1.1116862e-01
 -1.1204266e-04
 -3.9420127e-05
  4.4456312e-05
 -1.5023384e-04
 -2.7477904e-04
 -4.3286745e-02
 -1.3011990e-01
  2.1549943e-01
  1.2310515e-01
 -3.2604861e-01
 -4.4428938e-04
  3.4346763e-04
 -5.0448260e-05
 -1.1005169e-04
 -8.0110680e-05
 -1.5609783e-04
  2.3779615e-04
 -1.0545472e-06
 -4.1385287e-05
  1.3649781e-04
  4.5767959e-04
 -1.3603462e-04
 -1.4132993e-01
  9.5162737e-05
 -1.1568831e-03
 -1.0533827e-04
 -4.1832722e-04
 -9.0053468e-04
 -5.1014463e-04
 -5.1615236e-05
  5.1734587e-06
 -1.7649589e-04
 -1.1119003e-04
  2.0495334e-04
  4.2694423e-04
 -1.9849956e-01
  5.5977166e-01
  1.6991813e-01
  3.3244759e-01
  3.4724567e-02
  4.4597266e-05
 -1.9240705e-03
 -2.5345317e-01
 -5.6711499e-02
 -3.3249283e-01
  1.4635180e-01
 -1.6960737e-03
 -5.4590887e-01
  1.1603960e+00
 -1.2378836e+00
 -4.3854257e-01
  1.4136900e-03
 -3.6888027e-03
 -9.9204510e-02
 -1.6724461e-01
 -1.0298182e+00
  8.9280292e-02
 -1.1577818e+00
 -2.7632600e-01
 -9.6840793e-01
 -3.3740711e-04
 -2.5980360e-05
 -4.3049642e-01
 -9.0210652e-04
  9.2616683e-05
  6.9122605e-02
 -1.0140776e-01
  1.2544821e-01
  5.6039598e-02
 -3.7473254e-02
 -4.7713093e-04
  1.5400218e-04
 -2.0723666e-04
 -4.3541138e-05
 -1.0649084e-04
  7.7586068e-05
 -5.9131748e-04
  3.8978164e-06
 -1.8426381e-05
  1.2725338e-04
 -2.4156043e-05
 -7.2382647e-04
 -1.2140004e-04
 -3.1204734e-04
  6.9010297e-05
 -1.6718247e-04
 -1.5570031e-04
 -1.3151988e-04
 -9.6358162e-05
 -1.5604973e-04
  4.2206614e-04
  2.1348102e-04
  1.0015586e-04
  3.8830814e-04
  3.0830476e-04
 -2.2510064e+00
 -5.3097200e-01
  1.9310420e+00
  4.1968842e+00
  1.7932373e+00
 -1.1271971e-04
  3.1132190e-04
 -5.8524358e-01
  1.4509381e-04
  1.2777766e+00
 -1.6619865e+00
 -5.9383281e-04
 -2.9265296e-01
 -4.8836663e-01
  1.1431266e-01
 -1.4301168e+00
 -2.3893835e-02
  5.7572994e-02
 -7.7195346e-02
 -8.1608340e-02
 -7.7399155e-03
 -9.8005592e-05
 -7.2509010e-04
  6.6488872e-05
  1.4864465e-05
  1.4214567e-04
  2.7718703e-04
 -1.4906675e-04
 -3.5375540e-04
 -9.0821859e-06
  5.0553036e-01
 -1.2617004e-01
  5.0103915e-04
  8.4179942e-04
  7.0837239e-05
  3.0364862e-04
 -1.9489370e-04
  2.0711996e-04
  5.2483290e-05
 -5.1974166e-05
  2.0190753e-04
 -1.5559740e-04
  1.3089897e-04
  3.2814965e-04
 -1.3087215e-04
 -1.5233283e-05
  2.2928230e-04
 -1.4354959e-04
  6.4903323e-04
  6.8073347e-04
 -4.6418593e-04
 -4.2457366e-04
 -9.0143090e-05
  2.3013121e-05
 -3.5491903e-05
  4.3352129e-04
  2.9818922e-05
 -1.1502284e-04
  1.5945258e-04
 -2.9124581e-04
 -1.3187485e+00
 -3.1727090e-01
 -1.0648099e-01
 -2.2070506e-01
 -1.4544641e+00
 -1.2171145e-01
  4.7933245e-01
  1.2092665e+00
 -1.7891364e+00
  2.5716875e-04
 -1.7751604e-03
  1.7649629e-04
  1.0568120e-01
 -1.2002567e-04
 -3.9462271e-04
 -4.8931601e-04
 -1.6833802e-03
  6.2858593e-01
  1.1800608e-01
  7.3502168e-02
 -6.2657855e-05
 -6.4535023e-05
  2.0146335e-03
  2.5332607e-02
 -3.4006572e-04
 -8.5034051e-05
 -9.3906041e-05
  7.2747812e-06
 -2.8677523e-04
  1.2714376e-04
  4.7670418e-01
 -2.7768919e-01
  2.5144526e-01
  5.6994276e-04
  4.8449705e-04
  2.7062546e-05
  1.7501310e-05
  3.2276721e-04
 -1.3120308e-03
 -3.4629169e-04
  4.2336454e-04
 -2.6800900e-04
  1.2260037e-05
  1.0132420e-04
  5.4379245e-05
 -1.1597260e-04
  2.3162528e-04
  1.3392474e-05
 -1.7816064e-04
 -7.0463226e-04
 -7.7389341e-05
 -9.9283853e-04
  2.9251058e-04
 -3.1322350e-05
 -6.9984184e-05
  2.3524181e-04
  8.8552450e-05
 -4.8231223e-04
 -3.7118785e-05
 -2.3417018e-04
 -2.2131135e-01
  1.4649134e+00
 -9.7297639e-01
  7.8746676e-01
 -1.5153400e+00
  7.4062777e-01
  2.2864970e-05
 -7.0220613e-01
 -1.5694852e-04
 -3.5007244e-01
  9.4305418e-02
 -8.3177278e-05
 -4.8182745e+00
  2.8799431e-04
 -1.1307282e-05
  3.4459969e-01
 -1.4113408e-02
 -5.1803155e+00
  4.6401744e-04
 -2.0056643e-05
  1.1017301e-04
  7.5052681e-05
 -1.9468360e-03
 -2.3658975e-04
  3.3638242e-04
 -1.4933939e-03
 -4.6187465e-04
 -1.2961351e+00
  2.2820433e-04
  1.8618439e-05
  7.2749533e-02
 -2.8139876e-02
 -1.8620827e-05
  3.4973137e-03
 -1.4629454e-03
  5.3387965e-05
  4.8603295e-04
 -5.1444356e-04
  3.6568756e-05
  7.0607035e-05
 -3.8713997e-04
  2.4242849e-04
  1.9465765e-04
 -2.5218131e-05
 -1.0781414e-04
  1.6607845e-04
  4.2375622e-04
  1.1964681e-04
 -1.9185542e-04
  9.8007615e-05
  1.7514883e-04
  1.0699587e-04
 -1.1251393e-05
 -5.8938027e-04
  7.8763849e-05
 -1.0475032e-04
  3.2993008e-05
  6.3772219e-05
  6.1892213e-05
  8.3105842e-05
  1.9917302e-01
 -6.8144220e-01
  4.1029081e-02
  1.2125196e-04
  4.0696330e-02
 -6.0381391e-04
 -1.2563415e-04
 -2.9030495e-04
 -5.6560745e-04
 -1.7145278e-04
 -1.2244862e-03
  2.9751446e-04
 -8.4461906e-04
  9.8324276e-04
  2.4262337e-04
 -2.0656686e-05
  5.8946807e-05
 -1.0057002e-04
 -9.3661994e-04
 -2.2384877e-04
  7.1106275e-05
 -3.8214360e-04
  3.0153364e-04
 -3.0109670e-04
 -1.1291776e-03
  1.3976829e-04
 -6.8418274e-05
 -3.7878366e-05
 -1.3889879e-04
  1.9193838e-04
 -1.4693632e+00
 -2.9444230e-01
  1.7298678e-01
  3.6958277e-01
  3.9531022e-01
 -5.2820740e-04
  2.8218896e-04
  5.9265596e-01
  5.4038942e-01
  1.9360945e-04
 -4.3757929e-05
 -1.7999466e-04
  5.0108534e-01
 -8.6352957e-04
 -3.2813573e-04
 -1.1258039e-03
 -8.9827903e-05
  2.2009067e-01
  2.9573380e-04
  1.0215222e-04
 -2.6039712e-05
  2.8717681e-04
  5.7883753e-04
  2.2812004e-04
  1.5188053e-03
 -6.7970261e-04
  6.3888336e-05
  2.1341597e-03
  6.3125386e-05
  3.2543682e-04
 -8.5535556e-02
 -1.0106702e+00
 -6.6496670e-01
  1.0930424e-04
  1.7001614e-04
  7.0455986e-05
 -1.3515071e-04
 -1.2911334e-04
 -7.5588403e-05
  4.4210770e-04
 -8.2086626e-05
 -7.9860860e-05
 -5.1641549e-05
 -2.3518183e-05
  1.3958407e-04
  5.7333637e-05
  1.6756347e-05
 -3.3231769e-04
  2.5241845e-04
  1.0653432e-04
  2.3607499e-05
  1.6364334e-05
  4.8800659e-05
  3.6780941e-05
  2.0896416e-04
 -5.0626037e-05
 -1.4722779e-05
  1.3421944e-04
  1.4664004e-04
  8.2207604e-05
 -1.6577396e-04
  4.3260475e-04
 -7.3882629e-04
 -2.7897922e-04
 -2.7313633e-04
  2.3307050e-04
  3.7720002e-04
 -3.2245618e-04
 -3.6026879e-05
  2.9023137e-04
 -4.6400339e-05
 -2.9925126e-04
  2.9355159e-04
  3.3622503e-04
  2.6856142e-04
  1.6305201e-04
 -2.4295026e-04
 -2.6572539e-05
  3.2004796e-04
 -1.7808961e-04
 -8.7387518e-05
 -2.2996904e-04
 -3.6590834e-04
  6.0996485e-05
  4.9869984e-04
  2.5977442e-10
 -4.6818528e-05
  2.1476056e-04
  1.0559355e-03
 -3.1587537e-04
 -9.8715186e-01
 -4.1799131e-01
 -1.0976966e-01
  2.4320798e-01
 -4.9153182e-01
  2.9383457e-01
  1.4655192e+00
 -3.2233810e+00
  1.4819187e-01
  5.0865158e-02
 -2.2296046e-01
 -3.6222846e-05
 -3.2575130e+00
 -1.4021343e+00
  1.0124911e+00
 -8.6091888e-01
 -1.3886428e+00
  7.1959931e-01
 -1.5058813e-02
  2.3936629e-02
 -4.6261799e-04
 -1.6072967e-04
  7.5098562e-01
 -5.7209599e-01
 -1.2010466e+00
  7.0779264e-05
  5.8895559e-05
 -3.5772026e-02
  2.5967020e-04
 -3.6548599e-06
  7.9471189e-01
  9.7531682e-01
  5.9562188e-01
 -1.7123895e+00
  3.2550976e-01
  1.0940070e+00
  1.0995023e+00
  1.3693726e+00
  1.1170150e+00
 -3.2967374e+00
  1.6158583e+00
  5.3604126e-01
  1.6392049e+00
  5.3037340e-05
  4.4076926e-01
  7.2978473e-01
  1.2595229e+00
  1.9949045e+00
  2.7528057e-01
 -7.3259318e-01
  5.5168837e-01
  5.1648182e-01
  1.1476071e+00
 -2.3182406e-01
  5.3878558e-01
  1.7606455e-05
  1.9951250e-01
 -1.0349710e-04
 -1.2627882e-03
 -4.6552744e-02
 -4.5840017e-02
 -1.5420604e+00
 -5.5478436e-01
 -2.9756409e-05
 -6.9009401e-02
  6.8117843e-06
  6.1051216e-04
 -4.8219175e-05
  1.6761447e-04
  1.7711707e-05
  8.7204127e-05
 -1.5625903e-05
  3.0288496e-04
 -1.8606134e-04
 -9.6502954e-05
 -1.3075344e-04
  3.6918619e-04
 -2.2192954e-04
 -2.7896898e-04
  1.3153920e-03
  5.7574076e-04
 -1.9538307e-04
  1.7049872e-04
  1.0002815e-04
  3.7386195e-05
  4.9896393e-04
  4.6827441e-05
  1.1682075e-04
  1.6543586e-04
  1.7049238e-04
  2.2562946e-01
 -2.0440685e-02
 -1.0222209e-03
  1.1218543e-01
 -2.0754327e-01
 -3.9932819e-04
  1.5262431e-04
  2.0182908e-04
  2.0636380e-06
  3.6381542e-05
 -7.6578069e-04
  3.1865257e-04
 -5.6854151e-05
 -7.9203353e-05
  8.5590582e-04
  1.3425361e-04
 -2.6632044e-05
 -6.8734156e-04
 -2.0196814e-04
 -2.9855955e-04
 -4.7706711e-04
 -1.5721953e-05
  2.9284152e-04
  4.7396231e-04
  2.1814357e-04
 -8.8489505e-05
  2.4094299e-05
  1.5163397e-04
  2.7733814e-04
  4.8568114e-04
  1.0590724e+00
 -6.1247614e-04
 -1.1017825e-01
  2.8812659e-01
  1.3945772e-01
  1.5851272e+00
 -4.3572682e-01
  5.1420506e-02
  1.4761178e-03
 -5.8645177e-01
 -1.1417667e+00
  1.3926702e-04
  1.2519634e+00
 -4.5446852e-01
 -3.1327355e-01
 -2.3479699e-04
 -1.1985309e+00
  2.1879424e-03
 -1.2858821e-01
  1.4637250e-01
 -2.4931240e+00
  1.6925363e-04
  2.0342164e-01
  3.8627619e-01
 -4.4224362e-05
 -8.3461805e-04
 -2.3468726e+00
 -5.9854543e-01
  3.0538300e-01
 -2.0132497e-02
  9.3697816e-01
 -1.5220581e-01
 -1.1359275e-01
  1.6831632e+00
  2.7005076e-01
 -4.6441555e-01
  6.2877607e-01
  6.3441560e-02
  1.5243325e-01
  2.5530982e-01
  3.8766992e-01
  1.1237344e-01
  1.5184164e-01
 -1.3155183e-01
  1.1344155e+00
 -9.2640184e-02
 -2.6354790e-01
  4.4748589e-02
  4.9953172e-01
  1.6199152e-01
 -1.4113213e+00
 -4.0679812e-02
  2.1191727e-01
 -3.9441678e-01
 -3.2444995e-02
  1.3768705e-04
 -1.2943989e+00
  7.3688889e-01
 -2.1561374e-01
 -1.3366048e-01
 -4.1516699e-04
 -4.5767054e-05
  1.8841913e-04
  8.5345394e-04
 -1.3969469e-04
  1.2697231e-04
  9.6281037e-05
 -1.1242255e-04
  1.0347606e-04
 -1.5362941e-04
  1.8292997e-06
 -1.9095467e-05
  2.7113326e-06
 -3.4438013e-04
  2.4032703e-04
  2.8004678e-04
 -1.1768843e-04
 -4.5472178e-05
 -3.6970899e-04
  3.6056276e-06
  1.4299198e-04
  1.9988853e-05
 -4.1075514e-04
 -7.3839285e-05
  5.2350474e-04
 -2.8440426e-04
 -2.7737950e-04
 -2.2732242e-04
  1.4135832e-04
  1.1213498e-04
 -5.1842045e-02
 -4.2311674e-01
 -7.4717516e-01
 -1.6548282e-02
 -4.1907400e-02
  6.0008291e-02
 -2.7272967e-01
  1.4997430e-03
  3.8123422e-04
 -1.1482368e-01
 -1.4128062e-04
  7.4722047e-05
 -2.1822604e-03
  2.9384399e-05
 -1.4377916e-05
 -2.7740064e-01
  2.8910269e-03
 -1.9255262e-04
 -9.8974267e-03
  5.0084963e-02
 -5.5665476e-04
  1.0000911e-01
 -2.3360232e-04
  6.4068800e-03
  4.3899019e-04
  2.3118539e-04
 -1.2730421e-03
 -6.2710918e-05
 -1.9457375e-04
  2.2587382e-04
  6.7534584e-01
  5.6895029e-02
 -2.1822867e-01
 -1.3136610e-01
 -6.8197087e-03
  2.3293080e-04
 -1.1348270e-01
 -6.1044295e-05
  9.8989280e-05
 -8.8554654e-05
 -1.9437262e-05
 -3.1211584e-06
 -1.1858991e-03
  1.6340640e-03
 -7.2973424e-05
 -1.2791995e-03
  1.5232787e-01
  2.5170622e-04
  4.5898248e-04
  1.3737665e-03
 -7.1435097e-05
  1.3919529e-01
  1.4619439e-04
  2.7855748e-01
  2.2434202e-04
  3.8457943e-05
 -4.6520910e-04
 -2.8132531e-04
 -1.1476589e-04
  8.6623695e-05
 -1.2054518e-04
  6.7251234e-04
  1.9705561e-05
  5.5214976e-05
  1.3217382e-04
 -2.0213824e-04
 -3.3471390e-04
  1.1959806e-04
  5.1842508e-05
 -2.4816787e-04
 -1.5367154e-04
  1.5959927e-04
  1.3026336e-04
 -8.2663712e-05
 -3.3335199e-04
  7.7527642e-05
  4.0702624e-04
 -1.8063847e-04
  9.4535128e-05
  4.8728180e-04
  1.0000509e-05
  7.4557494e-05
  1.3232319e-05
 -1.8016814e-04
 -4.8618775e-05
 -5.1612599e-04
  7.9228405e-05
  1.0237813e-03
  4.5659082e-04
 -6.8584712e-05
 -4.3255359e-02
  1.4127661e+00
 -5.3588212e-01
 -1.2434231e-01
  1.2326773e-01
  3.0330250e-01
  8.7848706e-03
  7.0882835e-03
  1.4004049e-01
  1.7847817e-01
  5.3834628e-05
 -4.7027084e-01
 -1.9910239e-01
  3.3246112e-01
  1.0432436e-01
  1.4161600e-01
 -8.1750736e-02
 -8.9795731e-02
  3.2532647e-01
 -7.8067307e-05
 -5.0514735e-02
  4.8484690e-02
 -5.5620022e-02
  5.9722012e-01
 -3.1876200e-01
 -1.4691645e-01
  1.5437835e-03
  1.7858440e-02
 -1.0986039e-01
  3.2703928e-04
 -2.3977713e-01
 -1.9839509e-01
 -8.0796838e-01
 -6.2095299e-02
 -3.2648188e-01
  1.0480787e+00
 -5.0818769e-04
 -3.9969469e-05
  1.3031549e-04
 -6.8073990e-05
  1.3021780e-04
 -1.4018001e-04
  1.3240661e-04
  4.8891432e-04
  3.8288648e-03
 -3.4014563e-05
  3.4297738e-02
  2.2817039e-04
 -1.1301626e-04
  1.1306270e-01
 -6.3267671e-02
  1.5560965e-01
 -2.1406991e-02
  1.0155132e-01
  2.8816742e-04
  7.3556516e-06
 -1.8787151e-04
  2.5300417e-04
  7.4154965e-04
  1.5406747e-04
 -1.6235799e-02
 -2.3472162e-01
 -1.6460861e-01
 -2.0116899e+00
 -6.3543999e-01
 -1.2661773e+00
 -1.1530628e+00
  4.7181419e-01
  6.1891586e-01
  1.4259273e+00
  2.2835179e-01
 -7.4482881e-02
 -3.6315277e-04
 -9.3997046e-02
 -5.0829971e-01
  5.3532389e-03
  4.3641251e-02
 -6.2886246e-02
 -7.3222542e-01
 -9.1597664e-01
 -5.7944525e-02
 -3.1354782e-01
 -2.4354069e-01
 -3.4200600e-01
  2.8585366e-04
 -4.3967617e-04
 -4.0187294e-04
 -4.4374130e-04
  1.3818941e-04
  1.0480764e-03
  1.0272971e+00
  1.9711454e+00
  1.0603811e+00
  6.3283044e-01
  4.7296256e-02
 -1.0812704e-01
 -5.3213317e-02
 -5.6162518e-02
 -2.6072169e-04
  1.7414631e-04
  7.1584465e-05
 -4.8337967e-04
  3.6083165e-04
 -3.6227420e-01
 -1.5499842e-01
  4.7520516e-05
 -5.9707314e-01
 -2.1380431e-04
  6.1109063e-04
 -5.1020515e-01
  1.6808219e-02
  2.5525230e-01
  4.4618565e-01
  1.9358248e-01
 -1.0435688e-03
  2.5746602e-04
  1.7529671e-04
  3.8371354e-04
 -1.8678738e-04
 -1.5011239e-04
  1.0402130e-04
 -7.5658201e-05
  3.2136176e-04
 -2.4551604e-04
  8.9469177e-05
  7.4268217e-05
  5.1731203e-04
 -1.1088011e-06
 -1.9575986e-04
  3.4072818e-06
 -1.5745436e-05
 -9.1743987e-04
 -2.4411609e-04
  9.9846126e-05
  2.0434207e-04
  8.3418912e-05
  3.2609645e-05
  1.3764270e-04
  1.9399972e-04
 -6.2296353e-04
 -2.3417608e-04
  1.0917023e-05
 -5.3730706e-04
  3.7367525e-05
  1.6971861e-04
 -7.7664772e-05
 -1.7583166e-04
  2.0615316e-04
 -4.4966984e-04
 -9.6511096e-05
 -2.3670458e-04
 -8.2109211e-05
 -5.3169556e-06
 -3.6813036e-04
 -3.3086286e-05
  9.3580536e-05
  3.1550637e-05
 -2.6917303e-04
 -5.5948571e-05
  1.2463448e-04
 -2.5128361e-04
  3.6061720e-05
  1.1582573e-04
 -1.0517826e-04
 -1.0759998e-05
  1.9990253e-05
 -1.0029149e-04
 -3.7651206e-04
  5.1228024e-05
  1.6120005e-04
 -3.1637378e-06
  3.9883281e-04
 -5.7394040e-04
  1.7360723e-04
 -3.8637887e-04
  3.4753932e-04
  1.3255613e-04
  5.2849497e-05
  1.4173781e-04
 -9.1738293e-05
  1.1294864e+00
  9.8425115e-04
  1.1365991e+00
  1.1173096e-02
  9.7705740e-01
  9.3918800e-01
 -3.4703896e-04
  5.1012844e-01
  8.4784540e-04
  6.2016898e-04
 -3.1641847e-01
 -2.5649485e-06
 -5.3303066e-04
 -2.9925772e-04
 -1.2312834e-04
 -2.8795871e-01
  3.5121191e-01
  2.9143352e-05
 -1.9397219e-05
 -9.7669195e-05
  2.1331687e-04
 -2.4417397e-02
  3.2500357e-05
 -7.2602195e-01
  5.9856387e-04
  7.0417838e-05
  1.0884025e-05
 -5.7351597e-05
  1.0971454e-04
 -1.2104883e-04
  1.1268409e-01
  2.2415383e-01
 -2.0527872e-01
 -1.6171603e-01
 -1.2727158e-01
  6.1866317e-02
 -9.3427859e-02
 -7.0328936e-03
  1.2003315e-02
 -1.1760676e-07
  3.3004300e-04
  5.0412472e-02
 -5.6864001e-04
  7.9558147e-03
  3.6566284e-02
 -3.6453553e-02
  1.8314047e-02
  1.7751591e-01
  3.3506562e-03
  1.4563496e-03
 -1.5898937e-01
  1.4345724e-03
 -6.2531978e-02
 -8.9070973e-06
 -1.2561788e-05
  4.1567505e-04
 -1.4429827e-03
 -3.6317851e-05
  5.7201728e-04
 -2.1403199e-05
 -2.9527843e-01
  2.9228434e-01
 -3.0381227e-01
 -2.1212205e-01
 -6.5786970e-01
  3.9146389e-04
  7.6162622e-05
  7.7172293e-04
 -5.1189920e-05
  1.0226518e-03
  4.2934279e-04
  5.6684230e-02
 -8.9467130e-06
  7.4693351e-04
  3.8459229e-03
 -2.5866006e-04
  4.9004514e-02
  5.1288185e-05
  4.4498390e-01
 -2.3233819e-04
 -7.5239114e-02
 -2.2431743e-01
 -7.4084890e-03
 -6.4701031e-05
 -1.5927787e-04
  6.8106712e-04
  6.8668676e-05
  4.6411886e-05
 -6.0269660e-05
 -8.8416527e-08
 -2.0148227e-04
 -2.5777901e-03
  2.6920158e-01
  7.5882755e-02
  4.1707739e-02
  6.5912376e-05
  1.2341844e-02
 -6.5251399e-05
 -4.5249888e-04
  2.6800244e-05
  3.5527535e-04
 -1.0297469e-04
  9.7180373e-04
 -5.6236220e-04
  1.1780312e-04
 -2.6122818e-05
  9.7917917e-05
  2.0607706e-05
 -1.8577723e-04
 -4.8954934e-03
  1.7981137e-04
 -3.1788489e-03
  1.3283698e-02
 -8.6950400e-05
 -2.7719641e-04
 -4.6170262e-05
  4.7552880e-04
 -3.5256009e-05
  3.5405803e-06
  3.2446461e-04
 -2.3719711e-04
  3.5763846e-06
  3.6014256e-04
 -8.0848811e-05
  2.2982569e-04
 -3.4056275e-04
  1.7120708e-04
  1.4164907e-04
 -1.8425983e-04
 -1.5916678e-05
  2.5924586e-04
 -2.7374979e-05
  1.9926301e-05
 -2.5185084e-04
 -4.6348673e-06
  1.8507641e-04
  1.0797822e-04
 -1.6967615e-04
 -3.7568947e-04
 -9.5055460e-05
  3.0820214e-05
  2.1065163e-04
  4.5143740e-04
  2.4326981e-05
  6.7580972e-05
 -1.4406864e-05
  1.5032127e-04
 -5.2963514e-05
 -2.9571882e-05
  2.1819101e-04
  6.5803862e-01
  1.7304334e-01
  1.2735147e+00
 -3.5176636e-04
 -4.5186469e-05
 -1.2830357e-01
 -8.4017847e-05
 -3.2175787e-02
 -2.7101974e-03
  1.3026683e-01
  5.6723296e-04
  4.8339646e-04
  9.0676571e-05
 -6.7604515e-06
  2.8045268e-05
  1.1884668e-04
 -5.3677239e-02
 -1.2328099e-03
  5.6773424e-02
 -1.2255260e-03
 -3.8549409e-04
  1.0172788e-02
  2.1672600e-04
  1.0970401e-03
 -1.8476471e-02
 -6.7762285e-04
  4.7892601e-05
 -6.0900791e-05
 -4.6829353e-04
 -1.9010805e-04
  5.8043242e-01
  3.6994451e-01
  9.1017924e-02
 -5.0527465e-01
 -4.8065960e-04
 -7.6176143e-01
  5.3414744e-03
 -2.8680697e-01
  4.1338615e-02
 -1.0453984e+00
 -4.9703649e-01
 -1.4110230e-01
 -3.4120893e-01
 -1.5871002e-03
 -2.8517970e-01
 -3.6413278e-02
  2.8571904e-01
  2.9542353e-02
  1.7778291e-01
 -1.7735107e-01
 -2.0974869e-02
 -1.0405928e-01
  1.0616233e+00
  1.1286922e-01
  1.6365843e-01
  6.3444249e-04
  1.8675871e-04
  2.9709865e-04
  1.5402420e-03
 -2.8808613e-04
 -3.0649157e-04
 -3.4108257e-04
 -1.3517032e-04
 -7.2286966e-05
 -3.1410091e-04
 -8.6381900e-05
 -2.7033704e-04
 -8.5903463e-05
  1.7827124e-04
 -4.2229233e-04
  2.8654741e-04
 -2.6273300e-04
  1.2398460e-04
  4.5902136e-04
  1.6978214e-04
 -2.1834660e-04
 -4.2513473e-04
  1.4257776e-04
 -1.0117456e-04
 -3.6315474e-04
 -2.3518303e-04
 -3.7002108e-05
 -2.5544254e-04
  1.7137054e-04
 -9.6644471e-05
  4.9357297e-04
 -5.6973531e-05
  6.5221783e-04
  2.5653618e-04
 -1.6073840e-04
 -1.3585804e+00
  4.1088676e-01
  5.8340377e-01
 -1.2922728e-01
 -6.2194395e-01
  5.3222573e-01
  9.8291886e-01
 -8.9992577e-01
 -1.0886226e+00
 -1.0815836e-01
  5.8733731e-05
 -1.3372455e+00
  2.2031949e-01
 -1.0378566e+00
 -2.2313983e+00
  1.4980623e+00
 -1.0559869e+00
 -8.2493258e-01
 -5.4804730e-01
 -8.2641840e-01
 -8.7199885e-01
 -1.3271518e+00
 -6.5613985e-01
 -1.9217737e-01
 -7.2830313e-01
 -4.9524679e-04
 -4.6551831e-05
  1.3456988e-03
 -1.8114866e-04
 -2.8509923e-05
  2.1584411e-04
 -2.2946578e-01
  1.4536861e-01
  1.1553893e-01
  1.8252723e-01
 -7.0402224e-05
  2.4781683e-02
  2.7798663e-04
 -1.3574390e-04
 -6.6521612e-04
  4.3361069e-05
 -7.1403553e-04
  7.6599867e-04
  4.5510289e-05
  1.3077431e-04
  3.4992568e-02
 -5.9820194e-02
 -1.3969323e-04
 -3.5700316e-03
 -5.7602087e-05
  1.2940393e-01
 -3.1288926e-02
  1.8363694e-02
  5.0412929e-03
 -1.1412541e-04
 -2.6740751e-04
 -1.4650419e-04
  1.3969015e-04
 -1.0579584e-05
  1.2759047e-04
 -4.8863459e-01
  4.6374613e-01
 -6.6321003e-01
  8.1131327e-01
  3.4920648e-01
 -1.1675186e+00
  3.0176297e-01
 -3.5933901e-02
  2.7040029e-01
  1.0548428e+00
  9.2057409e-03
  4.2427441e-01
  6.7373561e-03
  1.5575523e-04
 -2.8712656e-02
  5.0504535e-02
 -4.4812981e-02
  3.1792289e-01
  3.8143940e-02
 -5.0594574e-01
 -2.7341989e-01
 -2.8080821e-01
  7.6220535e-02
 -6.7119405e-02
  1.3036038e-01
  8.1139919e-04
 -1.7103319e-01
 -2.0938546e-04
  4.1766235e-01
  4.6445853e-01
  2.6120376e-04
 -5.4167084e-02
 -5.1004809e-01
  2.7423504e-01
  6.7932386e-05
  1.8577893e-04
  2.1468407e-04
  8.5319996e-02
  9.7540273e-05
 -6.1717747e-06
 -3.0150817e-04
  5.0918877e-01
  3.2418079e-04
 -1.3966782e-03
 -9.2471055e-05
  8.2641462e-04
  4.3603955e-04
 -3.5166700e-05
 -1.0661638e-03
  2.5903163e-04
  9.3235469e-01
 -4.3720564e-01
 -1.0563564e-01
 -2.1042052e-01
 -1.2549716e-04
 -8.2942643e-05
 -9.2257484e-05
  3.5001949e-06
 -1.3167947e-04
 -7.1139645e-04
 -8.3073229e-01
  1.1302825e+00
  2.3629247e-01
 -2.3100479e-01
 -2.0173403e-02
  6.1736298e-01
  4.8348367e-01
 -4.7334395e-02
 -1.6454718e+00
  7.1381091e-04
 -6.6606236e-01
  4.4106871e-01
  5.5567461e-01
 -2.7436832e-01
 -3.0658085e-02
  5.9087514e-03
 -1.0953343e-01
  1.6483434e-01
  1.7527670e-01
 -8.9090663e-01
 -1.0856345e+00
 -7.5864935e-01
  9.0120070e-02
  1.8850772e+00
 -9.1909664e-04
  6.2717118e-06
  8.3098712e-04
 -5.4110085e-05
  2.5003380e-04
 -3.5934308e-01
  9.1634905e-03
 -4.8982222e-02
 -1.3667551e-01
  4.7003892e-01
  1.4393035e-01
 -1.9429166e-04
  2.1458244e-04
  4.0059866e-04
 -1.2873240e-04
  4.1420932e-05
 -5.8813261e-05
 -8.1881008e-05
 -2.5806588e-04
  4.0015475e-06
 -3.5005876e-05
  2.5936062e-04
  1.1793796e-02
 -1.0456798e-04
 -2.6803161e-04
 -3.5597463e-04
 -1.1138540e-03
 -3.1272173e-01
 -7.5266463e-01
  4.8064590e-05
 -3.8444246e-05
 -9.0704059e-05
  2.8958576e-04
  3.5910876e-04
  1.1874131e-04
  7.6418699e-05
 -2.4387949e+00
  4.7171208e-01
  9.2231266e-02
  4.2967817e-01
 -1.0508564e+00
 -5.4052303e-05
 -2.8333813e-04
  1.8651278e-03
 -4.4285398e-04
  1.7141421e-04
 -3.6346462e-01
  5.2750885e-02
  6.8708550e-04
 -7.9022932e-01
 -8.2739584e-02
 -5.4800552e-01
  1.6634513e-03
  5.0646709e-03
 -1.6849178e+00
  5.5430824e-05
 -8.5633382e-02
 -1.0987450e-01
 -4.0271584e-02
 -3.8551442e-02
 -9.3319046e-04
  1.9714228e-04
  2.2599488e-04
  5.7959673e-04
 -1.6720711e-05
 -9.0608157e-02
 -7.8456997e-06
  6.8600598e-04
 -3.4315739e-04
  1.1107731e-04
 -9.1230257e-05
 -1.8110877e-04
  2.7683433e-04
  9.0460599e-05
  1.1434589e-04
 -3.3800947e-04
  5.7800342e-05
  5.4939028e-05
  2.9404753e-05
 -1.0122066e-04
  2.0013415e-04
  3.5796485e-05
  1.3499169e-04
  1.9807491e-04
  2.2768002e-04
  3.1685657e-04
  2.3669760e-04
 -2.8745655e-05
 -4.2448333e-05
  5.2750390e-04
 -9.2204282e-05
  2.0945527e-05
 -5.8511296e-06
 -1.7192611e-05
  7.0727556e-06
  5.1116243e-05
  5.3083528e-02
 -9.4134388e-03
  2.8018650e-01
  1.4266928e-01
  2.2148743e-02
 -2.6788020e-01
  5.6254625e-01
 -1.3831975e-01
 -7.2541050e-05
 -1.2382405e-04
 -5.5150792e-04
 -3.1375515e-01
 -3.5619887e-04
  1.0378072e-04
 -1.6431607e-01
  1.3020526e-01
  2.8326413e-01
 -1.0603838e-01
  7.4719391e-03
 -9.4224833e-02
  4.1869131e-01
 -1.3738676e-02
  1.7804667e-01
 -7.9260319e-02
 -1.9375491e-03
 -4.8907992e-04
  2.5531592e-05
  8.9794438e-04
  1.6765513e-04
  1.6014421e-04
 -5.2588162e-05
  1.5932645e-03
  2.5322805e-05
  2.5488934e-04
 -5.4944081e-05
 -2.2543414e-05
  4.8872484e-05
  1.0064431e-04
  1.9627654e-04
 -2.4719414e-04
 -1.4106979e-04
  6.2407918e-05
  1.0976647e-03
  6.8880792e-05
 -1.2044487e-05
  5.1056611e-04
 -1.4874652e-04
 -1.7528943e-04
 -2.4894613e-04
  2.6136806e-04
  1.9636239e-04
 -8.4312970e-04
 -1.9899977e-04
  1.9153635e-04
 -6.9373025e-05
  3.7841618e-04
  3.1757103e-05
  1.5295846e-05
 -1.6372834e-04
 -2.2525268e-04
  5.7620913e-01
  1.4044706e+00
  2.0124445e+00
 -4.7913956e-04
 -4.4577137e-01
  2.5661257e-01
  1.4743523e-01
  5.4854190e-04
  4.8887655e-03
 -4.8702419e-01
  2.4262557e-03
 -8.8085449e-01
  4.3474391e-04
  1.5392386e-02
 -7.1181930e-05
  2.6306912e-05
 -4.6185243e-01
  3.8787563e-04
 -3.2182140e-04
  7.1040936e-02
  1.5980832e-01
  8.8857047e-02
 -2.9144433e-04
  3.9534408e-01
 -1.8505541e-05
  7.3248736e-04
 -1.2840278e-04
 -2.0011436e-04
  5.9483369e-04
 -1.7489627e-05
  2.3093472e-01
  2.6044898e+00
 -9.0757743e-02
 -1.9021243e+00
  1.5407076e-01
  2.4694280e-01
  1.1259490e+00
  1.3169433e+00
 -9.9953181e-01
  3.1277233e-01
  5.6817764e-01
  1.8200135e-01
  1.2472284e-01
 -2.1195339e-01
  1.1987734e+00
  3.6277455e-01
  2.9287392e-01
  1.8331733e-01
 -4.3776561e-02
  1.3051648e+00
 -8.0153689e-02
 -3.2633752e-01
  1.0921844e-04
  1.4683212e+00
  4.0127395e-04
  2.2674954e-01
 -4.2474928e-04
 -2.0293314e-03
  1.8875425e-01
 -6.1659445e-04
  2.4015910e-04
 -2.8057516e-01
 -5.5079871e-01
 -1.0489488e-05
 -1.0182110e-01
 -4.2790446e-01
 -2.1718776e+00
 -9.2442673e-01
 -1.6422941e-04
 -3.6416756e-04
 -2.3402831e-02
 -5.1648360e-01
 -4.1888568e-01
  1.1767982e-05
 -2.5137252e-04
 -3.4195486e-02
  1.8829760e-01
  9.6016629e-05
  4.0755019e-01
  1.4967343e-01
  1.0472027e-01
 -3.4254379e-05
 -8.3175892e-01
  7.0721901e-05
  5.8840531e-01
 -7.9071040e-05
  1.0181393e-01
  2.5747818e-04
  3.7063512e-01
 -8.5073233e-02
  2.0459449e-04
  3.6014012e-01
  1.6599391e-01
 -6.4039319e-05
 -7.5351137e-01
  2.0305124e-01
  6.3005644e-01
 -2.2446793e-01
  8.6810862e-05
  1.5576187e-04
  1.2238743e-01
  3.7106282e-01
  1.8513727e-01
 -2.3380177e-01
  1.3282069e-05
 -7.0627028e-01
  3.4247231e-01
 -3.6263294e-03
 -3.0106866e-01
 -2.4727494e-01
  9.1329300e-01
 -2.5942510e-01
 -7.3934972e-01
 -1.2146247e-01
 -2.8932807e-01
 -1.2753822e-04
 -3.2101613e-01
 -4.6017041e-05
  7.4003398e-01
  9.2733228e-01
 -2.7645341e-01
  1.6224805e-01
  5.5373818e-01
  9.0223825e-01
  2.2363504e-02
  3.1837550e-01
  1.3657701e-01
 -1.3663304e+00
  2.6037014e-04
 -6.7401904e-01
  3.1315636e-02
  2.9138857e-01
  1.2254263e+00
  3.3127198e-01
 -1.2621792e-01
  4.8114341e-01
  2.7436130e-02
  2.4604604e-01
  1.7732690e-01
  7.8641540e-01
  4.9331355e-01
  2.7035892e-01
  5.8848178e-03
 -5.4703474e-01
 -1.1339846e+00
 -7.0646361e-02
  2.1757382e-01
  5.7940715e-04
  1.1118220e-04
 -5.5279833e-01
  9.4518065e-02
 -1.1618810e-02
 -6.9131561e-02
 -4.4509163e-01
 -2.8737357e-01
 -5.6689743e-05
 -9.2204632e-03
 -8.2707067e-04
 -1.9639370e-05
 -5.5674605e-05
  2.6005737e-02
 -2.2682693e-02
 -4.2525586e-05
 -5.9323409e-04
 -5.1705781e-03
  6.9224886e-03
 -6.5795541e-02
  1.3803204e-03
 -2.4578495e-02
 -6.9120288e-04
 -3.1810874e-04
 -8.8407025e-02
 -4.7211137e-04
  5.2588843e-05
  6.1977720e-05
 -3.4655360e-04
 -5.9213540e-05
 -1.8822670e-04
  2.9696559e-04
 -1.0062791e-04
  1.6529080e+00
  2.3051005e-02
 -7.8684807e-02
  6.9820177e-05
  4.4435135e-01
  1.0083547e-04
  1.5773973e-03
 -1.8593455e-04
 -1.0336073e-04
 -1.4844759e-03
  2.8871535e-04
 -2.8214950e-04
 -1.3039354e-04
  6.5516180e-04
 -4.8519760e-05
  8.0289363e-05
  5.9766223e-04
  7.5033546e-04
  1.5595549e-04
  1.3451787e-05
  2.4822843e-03
 -2.9501755e-04
  6.0603203e-04
  1.1637384e-04
  1.0034437e-04
  3.0040013e-04
  3.6561885e-04
 -6.3281332e-05
 -2.2524197e-04
 -8.7264831e-05
 -2.1876769e+00
 -5.8593778e-03
  8.9719462e-01
  6.8356770e-01
  8.9061230e-01
  8.5510537e-03
 -1.5384802e+00
  3.7684950e-01
  3.9460568e-04
 -8.1341481e-01
 -6.5420818e-01
 -8.1217006e-02
 -1.1539440e+00
  9.5529549e-06
 -1.0905491e+00
 -9.7375476e-01
  2.6046160e-01
 -1.3967040e+00
 -7.2396979e-05
 -1.6685857e+00
 -4.2092296e-01
  5.5054588e-06
  1.0397066e-05
 -1.1598520e-03
  2.5882422e-05
 -3.2534404e-05
 -4.4034876e-02
  2.8337142e-04
 -6.2706927e-04
 -4.9805742e-05
 -1.7343204e-01
  4.1846758e-01
 -1.6322988e-01
 -1.0021632e+00
 -2.3915341e-01
 -1.3626747e+00
 -2.0653386e+00
 -1.0910698e+00
 -7.8548950e-01
 -3.1852311e-01
 -1.2922624e+00
 -3.8971329e+00
 -5.2077532e-01
 -1.2903693e+00
 -6.2983823e-01
  1.2674218e+00
 -1.5242671e+00
 -1.3980560e+00
 -9.7878808e-01
  2.4236688e-01
  1.2915699e+00
 -1.0887116e+00
 -6.9097239e-01
 -1.6084964e+00
  5.9157168e-04
 -1.0204818e+00
 -2.3435973e-01
  3.4177482e-01
  2.1842435e-04
  4.8158878e-01
  3.8802393e-02
 -5.7504090e-05
  5.3755852e-04
  5.5305739e-03
  1.2294858e-01
 -5.1346124e-05
  3.0676187e-05
 -5.2200623e-05
 -2.0167901e-05
  1.5347349e-04
 -3.3611260e-04
 -2.8562392e-04
  2.9517434e-05
  5.7833771e-05
 -8.4724772e-05
 -2.2209753e-05
 -4.6528185e-05
  8.6870794e-05
 -4.6696072e-04
 -3.3234557e-04
 -1.3017884e+00
  1.9870343e-04
 -5.7132554e-04
  1.7523764e-04
  1.5801455e-04
 -2.3939356e-04
  7.5075608e-05
 -1.7019392e-04
  5.1454514e-05
 -5.7609454e-06
  9.8484850e-01
 -8.8800319e-02
  1.9501688e+00
  2.2375700e+00
 -2.1853485e+00
 -5.1474374e-02
  3.1475279e+00
  2.6497701e-01
  7.6644021e-05
  3.4550852e-01
 -6.9193938e-04
  4.1400081e-01
  3.6271268e-01
 -3.1797486e-04
 -3.8590766e-03
  9.1683519e-01
  6.2878069e-04
 -2.8900804e-05
 -6.5817538e-04
 -4.3485803e-03
 -1.2833134e+00
  6.6135434e-04
  8.0265373e-04
  1.1708882e-04
 -2.4265978e-03
  4.2903394e-04
 -8.0359277e-05
 -1.5257989e-04
 -1.8133484e-04
  1.6183851e-04
  3.3224955e-01
 -9.6707679e-03
  7.6713838e-02
 -2.5822952e-01
 -7.3290277e-01
  3.8832134e-01
  9.2489548e-02
  4.8761066e-02
 -2.4098260e-02
  1.6854022e-01
 -1.4881012e-01
 -2.7858335e-01
  7.2789453e-03
 -6.5554841e-03
 -5.1743323e-03
  3.8762018e-03
 -2.1830392e-01
 -3.5331436e-03
 -4.2072196e-02
  2.4653489e-02
 -1.9111650e-02
 -1.0925140e+00
 -7.0853837e-02
  2.1269724e-01
 -3.4816980e-01
 -1.0526828e-01
 -2.8891250e-01
 -3.9261948e-02
  7.3897257e-02
  2.7442178e-01
  1.1456336e+00
 -5.6119066e-01
 -5.6225038e-04
 -1.0924271e-01
  5.6484572e-05
 -5.6456850e-04
 -2.2506535e-01
  1.7963201e-04
  7.5895496e-06
  8.1380822e-02
 -1.1360892e-05
  1.9968141e-04
 -1.2431781e-04
  2.2519738e-04
 -2.7564832e-04
 -1.6327132e-04
 -6.0666859e-04
 -2.1259006e-04
  1.1547530e-04
  3.3537657e-05
 -2.2476936e-04
 -1.2933822e-04
 -2.8246996e-04
  5.0648261e-04
  7.4209143e-05
 -3.1058458e-05
  1.7221081e-04
 -1.9409067e-04
 -4.4030385e-05
  2.2198858e-04
 -1.0335339e+00
 -2.3409252e+00
  1.2896814e-02
 -1.2873572e-01
  2.0483074e-01
  1.0362028e+00
  2.3965685e+00
  2.2254868e+00
  2.7410507e-01
 -7.0364738e-01
 -5.5130076e-01
 -1.2482001e-01
 -1.4358377e+00
 -2.6599071e-03
 -1.9169558e+00
  5.3939861e-01
  2.0355768e+00
 -1.6540623e+00
 -7.6811535e-05
 -3.4488174e-01
  1.8779939e-01
  3.6931011e-01
 -2.5685164e-04
 -5.5703521e-01
  1.2348857e-01
  8.5995613e-05
 -9.5100723e-02
  8.2192004e-01
 -3.2958375e-05
 -6.1484036e-04
  9.8823851e-01
 -1.0372380e+00
 -2.2668381e-01
 -3.9363340e-01
 -1.0285385e+00
 -1.8565023e-01
 -2.0985413e+00
 -1.0923574e+00
  1.8002215e-01
  6.0820174e-01
  9.1450341e-02
 -6.4592379e-01
 -2.3013343e-01
 -7.1834363e-02
  7.7036262e-01
 -4.1589621e-01
 -1.2205701e+00
  3.7447217e-01
  3.6404535e-01
  1.9801316e-01
 -4.3961883e-01
 -7.3235834e-01
 -4.4036770e-01
  3.3451667e-01
  7.9290873e-01
  7.3886281e-01
  7.4654591e-01
 -5.0385620e-02
 -2.6848060e-01
  6.1439246e-01
  4.7686152e-02
  2.6545155e+00
  1.3023453e+00
  5.2027136e-01
 -5.7608849e-01
  1.4553338e+00
  6.9578695e-01
  2.2489994e-04
  7.6671749e-01
  9.9029206e-02
 -9.5959380e-02
 -7.1454340e-01
 -5.2167714e-01
 -2.7451420e-03
  4.2381361e-02
 -4.3918231e-01
 -4.7393513e-01
  9.4440520e-01
 -8.5970515e-04
 -2.6216519e-03
 -5.8950377e-01
  1.5823451e-04
 -2.4195146e-04
  3.7713391e-05
  2.1795380e-05
 -5.5585033e-04
 -3.3963218e-01
  8.3154584e-05
  6.3911604e-05
  4.9677020e-04
 -1.1342760e+00
 -1.8164334e-04
  3.5990893e-03
 -7.2143418e-03
 -6.1200738e-02
 -2.5225634e-04
 -3.0002844e-05
 -6.3217391e-04
 -4.8167305e-05
  1.3122286e-04
 -8.7693283e-05
 -9.8518649e-06
 -1.8234314e-04
  2.6145553e-05
  3.2353855e-04
 -1.3361912e-04
  1.0078278e-04
 -9.5872110e-06
  1.7654171e-06
  5.3432614e-05
  8.1241218e-05
  1.3687280e-04
 -5.3872337e-04
  2.5279619e-04
  2.0509376e-04
 -1.2551941e-04
 -8.6557586e-05
  6.9995754e-06
  4.5209902e-04
  2.7187055e-04
 -1.5606831e+00
  1.9250003e-04
 -2.7784608e-05
 -9.2923556e-06
  7.3169620e-05
 -2.2107170e-05
 -1.4907879e-05
  9.1348651e-05
 -2.0430711e-04
  2.0526006e-04
  1.6265722e-04
 -1.7236921e-04
  2.1233449e-04
 -7.5973046e-05
  1.1188673e-05
 -2.0365373e-05
  2.5533390e-04
  5.7683737e-06
 -6.8715221e-05
 -1.0908271e-05
  5.6550401e-05
  3.5511301e-04
  2.1465891e-04
  4.2524720e-05
  7.8304533e-05
  1.2246117e-05
 -1.7738348e-04
  2.7003065e-05
  2.9695284e-05
  1.3281233e-04
  1.0796545e+00
 -2.6583397e-01
 -1.6619508e-01
  1.6483999e+00
 -8.3601731e-01
  2.2309789e-02
 -5.7650697e-01
 -1.5878238e-01
  2.2697663e-05
  5.3960800e-02
 -8.2434304e-02
 -3.5417671e-03
 -2.1094236e+00
 -3.7482430e-05
  2.0181012e-01
  5.1307923e-01
 -9.6669227e-01
  3.1088980e-02
  6.6920446e-05
  5.3616392e-04
  3.4196577e-03
 -1.7610335e-04
 -7.3194993e-03
 -2.1583753e-04
 -5.0785799e-05
  9.0277736e-04
  3.3289116e-06
  3.0196293e-03
  1.4506216e-04
  2.2654633e-05
  2.0143356e+00
  2.4491505e-01
 -1.7853186e+00
  1.7918861e-01
  1.4298004e+00
 -2.3444118e-01
 -1.0393727e+00
 -9.7844052e-01
 -6.2351709e-04
 -1.0308659e+00
  5.4560887e-04
 -1.2306792e-03
 -2.3357151e+00
  5.3114058e-05
 -1.6731511e-01
 -1.1754823e+00
 -1.9766301e-01
 -7.2805434e-01
 -1.8581025e-01
 -5.2555555e-01
 -1.0990399e-04
  1.0946101e-04
 -1.1647645e+00
 -4.2984694e-01
 -3.9571000e-04
  4.4976299e-05
 -2.9213651e-04
  1.5913050e-03
 -1.9559838e-04
 -4.8509581e-05
  2.8723219e-01
  5.4482871e-01
  3.4434855e-01
 -1.0294977e+00
 -6.2730098e-01
 -7.5260502e-01
 -1.9376999e-01
  7.5701721e-02
  1.1296779e-01
  2.2447208e-01
 -3.0577073e-01
 -2.5542939e+00
  4.8467174e-01
  1.5308495e-01
 -1.1549656e+00
  1.0018256e+00
 -6.1934358e-01
  7.9552844e-02
  3.9593391e-02
  1.8477561e-01
  4.4792634e-01
 -2.6952636e-01
  1.7829046e+00
  2.7518171e-01
  1.0083147e+00
 -1.4399164e+00
 -1.6403446e+00
 -2.0675911e-01
 -5.7439052e-04
  3.1736755e-01
  3.1700581e-01
 -4.6856288e-02
  1.0870528e+00
  1.5002252e+00
 -7.8330952e-01
  1.7219342e-02
 -5.3091317e-01
  2.7206284e-01
 -1.6644409e-01
  9.4444871e-01
  1.3809822e+00
  4.6720657e-01
  1.7456410e+00
 -1.4335622e-01
 -6.5992957e-01
  2.4679859e-01
  8.5525635e-06
  2.6132832e+00
  5.7652671e-02
 -5.5889745e-05
  5.1432747e-01
  4.7915199e-01
  2.2824620e-01
 -1.6382083e-01
  6.2956017e-01
  1.2512848e-04
  2.9420809e-04
  3.2859622e-05
 -1.5447455e-04
 -1.6457765e-01
  2.2777798e-02
 -2.0353064e-02
 -1.3313197e-01
 -3.9292067e-01
 -1.3078797e-01
 -3.1078738e-04
 -2.4598764e-04
  2.5938460e-04
 -1.8085430e-04
 -2.8841393e-03
  4.0900526e-03
 -2.2034438e-01
 -4.6346398e-05
 -4.4324325e-04
 -1.8516311e-03
  4.1497094e-03
 -2.7291387e-02
  1.7486441e-04
 -4.0934910e-03
 -3.5539671e-04
  3.6755836e-04
 -4.2912693e-04
 -6.1135244e-05
  5.3430838e-04
 -1.0742774e-03
 -6.3768472e-05
 -1.5323712e-04
  1.7427964e-04
 -1.0994380e-04
  4.5163742e-06
  1.0003594e+00
 -5.7729733e-01
  1.7015107e+00
  6.3464427e-01
 -2.1418849e-01
  2.7640689e-02
 -1.2243369e+00
 -1.5308382e-02
  2.0841084e-01
  7.6293623e-01
 -6.4777941e-01
 -6.5650529e-05
 -1.9243832e+00
 -3.6835659e-04
 -1.6406457e-01
 -9.7738296e-01
 -1.2752200e+00
 -5.1871106e-02
 -6.0292656e-05
 -1.6855142e+00
 -9.0791237e-01
 -4.5734814e-05
 -1.6627264e-03
  3.2243456e-04
 -2.6538687e-06
  5.0270897e-01
 -4.6474431e-04
  1.4147311e-01
 -1.9138478e-04
 -9.2340383e-04
  4.2630497e-01
  2.2246379e-01
 -3.8087538e-01
 -5.0209022e-01
 -1.6695063e+00
 -2.5453643e-04
 -7.9591468e-04
  8.0952588e-05
  4.8526246e-05
 -2.9395387e-02
  3.8510340e-04
  1.2185868e-05
  4.0844435e-04
 -1.1107967e-04
 -3.4359624e-04
  2.5363652e-05
  1.3418363e-04
 -5.1407324e-04
 -9.3991337e-05
  5.3803928e-05
  2.3178071e-04
 -5.2884974e-05
  3.3638292e-04
  6.6886372e-05
 -4.5971037e-04
  2.9522929e-05
 -2.4974614e-04
 -1.4763074e-04
 -1.3705346e-04
 -2.7059854e-04
 -2.0690756e-01
  1.8693035e+00
  1.5323278e+00
  4.2234975e-01
 -1.5757344e+00
  1.8803219e-04
 -9.9596584e-01
  1.1544412e-03
  7.2424364e-04
 -4.6768343e-01
 -1.8462309e-01
  4.8034348e-05
 -4.4218752e-01
  9.8739844e-04
 -4.4799200e-01
 -8.2382649e-02
  9.9018580e-06
 -5.0019514e-02
  4.4045961e-04
  8.0693364e-02
  3.6034970e-05
 -1.2325107e-04
 -1.4075339e-03
 -1.7444083e-01
  1.2774329e-03
  1.0078166e-03
  9.8369319e-06
  5.1489264e-01
  2.1422267e-04
 -3.9507244e-03
 -1.3606603e+00
 -1.9725411e-04
 -1.5828367e-04
  3.4757293e-05
 -5.0868362e-05
 -3.3630658e-04
 -3.1887488e-05
  1.9275867e-05
  1.6508593e-05
  5.1559083e-04
  4.6564091e-05
  3.9060309e-04
  3.4060722e-05
 -3.1950828e-04
  9.2570425e-04
  5.1751478e-05
 -1.3433493e-04
  2.9325497e-04
 -1.0876307e-04
  7.4246502e-04
 -8.6438202e-05
  1.3150678e-04
 -1.6294674e-04
  4.0802729e-04
 -9.4935254e-05
 -1.0551201e-04
 -3.8815013e-04
  6.2098814e-05
 -1.8568039e-04
  5.3624750e-05
  1.6025552e+00
 -3.5053077e-01
 -2.5097704e+00
  1.6402730e+00
  1.4252195e-01
  3.8928995e-01
  6.9905323e-04
  4.1371536e-01
  5.4717422e-01
  3.1668326e-01
 -2.6159946e-02
 -6.2555015e-01
  2.7082901e-04
  1.0242553e+00
 -1.7781977e-02
  8.7360316e-04
 -3.4307774e-05
  1.1100869e+00
  1.0315685e+00
 -1.2431083e-01
 -1.7537428e-03
 -8.4743340e-04
  1.3004653e+00
  7.0733374e-01
 -5.3133693e-04
  2.7967626e-04
  4.6100223e-04
  7.7761084e-02
  2.4046922e-04
  4.0848408e-05
  1.9203461e+00
  2.1776369e-01
 -4.9138749e-01
 -1.8861626e-01
 -4.3056253e-01
  4.7717661e-01
 -1.4524033e+00
 -8.2580512e-03
 -9.5792043e-01
  4.6821716e-01
  3.9320576e-01
 -1.7077720e+00
 -1.8937819e+00
  2.6310390e-04
  1.2256142e+00
 -2.9568131e+00
 -2.2845514e+00
  1.9298795e+00
  1.0324935e-05
  2.6955122e-01
 -2.2771363e+00
 -3.5681906e-01
  8.1717424e-02
 -7.8348942e-02
  2.6962593e-05
  6.5570541e-02
 -2.4996058e-05
  1.0335582e-03
 -1.9753241e-05
  1.6449727e-02
 -1.1930515e+00
  9.7698396e-01
 -6.9639713e-01
  1.1790932e+00
  3.0287713e-01
 -5.1545724e-02
  1.9419344e-01
  8.5052670e-05
  8.3629864e-01
  1.8988237e+00
 -1.9163285e-01
 -8.4937406e-01
 -2.0890036e-01
  5.1926142e-01
 -3.3619214e-04
 -2.7854726e-01
 -1.2627623e+00
  5.7855374e-01
  6.4953882e-01
 -8.0299884e-05
 -2.0652630e+00
  1.0343720e-04
  2.6116455e-02
  2.6487018e-04
 -1.4432987e-04
 -7.4752425e-06
 -4.9169621e-01
  4.0875690e-04
  1.8596594e-04
  1.6540006e-03
  4.6171839e-03
 -1.0157289e-01
  2.8929299e-02
  5.6752241e-01
  2.3013425e-01
  8.3074812e-04
  1.6120110e-03
 -1.3144512e-03
 -1.3413199e-04
 -3.1659668e-03
 -1.9027818e-02
  1.0926688e-01
 -7.1678529e-05
  1.1115974e-04
  2.8754043e-04
 -4.8634619e-03
  6.6137628e-04
 -2.1963697e-05
  4.7149635e-03
  5.1681498e-05
  1.5998217e-03
  6.8908953e-04
  9.1777094e-02
  1.0977225e-04
  6.6434623e-05
  5.0475833e-04
  2.8866454e-04
  6.8325194e-04
 -3.8803433e-04
 -4.2161968e-04
  2.9161748e-01
  2.2790811e-03
  7.4559227e-02
  1.4915501e-01
  3.5924000e-01
  4.6359266e-05
  4.5059176e-04
  1.4462408e-04
  4.6790286e-05
 -7.0439287e-02
 -2.7614078e-04
 -1.7914784e-04
 -5.3972524e-04
  3.6622569e-04
 -1.9015401e-04
  1.2688403e-04
  3.9086037e-04
  1.0047538e-04
 -3.0774635e-04
  1.0337856e-05
  1.5087998e-02
  8.4650695e-05
 -1.0207000e-06
 -2.5706473e-04
  7.7491568e-05
 -7.1220144e-05
  6.5917236e-05
  5.3899846e-04
  9.2545051e-06
 -2.1843436e-04
  2.1815448e+00
 -7.1501922e-06
  1.1300278e-01
  1.9417649e-04
 -4.1423660e-02
  2.3418255e-04
 -2.3739296e-05
  7.6542252e-05
  1.6025554e-04
 -6.6207249e-05
  1.4540568e-04
 -2.5964204e-05
  1.2961635e-04
  1.5030951e-04
 -1.6066301e-04
 -2.7565585e-04
  4.4122433e-05
 -1.5923996e-04
 -6.2170572e-04
 -1.8196051e-04
  5.0603918e-04
 -2.0070322e-04
  2.5567568e-05
 -6.5879285e-05
 -4.2212636e-05
  6.1386626e-04
  8.0668462e-05
  6.2457832e-05
 -1.6718960e-04
 -1.4479057e-04
  1.4065282e-01
  2.0846002e+00
 -9.9102491e-01
 -4.6773991e-01
  7.8833729e-01
 -1.5926470e+00
 -1.3910519e+00
  2.3078849e-03
 -7.9355290e-05
 -6.9726151e-01
 -1.0917521e+00
 -1.0040672e+00
 -4.3939610e+00
  2.4046384e-01
 -7.1578771e-02
 -3.0349903e+00
 -1.4315683e+00
 -1.5493350e+00
 -1.3886972e-01
  5.2672923e-02
 -6.9965005e-01
 -5.6763750e-01
 -1.4266839e+00
 -9.7489023e-01
 -2.8645226e-01
 -7.5574563e-04
 -1.3422903e-04
 -1.3250721e-04
  2.3127103e-04
  2.0038636e-04
  9.5362681e-01
  1.9525181e-01
 -6.0177404e-01
 -9.2016703e-01
  3.2517716e-02
  4.2334985e-04
  4.4803417e-01
  1.6273361e-01
  1.3444000e-01
  9.1942936e-01
 -1.2529644e+00
  4.2766765e-01
  7.5079516e-02
 -3.3299034e-04
 -2.6241648e+00
 -7.9358125e-01
 -1.1234308e+00
 -1.1616516e+00
  1.3005199e-01
 -3.7900832e+00
  7.2464025e-01
 -8.6548120e-01
  3.0949546e-03
  1.4775513e+00
 -2.5609922e+00
  1.6753216e-01
 -3.5590857e-01
 -2.4596607e-02
 -1.2954944e-01
 -6.3767803e-01
  1.0318091e+00
 -2.3641443e-01
  1.5524654e-01
  8.9015979e-01
 -5.7937568e-01
  2.4697408e-02
  1.9839226e-01
 -7.5500178e-01
 -1.0078262e-01
  2.0156723e-01
 -2.0461051e+00
  9.3196803e-01
 -1.0624064e-01
  6.8110235e-02
  1.8962140e-01
 -6.2736106e-01
 -1.3256910e+00
  1.8626897e-01
 -1.5057009e-01
  2.3949790e-01
 -7.0648558e-02
  1.6035922e-01
 -7.1943201e-02
  1.4331013e+00
 -1.8721941e-01
 -1.6945763e-01
  1.7068373e-01
  1.0511799e-01
  5.3799564e-01
 -1.8050726e-01
 -1.2300072e+00
 -1.9971438e-02
 -6.1463547e-01
 -7.4758607e-01
  3.0607263e-02
  8.3843893e-01
 -2.6417062e+00
 -3.4959443e+00
 -5.9651411e-01
 -3.2437606e+00
 -2.6060676e-04
  8.2500553e-04
 -2.1727006e+00
  8.1507926e-05
  2.6200982e-04
 -1.5856969e+00
 -1.1474607e+00
  4.9763498e+00
 -3.9446800e+00
 -4.8775258e+00
 -5.7365215e-01
  3.7621627e+00
 -1.9381440e-01
  5.5879611e-01
  6.1716455e-01
 -7.7598202e-01
 -1.7995628e+00
  1.3098345e+00
  1.5078260e+00
  1.1705093e+00
 -2.5624132e+00
  1.2776905e-01
 -9.6688767e-05
  2.5027816e+00
  2.9225674e+00
  2.6281822e-01
  7.6342815e-01
  1.1437492e+00
  3.1276245e+00
 -1.6588033e+00
 -5.9890503e-05
  2.5818583e-01
  4.2961577e-01
 -1.9770532e+00
  3.0582881e-01
  2.4023714e+00
 -8.1435680e-01
 -2.7863553e+00
 -6.7463040e-01
 -2.5356013e-01
  1.3403878e-01
 -2.9949019e+00
  1.2138753e-01
  1.7880019e+00
 -9.6118546e-01
  2.7651364e-01
 -1.8230175e+00
 -7.7489841e-01
  5.8477616e-01
  2.1955167e-04
 -8.3653955e-04
 -6.3198477e-01
 -4.7355800e+00
 -3.1271204e-01
  7.3146051e-01
  1.8938285e+00
 -3.1085396e+00
 -6.1674905e-01
  3.5985995e-02
  7.2987139e-01
 -8.0845493e-01
 -9.5135409e-01
 -4.2221487e-01
 -1.4771166e+00
  3.7456954e-01
 -9.3700588e-01
  1.8102405e+00
  3.7001207e-04
 -1.8719198e+00
  5.2946132e-01
  3.1175277e-01
 -1.1135843e+00
 -9.9953097e-01
  1.0608701e+00
  6.2827252e-02
  2.1519189e+00
  2.0644356e-01
  2.6333228e-01
  2.5329919e-04
  1.7417610e-01
 -6.4108360e-01
 -4.7523570e-01
  1.5242503e+00
 -4.9310192e-01
  1.0390867e+00
  6.5034251e-03
 -1.5041472e-01
 -1.6130564e+00
  1.8432182e+00
 -2.8301379e-01
  6.7382522e-02
  1.4940516e+00
  4.4875780e-01
 -2.9300031e-01
 -2.1426972e-04
 -4.5295781e-01
 -2.1090448e+00
  2.0743227e+00
  1.5219660e+00
 -3.1392276e-01
 -1.0371413e+00
  5.5671656e-01
  2.4275845e-02
  1.5922226e-01
  4.4370392e-01
 -7.8078419e-01
 -4.0488780e-01
  8.7434435e-01
  8.1460941e-01
 -2.0804133e-02
 -2.3927946e-02
 -1.8085912e+00
 -2.3045507e-04
 -2.4063113e+00
  8.3555633e-01
 -8.9280343e-01
 -1.0262061e+00
  9.1629267e-01
  2.8174564e-02
  6.1487871e-01
 -3.8941528e-04
 -4.2063993e-04
  3.0972746e-01
 -4.2715736e-02
 -2.3550923e+00
  1.2566104e+00
 -3.6997786e+00
 -1.5408382e+00
 -5.7745540e-01
 -2.0669656e+00
  1.0958235e-04
  2.0931499e+00
  2.2965138e+00
  5.3497868e+00
 -3.9030474e-01
  1.2719779e+00
  1.6517136e+00
 -6.6650379e-01
 -9.7281170e-01
  2.5836554e-05
  9.4354165e-01
 -3.4840855e-01
  2.6989679e+00
 -2.1959038e-02
  4.0657425e-01
 -1.3052174e-02
  1.2577875e+00
 -2.6331059e-04
 -4.0367682e-05
 -4.0323803e-01
 -1.0376778e+00
 -9.9797368e-01
 -3.6760457e+00
  4.4996914e-01
 -5.8916485e-01
  2.0527179e+00
  3.0124648e+00
  3.2359667e-04
  1.0728336e-01
 -9.5378894e-01
  1.4644880e+00
 -7.3091817e-01
 -1.1840900e+00
 -5.4400271e-01
  2.6831093e+00
 -6.9117546e-01
  1.9427431e-04
  1.8382261e+00
 -1.8672308e-01
  3.2592688e+00
  6.9907671e-01
  2.4716723e+00
  1.0374170e-01
 -2.6596710e-01
 -2.5992861e-01
 -7.0256661e-05
  2.2751832e+00
  4.6653005e-01
 -5.0466022e+00
  1.3253238e+00
 -5.8711898e-01
 -2.2117080e-02
  7.5768620e-01
 -1.5342110e+00
  2.3169971e-04
  7.6743120e-01
  1.2066697e+00
 -2.1174984e+00
 -4.0972780e-02
 -5.1685739e-01
  1.1645321e+00
  2.1365919e+00
 -5.7159960e-01
  1.5913245e-04
  2.3152058e+00
 -1.2049243e-01
  1.1437275e+00
 -8.8955951e-01
 -6.9345366e-03
  2.6077952e+00
  1.3891480e+00
 -5.2929050e-01
  6.0753660e-05
 -8.6949551e-01
 -1.2863687e-01
  1.9243358e+00
  4.1142851e-02
  1.0544885e+00
  3.5785413e+00
 -1.1048059e-01
  2.4909459e-02
  1.5501953e-04
 -2.0862792e+00
 -8.7899637e-01
 -1.5304008e+00
 -3.2655921e-02
  3.2855576e-01
 -6.2297678e-01
  5.5879414e-01
 -7.0085776e-01
 -6.8820935e-07
 -7.5657082e-01
  8.3422983e-01
  4.4320568e-01
  7.0711005e-01
 -2.5935035e+00
 -4.4819169e+00
 -8.3733730e-02
  5.0257736e-01
 -4.8750526e-01
  1.0704689e+00
 -9.2246616e-03
 -2.4510813e-01
  3.2568440e-01
  7.4641233e-05
  9.9282886e-05
  2.7650375e+00
 -1.2823569e-03
 -2.6495373e-04
  1.9952334e+00
  6.5379137e-01
 -2.3285432e+00
 -5.7253367e-01
 -4.4585173e-03
  1.2933501e-04
  5.1135242e-01
  5.0733066e-01
 -2.9970050e-01
 -2.0130389e+00
  1.9038597e-01
  3.1389284e+00
 -1.3054854e+00
  1.3575337e+00
  4.9522920e-03
 -6.0986280e-01
 -1.4259241e-04
 -4.4870996e-04
 -1.1706861e-02
 -1.9944127e+00
  4.6583638e+00
 -6.6805881e-01
  4.9354884e-01
 -5.3563224e-05
  6.6503853e-01
 -6.3809860e-01
 -1.9244292e-04
  6.3178277e-01
  9.3594348e-01
 -2.5332093e+00
 -5.3975064e-01
 -1.5318403e+00
  1.2363718e+00
 -2.4784457e-02
  7.0402485e-01
 -5.3047247e-02
  2.3546944e+00
  2.1617155e+00
  5.1274583e-02
 -6.9258845e-01
  4.6821415e-01
  1.1108211e+00
  8.7155536e-02
 -3.7843193e-04
 -3.4178124e-04
  3.4378982e-01
  1.1218383e+00
  3.6822399e-01
 -1.5040952e+00
  1.4576685e+00
  5.9683346e-03
 -1.0288081e+00
 -1.6026288e-02
 -6.6007245e-01
 -3.2453305e-01
  2.4868999e+00
  2.8186982e+00
 -7.9890954e-01
 -1.3358896e+00
  5.3120667e-01
  6.6645928e-02
  1.6104135e-01
 -7.1272999e-04
 -1.1982723e-01
 -1.1155872e+00
 -2.0900424e+00
 -1.4847860e-01
 -1.6154798e+00
  2.6135886e-01
 -2.9240351e+00
  7.2108917e-03
 -7.8484511e-05
  8.9345258e-01
 -2.4804604e+00
 -1.9531915e+00
  3.3109605e-01
  1.5681870e-01
  1.1275530e+00
 -1.3905214e+00
  4.1427326e-01
 -3.1884852e-01
 -1.2096727e+00
 -2.2712696e+00
  1.2865384e-01
 -2.3683545e-01
  6.5687615e-01
 -6.1730552e-01
 -1.5180682e+00
  7.0778161e-01
  5.7029456e-04
  3.8347316e+00
  3.7233171e-01
  4.1119180e+00
  6.2426871e-01
  6.8575978e-01
  1.5482031e+00
 -7.2049344e-01
 -1.6198621e+00
 -3.5148010e-01
  1.6962774e+00
 -5.2002740e-01
  4.4652116e-01
  7.4229175e-01
 -1.9770716e+00
  4.0515459e-01
  1.1092962e-01
  9.9610090e-01
 -3.9424676e-01
 -2.0631628e-01
 -6.3049656e-01
 -2.8950443e+00
  1.7307855e+00
  5.4772329e-01
 -5.5329097e-03
 -9.4892603e-01
 -3.5824005e-03
  1.7013343e-04
  7.9715371e-01
  3.5590055e+00
 -2.8272474e+00
  1.3775283e+00
  1.8860687e+00
  5.4700470e+00
  3.7906939e-01
  2.0769428e-01
 -4.8111069e-01
 -2.8738680e+00
 -6.2007761e-01
  1.9948887e+00
 -3.7460339e+00
 -1.3204268e-01
 -3.2831132e+00
  9.9267811e-01
 -3.1957693e+00
 -5.7726164e-05
  3.5296148e-01
 -1.9319577e+00
  1.6072243e+00
 -5.0489169e-01
 -2.3523135e+00
 -1.7408924e+00
  1.2567662e+00
 -2.5464818e-04
 -2.9850435e-01
  3.3334918e+00
 -2.6287801e+00
 -1.2539396e-01
  1.4077632e+00
 -2.8825897e-01
  5.7872672e-02
 -2.7875419e+00
  1.6991612e+00
 -2.8710365e-06
 -1.4635960e+00
  1.0786226e+00
  9.1329783e-02
  1.6671451e+00
 -1.8395536e+00
 -1.7838945e+00
 -3.1251237e-01
 -7.5988996e-01
 -4.0781830e-05
 -1.2970616e+00
  9.3130112e-01
  1.4795122e+00
  1.7378873e-01
  1.7414363e-01
 -3.3820713e+00
  1.6237346e+00
 -2.1167305e-04
 -9.9994699e-03
  1.0967822e+00
 -6.3384110e-01
  2.5769931e-01
 -3.7272868e-01
  7.9287446e-01
 -3.8422468e-01
  1.9410185e+00
 -1.6504803e-01
 -6.1887302e-05
  1.6974460e-01
 -1.4090134e+00
 -1.0293696e+00
 -1.1963052e-02
  1.4587663e+00
  3.9889205e-01
 -2.5118071e-01
  3.3088694e+00
 -5.2823778e-03
 -8.3928764e-01
 -1.0134624e+00
 -3.7564192e+00
 -3.2013077e-01
 -8.8347208e-01
 -6.7856409e-02
 -1.4407437e+00
  2.1383436e+00
  2.5363427e-04
 -3.0784833e-01
 -5.9842402e-01
 -1.8209422e+00
  5.7695150e-01
 -1.1192852e+00
  1.1147502e-01
 -3.3118448e-01
  4.6489057e-01
 -1.6490655e-01
  3.7201026e-01
 -6.2304389e-01
 -2.7970217e-02
 -1.2227456e-01
 -5.8058387e-01
 -3.0572388e-01
  4.4850495e-01
 -7.9387194e-01
 -1.2826431e-05
  1.0587704e+00
  9.5091784e-01
  8.5940254e-01
  3.8086504e-01
  1.2445071e+00
 -1.5609803e+00
  2.0618472e-01
 -4.2201661e-02
 -3.8460890e-05
 -7.2462308e-01
 -8.0965579e-01
 -1.8861867e+00
 -7.2744775e-01
 -3.3735519e-04
  8.7406905e-04
  8.6043638e-01
 -5.5752380e-04
  2.6948657e-04
 -1.5679398e-06
  2.6673610e+00
 -1.6397759e+00
 -2.2816362e+00
  2.0258849e+00
 -3.2007672e-02
  4.3023047e-01
 -2.9754522e-04
 -1.4931492e-04
 -8.5558510e-01
  9.3327898e-01
  3.6191502e+00
  6.4907968e-01
  8.6271739e-01
  7.5183809e-01
  3.2814193e-01
 -9.8473418e-01
  3.3372387e-05
  2.9612896e-01
  1.2028457e+00
 -4.2309809e-01
 -4.1430941e+00
 -8.0175406e-01
 -1.4612439e-01
  2.7507646e+00
 -2.6149472e-04
 -1.5230801e-04
  4.2611122e-05
  3.8518947e-01
 -2.8669841e+00
  8.1060231e-01
  1.1235588e+00
 -1.2839769e+00
  2.5464447e+00
  9.9043862e-04
  3.8773094e-05
 -5.3015266e-02
 -9.6622235e-01
 -1.3957974e+00
 -1.5362865e+00
  4.1052737e+00
 -2.2422230e+00
  2.4445646e-01
 -1.8384559e-01
 -3.5664741e-06
  2.3956858e-02
  9.7580992e-02
 -1.3627050e+00
 -2.2692557e-01
 -6.9430506e-01
 -2.1795276e-01
 -8.9396209e-01
 -9.9353201e-04
 -3.7920399e-04
 -3.4415424e-01
 -4.3177981e-02
  4.0628591e+00
  2.2533236e-01
 -1.6825054e+00
 -3.5824661e+00
 -1.4792792e+00
  1.3438449e-03
  9.9836790e-05
  2.6400826e+00
 -2.4027334e-01
  2.1707670e-01
  8.5104108e-01
 -2.0296736e+00
 -1.8667383e+00
  8.1541991e-01
 -1.9993666e+00
 -2.9112585e-05
 -1.4417577e+00
 -8.3624017e-01
 -7.5091088e-01
  2.5830483e+00
 -1.7712722e+00
  1.2039254e-01
  1.2571012e+00
 -6.2345719e-01
 -5.2332511e-05
  2.9273856e+00
 -1.2626281e+00
  1.0311632e+00
  6.7000127e-01
 -2.4769642e+00
  1.0559825e-01
  6.2671763e-01
  6.3564199e-01
 -2.3883201e-04
  1.7884629e+00
 -3.2066950e-01
  3.2654459e+00
  1.6172812e+00
 -1.8912079e+00
 -4.1673261e-01
 -3.3769932e-01
 -9.6209876e-02
 -4.5063967e-05
 -1.9843102e-01
 -1.7386175e+00
 -2.0134099e-01
 -5.5107147e-01
  4.0020609e-01
  6.7086744e+00
  4.7864638e-02
  6.1402850e-02
 -1.7434169e-04
 -1.8310079e-02
  1.2778437e+00
  9.8190266e-01
  1.3117660e+00
  3.1311518e-01
  6.8775094e-01
 -1.5288966e-02
  4.2334516e-04
  1.7397785e-04
 -1.6073374e-01
 -2.6077342e+00
  2.9526646e+00
 -2.2542925e+00
 -3.0120152e-01
 -2.8696880e-02
 -1.5129595e+00
 -5.8397466e-01
 -1.4009177e-04
 -1.5879171e-02
 -2.6910567e+00
  2.5718746e-01
 -3.1996367e+00
  3.4233963e-01
  1.7198977e+00
 -1.0264417e+00
  1.5972236e+00
 -1.2434254e-04
 -2.5701361e+00
 -1.7767998e+00
  4.1145654e+00
 -1.9057920e+00
 -3.8987835e-04
  1.5623709e+00
 -4.1213626e-01
 -1.0716562e+00
 -2.6270919e-04
 -9.6921754e-01
  2.5319800e+00
  1.3283756e+00
  1.6278338e+00
  5.1009619e-01
  6.7229092e-01
  7.7299756e-01
  1.2467102e+00
  1.4423758e-04
  6.7827523e-02
  1.7739785e+00
  8.0034119e-01
  2.9211380e+00
  4.1279874e+00
  2.3020179e+00
  1.0851016e+00
  3.2509628e-01
  6.3462200e-04
 -3.3377147e-01
  1.6881847e+00
  3.2918026e+00
  1.1790143e+00
  1.2088596e+00
 -3.3268687e-01
 -4.5431131e-01
  4.6911052e-01
 -8.4688523e-05
 -1.5387686e+00
  6.8823236e-01
 -2.2133651e+00
  1.6641277e-01
 -8.7674659e-01
 -2.9132051e+00
 -3.3750528e-01
  2.2668710e-01
  1.8632834e-04
  5.2377433e-01
  1.3984066e+00
  1.1610165e+00
  2.3759496e-01
 -1.2416730e+00
  4.2344394e-01
 -1.4271939e-01
  8.0759919e-01
  2.3774881e-04
  1.7051424e+00
  1.0211842e+00
 -8.6868477e-01
 -7.2706288e-01
  5.2168822e-01
  9.3976301e-01
  7.9363592e-02
  8.3205831e-01
 -6.9465277e-05
 -1.6471835e-02
 -6.1033922e-01
  8.2210332e-01
 -1.8559196e+00
  1.4545698e+00
 -1.8090948e-01
 -1.6833925e-01
 -3.9958200e-01
  3.9328897e-05
  4.5357832e-01
 -1.0965074e+00
  1.2464168e-01
 -1.6674626e+00
  1.0980510e+00
 -7.6387382e-01
 -6.1701855e-04
 -3.6556649e-01
 -1.3020872e-05
  1.8119931e-01
 -8.6513036e-01
 -7.4873376e-01
 -5.7834065e-01
 -1.4168993e+00
 -1.0457607e-01
  5.3833544e-01
 -8.2527667e-01
 -2.3823396e-04
  2.9514852e+00
 -8.0627894e-01
 -9.7345567e-01
 -2.6616924e+00
  1.3910007e-02
  5.5929599e-04
 -7.1813121e+00
 -1.0391226e-03
  3.0519746e-05
  1.0013869e+00
 -4.5846195e+00
  8.5098368e-01
 -2.0118815e-01
 -7.4415171e-01
 -2.0025585e+00
  9.9617997e-03
  7.2676510e-01
  1.6395474e-04
 -2.8799217e+00
  4.9684792e+00
  2.8379736e+00
  1.5070033e+00
  1.8089820e+00
 -5.2624518e-01
  1.7378040e-01
 -3.9327185e+00
 -1.1527866e-04
 -9.2107944e-02
  2.3709025e+00
  1.4021080e+00
  2.1927330e+00
 -2.1547670e-02
  1.7070644e-04
 -2.8785679e-01
  1.0918250e+00
 -6.6088724e-05
  3.4987891e-01
 -2.9058816e+00
  2.7014819e-01
  9.3008971e-01
 -1.3671578e+00
 -9.9953479e-01
  2.0253129e+00
 -1.0954168e+00
  6.8100810e-05
  4.9823987e-01
 -2.2876501e+00
 -1.4435956e+00
 -7.2793078e-01
  1.1390407e+00
  1.1878930e+00
  1.5364298e+00
 -1.2111131e+00
 -4.9509306e-04
  1.1416827e+00
  1.3335094e+00
 -2.1094272e-01
 -1.8614377e+00
 -4.6260282e-01
 -1.9404101e+00
 -4.8169878e-01
 -2.3730388e-02
  9.0412186e-08
 -5.2937710e-01
  2.5276601e+00
  9.3023390e-01
 -1.7792538e-01
  7.5731099e-01
 -2.7026609e-02
 -1.2118155e+00
 -3.9348105e-01
  5.1130275e-05
  4.3447098e-01
  2.8830710e-01
  5.7585520e-01
  1.2622370e+00
  1.5497859e-02
  1.0829784e-02
  1.5570597e-01
 -5.6584835e-01
 -1.9440938e-04
  2.1213281e-01
 -2.1294396e+00
 -8.0453330e-01
  1.6597220e+00
 -3.6967048e-04
  5.3774756e-01
  5.3171206e-01
 -2.3726381e-02
  2.3532628e-04
  7.7142298e-01
 -2.0492997e+00
 -6.4961457e-01
  1.4676780e-01
  1.0972238e+00
  1.3638066e+00
  3.3655307e-01
  5.6746554e-01
 -1.6166889e-05
  1.0617346e+00
 -7.2179115e-01
 -2.8761846e-01
 -6.5475506e-01
  1.4954894e+00
  1.1419981e+00
 -2.5976694e-01
  2.5123227e-01
  1.7836543e-04
  5.8221442e-01
  6.8798877e-02
 -6.6021800e-02
 -5.6250083e-01
 -2.7775161e-02
  2.4811475e+00
 -7.6784700e-01
 -4.3624848e-01
 -4.8851751e-05
  4.3893799e-01
  1.4877493e+00
  2.3719609e+00
 -1.2397354e+00
 -5.1891300e-05
  1.7307669e+00
 -4.6608729e+00
 -7.3701557e-04
 -1.3135707e-04
 -2.1082192e-04
  3.7445000e-01
  1.4077065e+00
 -3.4989216e+00
 -9.4144201e-01
 -1.7518747e+00
  2.6833398e+00
 -1.2132820e+00
 -2.1904490e-04
 -4.1590062e-01
 -2.8266602e+00
 -2.8334246e+00
  2.1343281e+00
 -2.9357788e-01
 -6.6400743e-01
  2.4252861e+00
 -1.1909118e-01
 -1.9496938e-04
  1.3922368e+00
 -1.2224314e+00
  1.4682897e+00
  6.9474983e-01
  7.0607060e-01
  5.9278327e-01
 -3.5422971e+00
 -6.1351042e-03
 -1.1688701e-04
  8.9101624e-01
  2.3314694e-01
  1.6013026e+00
 -3.2651029e+00
  2.1761761e+00
  7.9338586e-01
 -2.5670602e+00
 -2.5362092e-01
 -1.1034915e-04
  1.3925445e+00
 -2.9794178e+00
 -1.0419610e+00
 -8.6959881e-01
 -1.0132061e+00
 -8.6123228e-01
  1.2080319e+00
 -1.5784381e-02
  5.2585234e-05
  8.9331388e-01
 -9.0831947e-01
 -1.7472886e+00
  9.8393613e-01
 -9.9783343e-01
 -1.7231709e-01
  2.0895727e+00
 -9.2721510e-01
 -3.9068828e-04
  1.3551327e+00
  2.2592151e+00
 -8.1310076e-01
  1.7280846e+00
  5.8902848e-01
 -5.9435380e-01
 -4.5721751e-01
 -8.8589817e-02
  3.6291260e-04
 -4.4220258e-03
  2.5286391e+00
 -6.4506459e-01
 -2.6433089e-01
  1.0308836e+00
 -2.8868594e+00
 -1.6120762e+00
 -5.9677797e-05
  4.0855826e-04
 -1.7942204e+00
  2.5708941e-01
  1.0572137e-01
  8.3350785e-02
 -8.3873636e-01
 -1.3686669e+00
 -6.2542671e-01
 -1.6967068e+00
 -6.7280045e-05
 -2.4284650e-01
  3.1124347e-01
 -8.8621897e-01
  1.0081880e-01
 -1.3563010e+00
  3.9218491e-01
  4.3594420e-01
 -7.7532786e-01
  1.5968808e-04
 -3.1706229e-02
  7.2921211e-01
 -8.2538921e-01
  2.5716910e-01
 -1.1345391e+00
  1.3854356e+00
  3.7827757e-01
 -3.5668716e-01
 -6.1781710e-04
 -9.2029673e-01
  9.0989059e-01
 -6.5489426e-02
 -3.6558160e-01
  6.4843357e-01
  1.5459238e+00
 -3.0190477e+00
 -2.3020922e-04
  1.5422025e-04
  2.7776152e-01
  1.1197940e+00
 -6.9753200e-01
  1.8148745e+00
 -7.6391814e-05
 -2.3831688e-05
  3.6658483e+00
  6.7789678e-04
 -4.3715150e-04
 -6.8241864e-01
  1.4821101e-03
 -1.5062001e+00
 -2.5337732e+00
 -2.5489917e-02
  1.5223666e+00
 -2.4330602e+00
 -2.5036867e-04
 -1.0208273e-04
 -2.5611176e+00
 -4.1013253e-01
  1.6881774e-04
 -5.2273476e-01
  1.3135984e+00
  1.0033596e+00
 -5.3161019e-01
  1.7007338e-01
 -1.8139607e-04
  3.1638865e+00
  5.0022399e-01
  1.1687202e+00
 -6.8713379e-01
 -7.5972366e-01
  3.6529571e-01
 -5.4262370e-01
 -6.0017064e-04
  2.0415899e-04
  3.5358388e+00
 -1.3144803e+00
 -2.7321714e-01
 -2.8649688e-01
  1.3186660e+00
 -4.7654524e-01
  7.0447046e-01
  4.2379335e-02
 -4.7415739e-04
 -7.8297275e-01
 -3.0845162e-01
 -5.3628483e+00
  1.1375656e+00
  1.0075641e+00
  3.6523202e-01
 -2.5392098e+00
 -1.5122845e-04
 -2.5400109e-04
 -1.5455368e+00
  1.3144717e+00
 -4.9134830e-01
  1.7434984e+00
 -7.7615178e-01
  7.0423621e-01
  2.2837786e-01
  9.3204761e-04
 -2.8776759e-04
 -1.4437211e+00
  3.3326005e-04
  1.5657617e+00
  1.4591311e+00
  9.4997555e-01
  1.6075815e+00
  7.8404671e-01
 -1.6481058e-01
 -8.5237261e-05
 -6.6253078e-01
  1.0177775e-01
  3.1515086e+00
  2.9251766e-01
  1.5706556e-03
  3.1001999e+00
  2.1805804e+00
  9.2680407e-01
  6.3400407e-04
  1.0997253e-02
  1.7261946e-04
 -2.6073557e-01
  6.5348357e-02
 -1.9451113e+00
  1.5090415e+00
  9.3233848e-01
 -1.5708704e-01
  1.2515572e-05
  1.1492596e+00
 -1.0740212e-01
 -1.9722347e+00
 -7.0747292e-01
 -1.2196209e+00
  4.9295953e-01
  5.5021358e-01
 -1.3911238e-01
 -3.5135346e-04
  4.1823432e-01
  2.3084761e-01
 -1.3933265e+00
 -1.0057977e+00
 -4.3977663e-02
 -3.8526458e-01
 -2.3716895e-01
 -1.3971895e-01
 -1.9013177e-03
  3.8077700e-01
  1.8838221e-01
 -2.0344319e+00
 -5.0261420e-01
  2.4907827e+00
  2.1484208e+00
  1.7057738e+00
  2.9913982e-04
 -1.4747394e-04
  8.5949725e-01
  5.3309077e-01
  1.0163289e+00
  1.4151549e-03
  7.2687597e-04
  1.8363279e+00
 -1.9864151e+00
  2.2578845e-03
 -1.4679796e-04
 -4.2341518e+00
  3.0242195e+00
 -6.6149169e-01
 -4.1983286e-01
 -1.2521634e-01
 -2.6801374e+00
  4.4796228e-01
 -8.8193411e-01
  6.1969545e-06
  1.1083120e+00
  3.2719356e-01
  3.5155449e-02
  2.5913308e+00
  3.5418573e-01
  1.6470528e+00
 -1.3730983e+00
  7.4673432e-01
  1.0280717e-04
  7.4822746e-02
  7.3712297e-02
 -8.4537762e-01
  1.0599338e+00
 -2.1858151e+00
 -7.6451713e-01
 -1.1691482e+00
  4.9428933e-04
 -1.7975319e-04
 -2.0061474e+00
 -2.7224169e+00
 -3.6876283e+00
  6.6198885e-01
  9.3207675e-01
  1.8401219e+00
 -4.8634678e-01
 -4.9648887e-01
  2.2704013e-04
 -1.9622158e+00
 -1.1896255e+00
 -5.9707969e-01
 -1.1405772e+00
  1.7081995e+00
  1.0942400e+00
 -2.4680812e+00
  1.5546319e+00
 -5.7154601e-05
  3.5487411e+00
  5.2503295e-02
  3.3235881e+00
 -1.8454331e+00
 -1.2146627e-01
 -1.1813005e+00
 -2.5873024e+00
 -5.4654580e-01
 -3.0010910e-04
  3.6144137e+00
  1.2226364e-01
 -2.6368329e-01
 -1.9766723e+00
  1.1342517e-01
  5.7678199e-01
 -1.2781601e+00
 -7.7859080e-01
  2.4362617e-04
  1.1815395e+00
 -1.4690332e+00
  5.6812441e-01
 -4.8600173e-01
 -8.2792366e-01
  2.2600753e+00
  7.4368030e-01
  4.0824893e-01
 -1.6290085e-04
 -1.8699764e+00
  1.9163834e-02
 -1.6527587e+00
  2.7816853e-01
 -1.3313402e+00
  7.0238525e-01
  1.3010739e+00
  3.3790421e-01
  1.1435518e-04
 -9.7257304e-01
  1.5733312e+00
  3.7040907e-01
  2.8535956e-01
 -3.8929930e-01
 -5.3056741e-01
  8.7375259e-01
 -9.7192109e-02
 -2.9963444e-04
 -4.8498589e-01
  2.0350318e+00
  6.0327750e-01
  1.8065767e-01
  3.4142259e-01
 -3.8267660e-01
  1.4751007e-01
  7.1654633e-02
  5.9230908e-05
  1.0795187e+00
  6.5118849e-01
  7.8365326e-01
  1.0886665e-01
  2.7205795e-02
  2.7205795e-02
  2.7205795e-02
  2.7205795e-02
  2.7205795e-02
  2.4333941e-02
  2.4333941e-02
  2.4333941e-02
  2.4333941e-02
  2.4333941e-02
  1.2766105e-02
  1.2766105e-02
  1.2766105e-02
  1.2766105e-02
  1.2766105e-02
  8.2961163e-03
  8.2961163e-03
  8.2961163e-03
  8.2961163e-03
  8.2961163e-03
  2.3403722e-03
  2.3403722e-03
  2.3403722e-03
  2.3403722e-03
  2.3403722e-03
  5.4881279e-03
  5.4881279e-03
  5.4881279e-03
  5.4881279e-03
  5.4881279e-03
