nep4 3 Br N Li 
cutoff 7.2 5.5 101 47
n_max 4 4
basis_size 12 12
l_max 4 2 0
ANN 30 0
  2.1126127e-02
 -9.5236188e-01
  2.9444398e-04
 -1.3244119e-03
  2.9499483e-01
  1.1883243e-04
 -7.2062838e-05
  2.0531737e-04
 -3.0591112e-04
 -2.1797243e-04
 -1.7032510e-04
 -2.0209276e-04
 -5.2044255e-05
 -4.3546926e-05
  1.2528170e-04
  3.7634043e-05
  1.8089461e-04
  3.7061865e-05
 -2.1587970e-04
 -2.1518004e-05
  7.9267611e-06
 -1.8641273e-05
  3.8978484e-05
 -1.2873983e-04
  1.1909493e-04
  3.8290210e-04
 -2.1524760e-05
  1.4708425e-04
 -5.6152930e-04
 -3.0740281e-04
  1.4591850e+00
 -5.0647841e-03
 -4.5137994e-02
 -1.1218684e+00
  3.7872982e-01
 -3.1223667e-01
 -1.1045635e+00
  6.6876340e-01
 -1.3110670e-04
 -1.8858464e-02
  4.8720425e-01
  1.6453360e-01
 -1.5420935e-04
  4.0515361e-04
  3.5610065e-01
 -7.4885511e-03
 -4.0277716e-02
 -1.9075167e-01
 -1.5751687e-01
  1.9415428e-01
  1.2469056e-04
 -1.7327255e-03
 -2.9804549e-01
 -5.9755888e-02
 -4.0503475e-01
 -9.2385853e-05
 -7.0965660e-05
 -1.3494377e-04
 -9.3443032e-06
  6.8569561e-06
  8.0219722e-01
 -5.8671731e-01
  1.7001561e+00
  1.7834587e+00
 -1.8972374e-01
  1.0029516e+00
  9.9076390e-01
  5.9971637e-01
 -8.0586594e-01
  2.0021306e-02
  1.1373388e+00
  1.3138633e+00
 -1.7079096e-01
 -1.1800762e+00
 -3.6686909e-01
  1.0309359e+00
  4.2213413e-01
 -4.7103181e-01
 -1.7877193e-01
 -2.2629882e-01
  1.8299809e+00
 -1.7733763e-01
 -1.2121675e+00
  1.9069485e-01
 -5.5512464e-01
  2.1570771e-04
 -4.4445166e-01
 -2.0673758e-01
 -1.6667772e-02
  4.3336669e-01
 -4.9259540e-02
 -1.0625953e-01
  6.6707134e-02
 -5.4398078e-02
 -9.9101728e-03
 -1.0484941e-03
  6.2157465e-06
 -3.3466941e-01
  2.2125054e-04
  1.8429850e-01
 -3.1068054e-01
 -3.7276791e-04
 -2.6542774e-01
 -7.3400472e-04
 -9.5769307e-03
 -5.0348202e-03
  2.8868376e-03
  5.6998767e-03
  1.2617630e-01
  1.5623923e-02
 -8.2479489e-01
 -2.1875807e-04
 -3.5184190e-02
  9.8236975e-05
 -3.4960272e-04
 -9.5523696e-04
 -3.5122852e-04
 -8.0762977e-05
  2.6942607e-06
 -1.5214289e-02
 -2.8987002e-01
  1.9342016e+00
 -6.3095927e-01
  1.1582830e+00
 -4.1607037e-02
  1.9394046e-02
  1.2290107e-01
  5.6179422e-03
  3.9998716e-04
  4.0169117e-01
  3.9855132e-04
 -1.6130623e-04
  2.7167762e-02
  1.9525002e-01
  1.0127667e-04
 -2.4564089e-01
 -1.2650415e-04
  1.2400110e-04
  7.3168869e-04
  3.5602087e-04
 -6.2242437e-02
 -2.7744603e-01
  1.0030220e-03
 -6.5495330e-04
  8.2173571e-03
 -4.8519887e-05
 -4.1109593e-06
 -6.9174348e-05
  1.6724960e-04
  2.1922420e-05
 -2.8756717e-01
  1.6808483e-01
 -8.3749723e-01
 -3.4996161e+00
  3.4806269e-01
 -2.0466408e-02
 -4.1941359e-05
 -5.3088708e-05
 -1.6816834e-05
  5.9736532e-04
 -8.8329734e-03
 -1.4549288e-03
 -1.3211052e-04
 -7.1972312e-04
 -5.6267169e-04
 -1.9358490e-01
  6.2195148e-04
  2.6451284e-01
  5.7993218e-04
  7.3382102e-02
 -1.8833024e-02
 -4.5358960e-04
  9.7789228e-02
 -4.8431240e-02
 -6.8449730e-01
  1.5965656e-04
 -1.3386994e-04
  4.0280024e-06
 -1.9034336e-04
  2.3889579e-04
 -6.6178352e-01
 -1.3063200e+00
 -1.7714676e+00
 -7.4926674e-01
 -1.8972571e+00
  1.1351318e-04
 -7.1318753e-02
  4.2199749e-01
  2.0221009e+00
  5.4140259e-02
 -3.2117456e-01
  5.4141176e-01
  9.6835559e-03
  7.0246595e-01
 -4.0592200e-01
 -3.5630745e-01
  2.2014406e-01
 -2.8577748e-01
  8.3473697e-03
 -6.6570097e-01
 -3.3646327e-02
  1.0697737e+00
 -4.2931173e-02
 -9.7648446e-03
 -7.2613770e-01
  7.2318548e-04
  2.6701717e-04
  3.8712966e-05
  1.3275458e-04
 -8.1960672e-05
 -1.6154996e-01
  1.2401865e+00
  1.4977732e-01
  3.0176538e-01
  1.3338503e+00
  7.4652351e-05
  4.7415361e-04
  5.0385863e-01
  2.2105374e-03
  2.6144928e-01
 -3.8598652e-04
 -3.6836969e-05
  3.9615114e-03
  1.1864395e-03
  9.4881661e-02
 -1.0394203e-02
  3.6128420e-02
 -2.2426556e-01
  3.9621015e-04
  6.6120255e-01
 -6.7552239e-02
 -2.0975672e-01
  4.4187350e-04
 -2.5234956e-04
 -1.7172169e-07
  6.0794384e-05
 -1.7825085e-04
  3.7616782e-04
  8.2705650e-05
 -2.7949587e-04
 -6.0283065e-01
 -1.6247657e-01
 -7.3918968e-01
 -2.3791533e+00
 -4.8988310e-01
  3.5205793e-01
  3.7671050e-01
  6.2661216e-02
 -2.7571971e-04
 -1.1650390e-01
  1.4441109e+00
  5.4093409e-01
 -3.9243630e-05
  3.4470067e-04
  1.5742438e-01
  2.3252562e-01
 -9.6752020e-03
 -4.0492329e-01
 -3.0991289e-01
  2.0247681e+00
  1.0337644e-01
 -1.2946865e-03
 -8.8092923e-01
  3.1139573e-02
  1.1914822e+00
  2.2394866e-04
  7.4010408e-05
 -4.8967934e-04
  6.4201748e-05
  1.8773224e-04
 -2.1280520e-04
  4.7540292e-04
 -1.9128079e-04
 -2.8708111e-04
 -1.7105862e-04
  8.8244335e-05
  1.7203130e-04
 -7.4814714e-05
 -5.0669802e-05
  1.3388637e-04
 -2.0187223e-04
 -1.0244369e-04
 -4.1483643e-05
 -5.5171840e-05
 -1.3473407e-04
  4.1741940e-05
 -2.3462269e-05
 -3.7621622e-04
  1.3352193e-05
  2.7190676e-05
 -2.3465634e-04
 -3.7980246e-04
  4.2508753e-05
 -2.3629075e-04
  2.9297415e-04
  5.5404304e-04
  8.8474299e-05
 -1.7435188e-05
 -9.4050520e-05
 -1.6360052e-04
  5.4761946e-05
  3.2740157e-02
 -8.9874056e-06
 -2.5159217e-04
 -1.1545241e-04
  3.5345547e-05
 -1.8270744e-04
 -9.4201561e-05
  4.0706943e-04
 -8.4508087e-05
  9.6272612e-05
 -4.7181682e-05
 -7.3788942e-05
  1.7966943e-04
 -4.5874156e-04
  1.7559678e-04
 -1.6665348e-04
  2.6601189e-04
  1.3893572e-04
  5.6835607e-04
  2.5096169e-05
 -1.5937519e-04
 -1.5578426e-04
 -5.0028586e-05
 -4.9577302e-06
 -6.1605584e-05
 -4.0987379e-05
  9.7629862e-05
 -3.8363134e-05
  2.5517994e-04
 -1.6297430e-01
  9.6735410e-02
 -1.0080922e-01
  1.4930636e+00
  5.4055288e-02
 -3.6164552e-02
 -1.2988798e-05
 -1.5976428e-04
 -1.1282483e-04
  2.7845088e-01
 -4.0231302e-01
  2.2937509e-04
  2.3289748e-04
  2.0383726e-05
  4.2050619e-05
 -4.2940773e-02
  1.1444864e-01
 -2.5598893e-01
  1.5554290e-03
  4.5743576e-01
 -4.7457113e-05
  1.6782452e-04
  4.5676139e-04
  6.1874438e-05
  2.6078185e-02
 -3.7235898e-04
  2.7443073e-05
  1.3213896e-04
  4.7204594e-07
  1.4318003e-04
 -8.8317853e-01
 -1.1493859e-01
 -5.3611368e-01
 -3.5291007e-01
  5.4529317e-02
  7.8708142e-01
 -1.0975882e-03
  5.1703012e-01
  5.4953396e-01
 -6.6453993e-01
 -3.3690747e-05
 -2.7692723e-04
  1.6510811e+00
 -2.3179298e-06
  3.4257334e-02
  5.9022824e-03
  7.7086472e-05
  4.9268314e-01
 -2.5142372e-01
 -2.3735562e-01
 -1.0393408e-02
 -1.4139231e-01
  4.9450499e-01
 -6.7996450e-02
 -4.1352445e-03
  1.7525145e-04
  5.6425688e-05
 -1.6265822e-04
 -3.1844007e-05
  6.1110026e-05
 -5.2942675e-01
 -1.1985410e+00
 -8.3232498e-01
 -2.9414754e+00
 -5.2438080e-01
  5.5615248e-05
  1.4262736e-02
  2.4218051e-04
  1.0488615e-01
  4.0199803e-04
  1.5487010e-05
  2.5352120e-04
  1.3350657e+00
  6.9032568e-01
  2.0994924e-01
  8.6721283e-01
  3.8581708e-01
 -2.8988919e-01
  2.6019102e-01
 -2.5638597e-04
  9.3923527e-01
  8.5099854e-02
  8.0582616e-04
 -8.3555159e-04
  5.0964105e-01
 -6.7344430e-05
  1.7161135e-04
  2.2046408e-05
  9.3697767e-05
 -3.8031023e-04
 -4.3932176e-01
  1.8543842e-01
  3.7258101e-01
 -1.1505165e-01
  1.1276762e+00
  9.6573181e-02
 -9.3557364e-01
 -1.9867863e-03
 -1.0956268e+00
 -3.2245296e-01
  1.6426718e+00
 -4.5588222e-01
  3.5290766e-01
  1.4330493e-04
  3.1476089e-01
  1.1720225e+00
 -1.2511079e+00
  1.2245733e+00
 -3.6174408e-01
  6.1100447e-01
  1.0430766e+00
 -1.5620580e+00
  1.5156943e-01
 -1.9738904e-01
  9.1948211e-01
  3.6644060e-04
  1.2148024e-04
 -1.5415115e-05
  8.4552950e-05
  5.9079047e-02
  8.0763754e-03
  6.2776051e-02
  1.1177803e+00
  4.5926085e-01
 -1.6428816e+00
  1.1168855e-04
 -2.7871924e-04
 -1.7465279e-04
 -4.1486754e-04
  1.2666386e-04
  3.3306039e-04
 -1.3295746e-04
  1.0903939e-04
  2.0536207e-04
  2.5027484e-04
  3.5903147e-05
  2.5625320e-04
  5.0416240e-04
  8.4669606e-05
  3.2266819e-01
 -3.1587097e-01
 -4.7737068e-01
 -3.4441391e-04
 -6.8010198e-04
 -2.6530328e-01
  5.1269246e-05
 -2.8295608e-04
 -2.0841938e-04
 -3.9799768e-05
 -2.5514842e-04
  1.1268358e-04
  2.0035029e-04
  1.3043214e-05
 -1.6449370e-04
 -7.7140583e-05
 -4.0830560e-05
 -1.1537508e-04
 -2.7517270e-04
  1.5132017e-04
  1.1580105e-04
  3.8607588e-05
 -9.1000920e-04
 -2.9652225e-04
  2.4124215e-04
  3.8901303e-04
 -1.5340421e-04
 -4.0824692e-05
 -6.1202148e-04
  5.1656829e-05
  2.8861714e-05
 -5.4342527e-04
 -2.2476960e-04
 -8.0399877e-07
 -2.6015725e-05
  1.2546188e-04
  7.9098936e-05
 -2.1300837e-04
 -6.9404101e-05
  1.1417997e-04
  1.9831277e-04
  9.2182946e-01
 -7.6053041e-01
 -8.2773739e-01
 -1.9471941e+00
 -9.1459721e-01
  1.2303706e+00
  1.2080585e+00
 -2.0166836e-04
  4.2762923e+00
 -4.4081736e+00
  9.1668558e-01
 -5.4049410e-04
  1.7348598e-01
  1.1916988e-01
  3.4492534e-01
  3.2585520e-02
 -7.5341696e-01
  1.5395977e+00
  1.5181150e-04
  1.0634220e+00
  2.1181386e+00
 -2.1738911e+00
  3.1485297e-02
 -3.8590628e-01
  1.3742325e+00
  3.7716550e-04
  8.5792753e-06
  3.0431203e-05
 -4.1374334e-04
  1.1313761e-03
  7.7116448e-01
 -9.3686384e-01
  5.0522465e-01
 -8.3492026e-02
  2.3230052e-01
  3.4010259e-04
 -1.1698710e-04
  5.1330327e-04
  1.5557364e-04
  1.3789262e-04
 -2.1264148e-04
  1.4474278e-03
  1.2835347e-04
  6.8099063e-05
 -1.7824462e-04
  8.4191039e-03
 -3.8838109e-05
  3.5439737e-04
 -6.4638531e-05
 -1.1150270e-04
  9.0462965e-01
  2.5651997e-01
  6.2151867e-07
  3.5611785e-04
  3.0074799e-01
 -8.8660534e-05
  1.2827435e-04
  7.0518501e-05
  1.5385958e-05
  7.6050733e-06
  1.6813173e+00
 -3.6883759e-01
  1.8681440e+00
  2.0707169e+00
 -3.4067893e-01
  7.1667030e-02
  1.0422328e+00
 -1.6641796e+00
 -1.7774626e+00
  1.0545532e+00
  8.3143747e-01
  4.1088337e-01
 -1.4926031e+00
 -2.3301127e+00
  1.4492046e+00
 -1.1934235e+00
  5.0044960e-01
 -5.2241486e-01
 -1.8776469e+00
  1.8048393e+00
 -4.0416631e-01
 -1.8489666e-01
 -2.9851529e-01
 -1.3389394e+00
  1.4877294e+00
 -4.2709121e-03
  3.9037084e-05
 -3.4206221e-04
  2.7820966e-04
 -3.7846687e-01
  1.3976893e+00
 -2.6939976e-01
  2.2226651e+00
  1.4632771e+00
 -4.8870778e-01
  2.1011578e-01
 -8.7701154e-01
  8.1526197e-02
  1.8629736e+00
 -7.3653537e-01
  6.1016631e-01
 -1.7226471e-02
  5.4744893e-01
  3.3432138e-01
  1.1475563e-01
  1.5888299e+00
 -9.0186679e-01
  1.6054090e+00
  1.4749578e-02
 -5.5573069e-02
  5.3148818e-01
  2.3510340e-01
  6.5432144e-03
 -3.6084032e-01
 -3.6119485e-01
  1.3545676e-03
 -2.7510055e-04
 -3.5741559e-05
  5.4091384e-04
  2.2961624e-04
  2.8056684e-01
 -7.0262581e-01
  1.0159613e-02
 -1.9122896e-01
 -2.4802759e-01
 -1.3883940e-06
  3.5234576e-01
  1.0517725e-01
  2.6221291e-04
 -6.1392462e-01
  4.1984193e-04
  3.2794803e-02
  3.1148195e-01
  2.5343630e-01
 -2.0386541e+00
  3.0392394e-04
  1.1820426e-01
 -3.7890557e-02
  2.9181054e-05
  2.1664625e-01
 -4.2359215e-01
 -1.4645407e-02
 -8.4175561e-05
 -2.1379668e-01
 -3.4960222e-01
  1.3639886e-04
  2.8074314e-04
 -1.4800011e-04
 -5.1370789e-05
 -3.1060408e-04
 -3.9206390e-04
 -8.3077770e-01
  1.0215728e-04
 -5.0941756e-04
 -1.6285597e-04
  5.1692943e-05
 -3.4302394e-07
 -9.0086050e-06
  4.2682466e-05
 -9.6971271e-05
  1.5909306e-04
 -4.8106203e-06
  3.0131260e-04
 -2.0808749e-05
 -1.2203743e-04
 -1.3805264e-04
 -9.4374474e-05
 -2.5910206e-04
  1.2657937e-04
 -7.4494987e-05
 -8.6938881e-04
 -1.5874428e-04
  1.3614268e-04
  9.5300908e-05
  1.2573066e-04
 -1.6637454e-04
 -9.4383853e-05
 -2.5079728e-04
  7.2475079e-05
 -1.5499230e-05
  5.2166833e-05
 -9.2252856e-04
  6.5274049e-05
  1.4543133e-04
  7.1791775e-04
  1.6552616e-05
  2.6759319e-04
 -8.1779835e-05
 -1.0091744e-04
 -1.6700837e-04
 -1.2595508e-04
  1.2422175e-04
  2.9083321e-04
  1.4054951e-04
 -4.5262292e-05
  2.5293152e-04
 -4.8429825e-05
 -2.6871210e-05
 -2.4721460e-04
  8.2596795e-05
  1.8149657e-04
  2.4266494e-04
  1.3412254e-04
  3.1258183e-05
 -9.2577993e-06
 -3.1170865e-05
 -1.4213611e-04
 -3.2926549e-04
  2.4083574e-04
  9.5980422e-04
  8.6388636e-01
  8.6713701e-01
 -8.6174089e-01
 -2.1576393e-02
 -4.7738105e-01
  2.5396928e-01
  2.9606785e-04
 -2.6609415e-01
  2.1412630e+00
 -1.3761827e-03
 -2.8591878e-03
  5.4642421e-01
 -4.7992192e-02
  2.9623730e-04
 -1.0156091e-04
  5.4969406e-01
  5.4417288e-01
 -2.8566912e-01
 -8.5281552e-04
 -4.0721102e-03
  5.9517348e-01
  1.7077824e-02
 -5.4109623e-05
 -1.7331855e-02
 -1.3376678e-02
  2.2073227e-04
 -1.9995534e-04
  2.6411843e-04
  3.3348690e-05
  4.8723663e-04
 -1.2619169e-01
  3.1040990e-01
 -3.8317110e-02
  3.6625868e-01
  1.6376453e-02
 -8.6361360e-06
 -3.2744912e-05
  4.9769937e-04
 -4.0048501e-04
 -2.6434696e-01
 -6.8659101e-06
 -1.4533754e-04
  1.9029583e-03
  9.0847560e-04
  4.3418892e-03
 -3.5061671e-06
  1.8588989e-04
 -3.3951871e-02
 -4.5873261e-05
 -2.2320589e-03
  6.6955066e-01
  1.5505342e-04
 -1.6844597e-05
 -1.8345543e-04
  5.2702330e-02
  2.5867988e-05
 -1.2118080e-04
 -5.3619675e-05
 -4.5185638e-04
  1.5639112e-04
 -9.5109975e-01
  1.1936440e+00
  1.9537550e-04
 -1.7251666e-03
 -8.4349944e-05
 -4.8988615e-05
 -1.5288004e-05
  9.1715992e-07
  1.0272565e-04
 -1.8036386e-04
  3.6508147e-05
  1.2158685e-04
  2.5505439e-04
  1.6799552e-04
 -2.6614082e-04
 -5.5541081e-04
 -5.4359385e-05
 -4.0055082e-05
  3.0353075e-04
  9.5675372e-05
  2.8211775e-04
  1.7509748e-04
  1.1326255e-04
 -4.6318251e-04
  9.4967880e-05
 -5.3626607e-04
  4.0322836e-04
 -1.7320112e-04
  2.1553820e-04
 -4.8093298e-05
  2.5283993e-04
 -8.6886156e-01
 -1.2283408e-04
  7.3788673e-05
 -2.0001469e-04
 -2.1636653e-04
  3.7300884e-04
  4.2390417e-05
  4.4949559e-04
 -8.1831779e-05
 -3.4520435e-04
 -6.0427930e-05
 -7.4564712e-05
  7.3876050e-05
 -2.2277671e-04
  8.9836802e-05
 -1.9393856e-05
  1.1565351e-04
 -4.9505214e-04
  2.0726325e-04
  5.8123824e-04
  4.1194027e-05
  1.7180241e-04
  1.1203301e-05
 -4.3524514e-04
  2.0960873e-04
 -3.5863239e-04
 -3.5983537e-04
 -4.3180517e-05
 -3.4569245e-04
 -2.7402220e-04
 -5.0644547e-01
 -7.9583871e-05
 -1.6923924e-04
  1.1232688e-04
  5.5801222e-05
  4.0806073e-05
  3.3395827e-05
  8.4876388e-05
 -2.8744823e-04
  1.0447773e-04
  2.7552666e-04
 -1.4215813e-05
  5.5937967e-06
  4.9824066e-05
 -8.3808518e-05
 -3.6659534e-05
  1.1706715e-04
  8.9953341e-05
  1.5151232e-05
 -1.0305594e-04
  2.4085492e-04
  8.1681370e-05
  4.5618103e-06
 -2.5317357e-05
 -2.0638388e-04
  2.9945996e-04
  5.1480805e-04
 -1.7945107e-05
  5.4447360e-06
  4.8097146e-01
 -1.0445786e+00
  5.8234163e-02
  5.7017398e-01
  6.4580554e-01
  8.0580086e-01
  2.9939387e-02
 -3.1593451e-01
  1.2169100e+00
 -1.4805284e-03
  8.8498312e-01
 -3.5144047e-05
 -2.2045670e-05
  8.6679608e-01
  1.3451044e-02
  5.1357383e-01
 -2.6637971e-01
 -1.5077926e+00
  1.2987591e-01
  8.4536701e-02
  3.1626120e-01
  9.4564751e-02
  5.8160913e-05
 -1.1207566e-04
  2.3789509e-01
 -1.9226038e-04
 -7.2297851e-05
  7.6923730e-05
 -4.6656594e-05
  1.0993728e-04
  6.8306185e-02
 -1.4229734e-01
  5.9602374e-01
 -2.0481593e-05
 -9.0160936e-01
 -1.3344666e+00
  1.9905537e+00
 -3.3246273e-01
  1.0579526e+00
 -1.2086532e-03
 -2.0559650e-04
 -4.6731141e-01
  2.0097518e+00
 -9.0075386e-01
 -4.8367855e-01
 -1.3812995e-01
  1.5066856e-05
 -4.4996712e-01
  3.9521766e+00
  8.1916368e-01
  1.7358166e+00
  3.4194037e-02
 -1.1990127e-01
  1.1759434e-03
 -4.3804845e-01
  3.1292439e-06
 -1.0408202e-01
  4.1288349e-05
  8.7580693e-06
  7.2585768e-01
 -2.8736776e-01
  1.2159282e+00
 -2.0319424e+00
 -2.3048753e-01
  9.3163186e-01
 -1.7691062e-01
  1.6432945e-01
  9.3778038e-01
  5.0340009e-01
  9.7234844e-04
  1.5136223e-02
 -3.4398997e-01
  3.7409440e-01
  4.9535096e-01
  1.8624389e-01
 -3.5878092e-02
  1.7270255e-03
  1.7123441e-01
  5.9708083e-01
 -2.3219499e-01
  2.0032050e-01
  2.3303464e-01
  1.8235308e-01
 -4.1766197e-04
 -1.5835761e+00
  8.7309666e-02
  1.2282529e-01
  6.5844387e-02
 -4.0528830e-02
  4.9491051e-01
  6.7922811e-06
  1.2425243e-04
 -4.3982876e-05
  4.1320920e-05
  1.9312940e-04
 -1.4221307e-04
  1.6831992e-04
 -1.1648396e-04
 -1.1689445e-05
 -2.0709682e-04
 -2.0575973e-04
  1.1663508e-04
  5.0278690e-05
  1.6320620e-04
 -5.5987999e-05
 -1.6678244e-04
 -4.2837436e-04
  1.6818818e-04
  1.8752156e-05
  3.4933287e-04
 -4.6675275e-05
 -1.9612618e-05
 -2.3532682e-04
  6.8998088e-05
  2.6767288e-04
 -9.5432360e-06
  1.5934736e-04
  1.2480196e-05
  4.7558398e-05
  2.9876523e-04
 -5.5541236e-02
 -8.6823395e-03
  4.0095657e-02
  1.4823215e-01
 -1.1094830e+00
  1.3608027e-01
 -3.6814746e-01
  8.2303637e-01
  5.4727501e-01
  2.0761243e-01
  5.2290648e-05
 -2.1787900e-04
 -2.8523585e-01
  1.1904594e-01
 -6.9378573e-01
 -1.4168074e+00
 -2.3272146e-01
  3.6886221e-04
  1.8237396e+00
 -1.0621744e+00
  1.8098230e+00
  4.9267021e-01
 -2.2463017e-05
  7.4738121e-01
  2.3917113e-01
 -9.9945134e-03
 -2.7808421e-05
  5.1461498e-04
 -4.7866237e-05
  6.9775298e-04
  3.7191266e-03
  2.8756890e-01
  1.1988194e+00
  1.3016814e+00
 -6.5161204e-01
  2.8987371e-04
 -1.3612272e-04
 -8.9067806e-05
  3.5633777e-05
  2.9468927e-05
 -1.4344734e-04
 -6.1234379e-05
 -1.8153292e-04
 -9.8772041e-05
  4.2558888e-05
  4.5027584e-02
  4.0845320e-04
  1.1706769e-04
  3.3999665e-04
 -8.6311869e-05
  1.5735175e-04
 -1.1754505e-03
 -1.4580513e-05
 -1.6990095e-02
  9.1137576e-05
  4.4329313e-04
  9.4560608e-05
 -2.2747838e-05
 -4.2997086e-05
  1.4919310e-05
  8.6444801e-01
 -1.1807916e-01
  1.3516344e+00
 -2.3187950e-01
  4.4668463e-01
  8.9384913e-01
  3.4460986e-01
  9.3373215e-01
 -2.7684131e-01
  4.7169235e-01
  1.0361764e+00
  3.2028466e-02
  1.4774213e+00
 -7.9621032e-02
  5.9090590e-04
  1.0331591e-01
  1.9171605e+00
 -7.3172294e-02
 -1.2259977e-02
 -2.4227016e-01
 -1.3642870e+00
  6.4063984e-01
  1.3257552e+00
  9.2925185e-01
 -2.7039599e-01
 -9.8115590e-05
 -5.8221217e-04
  1.1829425e-04
 -2.4144156e-05
 -1.8991118e-04
  7.8023506e-05
 -3.8438637e-04
  1.4519884e-04
  6.9077224e-01
 -1.2138777e-05
  2.1196720e-05
 -6.9251830e-05
 -2.9114279e-05
 -5.1150091e-05
 -3.2448577e-04
 -4.6363119e-05
  1.0012763e-04
 -5.2373762e-05
 -7.0229676e-06
  1.2061242e-04
 -2.2266118e-04
  2.1277976e-06
 -1.5541243e-04
 -8.8373730e-05
  3.0333131e-05
 -2.4965793e-04
 -3.8684666e-04
 -1.5758032e-04
  1.4248225e-04
 -1.6402379e-05
  2.7803215e-05
 -1.3669900e-05
  1.5219658e-04
 -6.3981824e-05
  4.9066386e-04
 -1.0792190e-02
  1.4519667e-04
  1.2674764e-02
 -1.9270372e-01
  5.3742359e-04
  2.2704268e-04
  2.1017375e-05
 -3.5656460e-05
 -1.4449474e-06
 -3.0633289e-04
  2.1035937e-04
  1.1981332e-04
 -9.0882830e-05
  2.2849938e-04
  9.8042328e-05
 -1.4520937e-03
  2.5107115e-04
  1.1240420e-05
  1.6164900e-05
  6.0569342e-05
 -1.4003606e-05
  2.7548530e-04
  4.3434091e-04
  1.4564654e-04
 -1.1757932e-05
  3.9015882e-04
 -1.4610308e-05
 -2.4903278e-05
  9.3022372e-06
  9.2696369e-05
  2.2014601e+00
  2.9833248e+00
  2.0885637e-01
 -6.8899459e-01
  1.2303659e+00
 -1.7057519e+00
  1.7647725e+00
 -2.8398374e-01
 -4.6158256e-03
 -4.4586995e-01
 -5.2806604e-01
  2.0881417e+00
  1.0654711e-02
 -8.6906362e-01
  1.2219007e-01
 -7.9099512e-01
  1.2203088e+00
  2.3675643e-01
 -1.6778510e+00
  4.9301845e-01
 -1.0149639e+00
 -4.3708843e-01
 -8.0161923e-01
 -1.4028010e+00
  4.8379809e-02
  1.1722349e-03
  7.6452219e-05
  2.9991232e-04
 -1.2668870e-04
  6.6857145e-04
 -2.2688537e-04
 -1.9163295e-05
  8.8262103e-05
  9.7653706e-04
 -1.2236614e-04
  2.8816343e-04
  1.8788756e-05
  7.5611621e-05
  3.6158261e-05
 -9.2128241e-05
 -7.0449263e-05
  6.8289075e-05
 -1.0799946e-05
 -1.4622305e-05
 -2.7188114e-04
  1.8485273e-04
  4.2423917e-04
  6.6479006e-05
  1.3886589e-04
  3.2500036e-06
  3.6755242e-05
  3.4403576e-05
  5.0414736e-05
  8.5884340e-06
  1.9404783e-04
 -4.1267936e-06
 -6.9675769e-04
  3.4005728e-04
 -1.2457992e-04
 -5.3455828e-05
 -6.3593894e-01
 -7.0727989e-02
  1.5404946e+00
  1.8672897e-01
  1.9541982e-01
  6.1715997e-05
  6.3837305e-02
 -1.3485907e-02
  1.7229869e-04
  5.1802035e-06
 -1.4162896e-04
  1.7020571e-04
 -2.3330191e-04
  5.1216542e-04
  6.9650923e-05
 -4.8602402e-02
  4.9026756e-05
 -1.6011510e-04
 -2.7644084e-04
 -1.9011812e-04
  3.4788523e-02
 -4.6893823e-05
  5.3212130e-05
  8.3117805e-02
  4.6129917e-05
 -5.7909048e-05
 -4.8713927e-04
 -9.9548677e-05
 -1.8616344e-04
  1.4768078e-05
  2.0584648e+00
  2.8512433e+00
  4.5121881e-01
  1.3240449e-01
 -4.2388773e-01
 -1.6243343e-04
  1.0695044e-03
 -8.8872499e-04
  6.1832587e-03
 -3.4991044e-01
 -1.2479072e-03
  1.2676847e-01
 -7.3251879e-04
  1.4074360e-05
  3.3501780e-04
 -7.3422408e-01
  8.5106846e-03
 -4.6823404e-04
 -1.3975314e+00
  2.9952440e-04
  2.6988962e-01
  9.9327314e-01
 -4.2275329e-05
  1.2424828e-01
 -1.1429275e-04
  1.3242784e-04
 -1.4262558e-05
 -3.9768704e-05
 -7.0803930e-05
  1.5143947e-04
 -1.7411999e-01
  9.7556598e-04
  5.9121460e-01
 -3.1751513e-02
 -2.6504989e-03
  2.0601854e-06
 -6.0553964e-05
  4.6958937e-04
  1.4349284e-04
  2.1532094e-03
 -6.4444474e-05
 -1.5875630e-02
  7.0673402e-04
 -1.0652070e-04
 -3.4237215e-05
 -4.6177724e-04
  1.1298458e-04
 -6.1219594e-05
 -2.5619290e-04
  1.3509247e-05
 -5.6843464e-03
 -2.4753101e-02
  1.0217221e-03
 -4.6789753e-03
  3.0335758e-04
  1.2748992e-05
  1.0114431e-04
  6.4129803e-05
  6.3632775e-05
 -5.4775743e-04
 -7.2091591e-01
 -5.6502693e-03
  2.2006172e-01
  2.5466122e-02
 -2.0631390e-02
  1.2450837e-05
  1.2679014e-01
 -3.0277712e-05
  7.1741815e-05
  1.8419366e-01
  1.1314092e-04
 -2.6505846e-01
  4.7013357e-02
  1.2801701e-05
 -2.6410309e-04
 -1.6669221e-02
  2.9477895e-05
  4.6929321e-04
 -1.0660823e-02
  1.1805910e-05
  4.2968470e-05
  3.8249618e-05
  9.2816679e-04
 -3.5983822e-03
 -2.4249201e-04
  5.6125660e-04
 -7.7194658e-05
 -3.5534511e-04
  6.0339171e-06
 -7.2695017e-05
 -7.6266062e-01
  3.2797632e-01
 -1.8973893e-01
 -1.0573288e+00
 -1.3868631e+00
  2.2500020e-01
 -1.3445650e+00
 -2.6812842e-01
  5.1229376e-01
  5.1924717e-03
  9.7563994e-01
 -3.5791808e-01
 -5.0042462e-01
  1.7788744e-01
 -3.7151694e-02
 -1.9188267e-01
 -1.3032675e-04
 -6.4754963e-04
  6.6193777e-01
 -4.7747174e-01
 -7.7632755e-02
 -1.4230821e-01
  3.1330906e-02
  1.1233753e+00
 -3.7702107e-01
 -1.3042431e-04
 -1.0493890e-04
  4.5354122e-05
  1.7006216e-05
 -5.1714913e-05
  1.6451405e+00
  1.4279492e+00
  1.6106042e+00
 -4.5578230e-02
 -1.5537965e-01
 -4.8397697e-04
  1.7765102e-01
  1.1373743e-04
  1.3997343e+00
 -6.8848780e-03
  4.3997262e-03
  7.4122107e-01
 -1.7425378e-01
  1.7015421e-01
 -8.2189101e-01
 -9.3414485e-01
  3.7459311e-01
 -9.1925979e-01
  4.3831065e-01
 -2.3874569e+00
  1.9050678e+00
 -2.1865287e-01
  4.2877141e-01
  1.6160568e+00
  1.6120442e+00
  2.7520666e-01
  1.2893521e-04
 -1.2339342e-04
 -1.1393441e-01
  2.5774820e-05
  7.0150099e-06
 -7.3383623e-01
  1.5501732e-01
  8.9462471e-01
  4.0334575e-02
 -1.9713854e-04
  1.4448260e-04
 -3.0794566e-02
  3.3444201e-03
 -2.5833315e-05
 -4.1180618e-02
  3.4597126e-04
 -1.5514958e-04
  1.3586196e-05
 -2.0066787e-04
 -1.1692403e-02
  6.4632029e-04
  1.3227488e-05
 -2.9640803e-03
  1.8977876e-04
  9.0271037e-04
  6.5726683e-02
  3.9850649e-05
  4.1030335e-01
  2.1157729e-04
 -3.1824054e-06
  5.0191593e-05
 -9.5256300e-06
  2.4398121e-05
 -1.6496454e-04
 -2.9585456e-02
 -2.3579420e-05
  2.1247107e-04
  1.3623877e-01
  1.9640361e-06
 -9.7961864e-05
  3.4456738e-05
 -8.2327570e-05
  4.6125810e-05
  8.6226944e-05
  1.2824607e-04
 -4.6467880e-04
  1.5787820e-04
 -1.9304140e-04
 -1.0154249e-04
 -5.3902924e-05
 -1.6486816e-05
 -7.9965772e-05
  4.1517796e-07
 -3.5860583e-05
 -1.0335759e-04
  2.7533018e-04
  3.7742429e-05
 -1.4504258e-04
 -1.1367893e-04
 -1.6517800e-04
 -1.3329857e-04
 -4.5396370e-04
 -3.0708261e-04
  1.3583686e-04
  3.0884052e-02
  6.1706734e-01
  1.0719281e+00
 -5.9964973e-01
  9.4260484e-01
  5.2217615e-01
  1.2590036e-01
  2.0016688e-03
  8.5826898e-01
 -7.1615231e-01
  5.8949023e-01
 -4.0312116e-05
  1.2833129e-04
  2.8931579e-01
 -7.4491344e-02
  2.0988417e-01
  4.9579167e-01
 -5.3406870e-01
  9.4998991e-01
 -1.0405267e+00
  3.5247330e-02
 -5.4309803e-01
  6.5372186e-04
 -6.5119791e-01
 -1.2470347e-04
 -3.9145295e-03
 -4.2653155e-05
 -8.6356406e-05
  5.0650309e-05
 -2.3079188e-05
 -4.0237296e-01
  7.0633835e-01
 -7.3903114e-01
 -8.2421398e-01
  4.1086307e-01
 -7.5272978e-03
 -2.0480805e-04
 -1.0626207e-04
 -1.6915736e-01
 -1.3368505e-01
  2.4241064e-01
  8.2053477e-05
  3.4659788e-01
  8.8390906e-04
  1.3603350e-04
 -4.5476521e-05
 -2.4468545e-02
 -5.7018228e-04
  8.3852261e-01
  1.5316298e-04
 -9.7679055e-01
 -2.3779489e-01
  3.6254700e-04
 -7.4651569e-01
 -4.2628686e-05
  1.1511041e-03
 -5.9549388e-06
 -6.5772525e-05
 -6.9067559e-05
  3.6345641e-04
 -4.0903252e-01
 -2.1700259e-01
  1.5445556e-01
  6.8260229e-01
 -3.0189642e-01
 -3.0981317e-01
  5.9678659e-02
 -9.7636355e-04
  3.2326403e-01
  1.6941977e-01
 -2.0363991e-01
  1.7244117e-02
  3.6818444e-04
  7.3396950e-06
 -3.5973472e-04
 -9.7152546e-02
  6.8443283e-03
  2.5088346e-05
 -1.8670152e-01
 -4.1486046e-04
 -3.8802648e-01
  4.4410267e-01
 -2.1671838e-04
  2.0303403e-04
  1.9824357e-01
  2.2346382e-04
 -3.0363971e-04
 -1.1055786e-03
 -1.7742430e-04
  1.3952209e-04
 -3.7393582e-04
  1.6910556e-01
  2.5557709e-04
  6.0455918e-01
 -3.7350830e-02
 -8.6387205e-05
  2.6462442e-04
 -8.5047133e-05
  1.0795186e-04
  2.5776491e-04
  1.0776630e-04
  2.3024582e-05
 -1.3465382e-04
  5.8127589e-05
 -6.7178247e-04
  4.5092625e-04
  9.1198104e-05
  6.2065090e-05
 -3.9807579e-04
  9.3650589e-05
 -6.9584290e-04
  1.0284162e-04
 -1.3657397e-05
 -2.2301858e-04
 -1.1726392e-05
  3.0450668e-04
  1.3628851e-04
  9.6966331e-05
 -4.4407403e-05
 -7.0303693e-05
  6.9379676e-05
  9.1985938e-05
 -3.6364511e-04
 -2.7951368e-04
 -3.0245554e-05
 -6.7294328e-05
  2.2118396e-05
  7.2185089e-06
 -1.4814966e-05
 -1.4664725e-04
 -3.8151466e-05
 -1.2766025e-06
  8.0720332e-05
  3.3991382e-04
 -2.2971214e-04
  5.4697801e-05
  8.3070749e-04
  3.2203909e-04
 -2.1799677e-04
 -2.5885151e-04
  2.6793237e-04
 -1.3151544e-04
  4.8613892e-04
  2.2211829e-04
  1.9417568e-04
  6.9244859e-05
  1.7851886e-05
  4.4679808e-05
 -3.1156495e-05
 -9.4264338e-05
 -3.2504156e-01
  2.2562206e-01
  1.0382028e-01
  1.3216773e+00
 -1.4763714e+00
 -1.3031445e-02
 -6.6336384e-04
  1.4030024e-02
 -1.4313590e-04
 -5.8909733e-02
  3.3721988e-04
 -1.1446565e+00
  7.7265486e-02
  3.5318646e-06
  2.3767720e-04
 -1.1960606e-01
 -2.1482760e-04
 -3.7532777e-02
  8.5581560e-05
 -1.3907256e-02
 -1.5691152e-01
 -2.3324642e-02
  4.8622545e-02
  9.8721832e-01
  5.3834880e-05
  2.4250058e-04
  1.2766021e-04
 -7.4593581e-06
 -6.0771918e-06
 -3.0695440e-04
  1.5918344e+00
 -1.1296046e+00
 -4.7041586e-01
  5.6507319e-01
  4.2599991e-01
 -1.4077915e-01
 -2.8812012e-01
  5.8315104e-01
  1.2606962e-01
  1.2558733e+00
  1.2210343e+00
  5.3051424e-01
 -9.2563075e-01
 -1.9514433e+00
  6.3394660e-01
  8.5991102e-01
  1.4559613e+00
 -6.6329211e-01
 -1.3293552e+00
  1.1797297e+00
  1.0714200e+00
  5.2655572e-01
 -1.0206712e+00
 -6.8769646e-01
  1.2091962e+00
  1.2273799e-01
  4.0622228e-01
  8.3441317e-01
 -2.2863391e-01
  7.5018518e-02
  9.0735435e-01
 -2.7677274e-01
 -1.8382776e+00
 -4.7007408e-02
  7.0811117e-01
  2.5602634e-04
  7.1182382e-01
 -1.5523996e-04
  2.5070938e-01
  2.6096320e-02
 -4.8478719e-04
  5.9432304e-01
 -4.6325906e-04
  8.9906222e-05
  7.0998547e-05
  4.2770144e-02
  3.2087704e-04
  2.7025584e-04
  1.0412747e-04
  1.2330011e-04
  1.1540438e-02
 -4.2925851e-05
 -9.1411412e-02
 -9.4367999e-05
  1.6836113e-04
  1.8821884e-04
  4.1774049e-04
 -1.2418869e-04
  5.0982901e-05
  1.7011506e-04
  4.4911721e-01
 -9.2257239e-02
  2.4691559e-01
 -3.1964558e-01
  7.7648306e-01
 -4.0289348e-01
 -1.3114850e-02
 -2.4980260e-01
  1.2352606e+00
  2.5404528e-01
 -2.7868518e-01
 -5.3486979e-01
 -4.9967074e-01
  1.1955875e-02
 -4.1784724e-04
  1.2462694e-01
 -5.3498950e-02
 -1.2456381e-01
 -2.9449508e-01
 -2.2308895e-01
  2.9421221e-02
  4.9726143e-01
 -8.1793331e-03
  7.2618811e-03
 -8.0450334e-02
  1.2201461e-05
  1.6044964e-01
  4.9150398e-04
 -1.7127648e-04
 -1.6164227e-04
 -1.1164340e-01
 -3.8100204e-01
  9.9009886e-02
 -4.0298876e-01
  2.8868061e-01
  4.9922660e-01
  6.7964309e-01
 -2.8713739e-01
  1.1712270e-01
 -2.3450060e-02
 -5.6273382e-02
 -3.1814545e-02
  2.0420754e-05
 -2.6848030e-01
  9.0654992e-02
 -6.4905101e-01
  2.3249912e-03
 -1.6357360e-04
  4.1027330e-02
 -5.2544577e-03
  4.0309450e-01
 -3.6393577e-01
  4.8356879e-01
 -2.2943074e-01
  4.7500212e-02
 -9.9446803e-02
  1.7879738e-03
  3.7499575e-04
  2.5096134e-04
 -7.3447132e-05
  1.4436884e-01
 -4.0962081e-02
  1.6017127e-01
 -9.0604830e-01
  1.0432699e-01
 -1.1376908e+00
  3.2685057e-05
  2.5725311e-01
  1.1380777e-01
  1.2326025e-03
  2.0944637e-03
 -6.6116631e-02
 -6.4117143e-05
 -6.7246539e-05
  1.7840641e-04
  6.3353717e-01
 -3.9745014e-02
  4.4810593e-01
 -1.0866842e-01
 -1.5317351e-01
  2.1861037e-04
  1.3952123e+00
 -2.0428539e-04
  2.6474544e-04
  2.1029926e-04
  2.6004162e-04
 -2.4466001e-04
  4.1423253e-05
  3.9651481e-04
 -1.5228335e-04
 -3.2967400e-05
  1.0791448e-05
 -3.4106521e-05
 -5.0626200e-01
 -2.6835991e-05
 -1.8258279e-04
 -2.2829624e-04
 -7.3487921e-05
  7.9885554e-05
  3.9184066e-05
  2.4101024e-05
  3.1398647e-04
 -8.4580184e-05
 -7.1252340e-05
 -1.0695812e-04
  3.2147070e-04
  1.6935452e-05
  3.7718255e-05
  1.2562115e-04
 -7.6910415e-05
  3.1648023e-04
 -4.1665990e-05
 -2.3419820e-05
  2.0366217e-04
  7.8961195e-04
 -8.6755579e-05
  2.4378019e-04
  7.0625851e-05
  2.4532274e-06
 -1.0419347e-05
 -6.8625181e-05
 -8.1805199e-05
  5.1277435e-05
  1.4766301e-04
 -1.5675672e-04
  8.4713763e-05
  3.5270807e-04
 -1.5854272e-04
  4.8864540e-06
 -3.7051336e-04
 -1.3969520e-04
  1.1664148e-04
 -2.7477483e-05
 -1.7187553e-05
  1.4805823e-04
 -1.0258837e-04
 -4.4462395e-06
 -2.9200950e-04
  1.8496388e-05
  7.2311750e-06
  8.8551918e-05
 -4.6111547e-04
  1.0884309e-04
 -1.1026162e-05
 -5.5604374e-05
  6.8992202e-05
  3.0784914e-04
  7.3069363e-04
 -4.3828313e-05
  2.0608068e-06
  8.9236677e-01
 -1.1526719e-01
  2.7712780e-01
  8.1252372e-01
  1.1949496e+00
  3.4643237e-02
  2.1244176e-03
  5.9697159e-06
  1.6622510e-04
  2.9742140e-03
 -3.2496892e-04
 -4.5376910e-05
 -4.3264288e-04
  9.8600669e-04
 -4.4438322e-05
 -1.4125927e-03
 -7.4128264e-05
  3.8605943e-04
  4.2988676e-01
 -7.8433938e-03
  1.5306754e-01
 -1.5164796e-02
 -1.2400238e-04
 -1.2420179e+00
 -5.9179854e-01
 -3.8806742e-05
 -4.6376209e-04
  1.1589509e-07
 -7.2272836e-05
  5.2039204e-06
  1.5041871e-04
 -1.5035796e+00
 -6.0986114e-01
 -5.8302242e-01
 -7.2515511e-05
 -1.6925264e-04
 -9.0723759e-01
 -1.2340637e-04
  1.0004595e-02
 -5.3754073e-01
 -5.6195964e-05
  8.5431609e-05
 -1.0026813e+00
 -9.1556823e-01
  1.0087822e-01
  1.2104473e-05
  1.2118531e+00
  2.5687379e-01
 -6.6970766e-01
 -2.6671521e-05
 -2.1967624e-04
 -2.0252567e-02
  6.3927281e-01
 -2.6584437e-01
  4.3199494e-01
  9.0751237e-01
 -3.8794249e-01
 -4.3161617e-05
  8.5843294e-06
  8.9044407e-02
 -1.9708231e-04
  1.5343529e+00
  5.8412898e-01
  2.4318957e-01
  1.0300903e-01
  8.3125733e-02
 -2.2079967e-01
 -5.4344378e-05
  7.7869609e-02
  4.4375804e-01
  9.9469751e-02
  1.1777692e-01
  4.5089209e-01
 -1.4501549e+00
  4.2568871e-01
  4.7923502e-02
  7.6995975e-01
 -4.3361935e-01
  9.5410943e-01
  1.0463127e-01
  4.2432002e-04
 -5.3614283e-01
 -4.7666883e-01
 -9.5312253e-02
 -3.1587455e-01
 -1.5851297e+00
 -1.9333230e-01
 -6.5044492e-02
 -7.1608676e-03
  3.7570906e-01
 -1.7064188e-01
 -1.2346436e+00
  8.4170371e-01
 -1.0104463e+00
  1.4773421e-01
 -9.5482189e-03
  8.5578235e-05
 -1.8402064e+00
  4.8359859e-01
 -8.0219077e-05
  1.6196989e-01
  2.8645591e-06
  2.6452371e-01
  2.4427314e-01
  1.7270425e-01
 -1.7645251e-04
  1.7591286e-01
 -1.1389554e+00
 -8.4150182e-03
  1.6227087e-04
  3.8011243e-05
 -3.2784994e-04
  3.3193042e-05
 -2.4498961e-04
  1.1570668e-04
 -8.7552195e-05
  4.3222091e-05
 -8.2737160e-06
  8.8062871e-04
  2.2768170e-04
  6.1931217e-01
 -1.5022612e-01
 -2.6399946e-01
  1.2938228e-01
 -4.9548382e-01
 -6.7972738e-01
  6.0303992e-01
  8.9109397e-01
  4.2187476e-01
  1.8489717e+00
  4.5897761e-01
  9.1901910e-01
  1.6473075e+00
 -9.9948567e-01
  2.1611032e+00
  8.3779164e-02
 -9.7169474e-02
  2.3197169e+00
  8.8773042e-01
  1.9018865e+00
  3.3730909e-01
  3.4976655e-01
  1.3109218e+00
 -3.0350727e-01
  1.2488930e-01
 -1.2157016e+00
  1.6377358e-01
  6.8665577e-05
 -1.1929823e+00
  1.0049127e-02
 -6.4174433e-06
 -2.2597989e-05
  2.7184180e-05
 -1.2033276e-04
 -1.1004476e-05
  1.0241398e-04
  2.6902140e-04
  1.9033131e-04
  3.3670909e-05
  2.0082527e-05
  1.0581681e-04
 -9.0505906e-05
  1.4634031e-07
 -9.4498988e-05
  1.2200229e-04
 -4.5104545e-05
  8.3593666e-05
 -6.0834223e-05
  3.8911006e-04
 -2.3439826e-04
  7.9679827e-05
 -2.4126776e-04
  5.4940210e-07
 -2.3133989e-04
  1.2811691e-04
 -8.9728608e-05
 -1.8418237e-04
 -2.5558453e-05
 -9.9426143e-06
 -2.5804318e-05
 -6.0532147e-01
  2.3783433e+00
  4.1598067e-01
 -1.8272244e+00
  6.7846021e-03
 -2.7991611e-01
 -1.1522354e+00
 -1.4675055e-01
  3.6189410e-01
 -1.2958002e+00
 -6.0464942e-01
 -5.2973670e-01
  8.6169714e-01
  1.5583631e-02
 -2.0240755e-01
 -1.9405885e-05
  8.5809571e-01
  2.1869378e+00
  1.6343418e-01
  5.1224240e-05
  1.8684843e-01
 -3.0524250e-05
 -9.2488103e-02
 -7.0370033e-02
  4.9621296e-05
 -1.8995946e-05
  8.2079041e-06
 -4.2127568e-04
  4.4333447e-05
 -2.6533380e-04
  8.5456944e-01
  2.1800672e-01
  4.9345112e-01
  8.3440202e-01
  3.2657060e-01
 -1.3776847e-04
 -1.1306692e-04
  1.1024738e-04
 -3.0936346e-05
 -5.8201273e-05
 -1.2698706e-07
 -5.0395047e-05
 -3.5321113e-04
  1.3213698e-04
 -1.1680542e-05
 -3.4330023e-04
 -3.6707590e-04
 -1.2214592e-04
 -1.9508283e-05
  1.0110735e-05
 -5.5526183e-05
  7.4642754e-05
 -3.8449882e-04
 -5.0413182e-05
  1.5328436e-04
  1.3466393e-04
  3.4155109e-04
  2.3610200e-04
  1.5745277e-04
  4.4223710e-04
  9.4512784e-01
  3.6110020e-01
 -1.0651581e+00
  7.6150507e-01
  1.7358030e-01
 -2.7905902e-01
 -3.3383232e-01
  1.4197441e-03
  3.3698081e-05
  3.5929639e-04
 -4.4354016e-01
 -7.7845732e-04
 -9.2832595e-02
  6.8979658e-05
  5.3037453e-05
 -7.2600384e-04
 -2.8052155e-04
 -2.1814337e-01
  6.3710483e-03
 -1.7528626e-05
 -2.6207289e-04
 -9.7274933e-05
 -2.4524261e-01
  7.0917013e-06
  3.8576207e-05
  1.2764372e-05
 -7.6305529e-05
 -1.4534786e-04
 -4.2211130e-05
 -1.3339130e-04
 -8.6803788e-01
  1.6907133e+00
  5.2103585e-01
 -2.2937157e+00
  2.6059603e-02
  5.7024539e-02
  4.5841309e-01
 -3.6883524e-01
 -2.8037468e-01
  2.1272549e-01
  2.9545423e-01
 -2.4893979e-02
 -1.3139534e-01
  7.8747304e-05
 -2.3488203e-04
 -9.4267607e-02
 -3.8026281e-02
 -1.1255576e-01
 -1.8987412e-04
 -6.5080887e-01
 -7.8378475e-01
  6.5487826e-01
  5.5963266e-01
 -4.1313680e-05
 -9.5532698e-05
 -1.5907895e-03
  4.1540122e-01
 -1.3667019e-04
  2.5878585e-04
 -5.3795637e-04
 -1.2225773e-01
 -4.9353921e-01
 -1.7513964e-01
  6.4302492e-01
 -2.7485383e+00
  2.6440550e-02
  5.2837866e-05
 -2.4566188e-04
 -1.8341142e-03
  5.7727822e-05
 -1.1772861e-04
  3.4719265e-05
 -4.4905712e-05
  1.6839649e-05
 -2.4242121e-05
  1.2544413e-04
  2.3771118e-04
  4.6739033e-06
 -6.0040273e-02
  1.2906316e-04
 -5.1245239e-04
 -9.4547540e-06
  4.5221092e-04
 -4.9603157e-05
 -1.4411958e-04
  1.2506491e-04
 -5.8002090e-05
 -4.2018659e-05
 -4.3843465e-05
 -3.8176047e-04
  1.1759400e+00
  7.4948531e-01
 -1.4333886e-01
  1.4090999e+00
  3.9240178e-01
 -1.3646747e+00
  6.7104876e-02
 -5.3482395e-01
  7.9975486e-01
  8.8874328e-01
 -1.5704240e+00
  7.2817498e-01
  2.6247339e+00
  2.6081502e+00
 -2.1530383e+00
 -7.0175982e-01
  1.4716229e+00
  8.4859455e-01
  1.1368620e+00
 -9.1749805e-01
  3.4189227e-01
 -1.1121208e-03
  9.7677189e-01
  5.9749925e-01
  2.5953987e-01
  2.4816771e-05
  6.5672481e-05
 -1.2639503e-01
 -4.1068597e-06
 -4.2946931e-04
  2.1181196e-01
 -3.5670561e-01
 -1.7742909e-04
 -2.3441207e+00
 -2.8321216e-01
 -8.7559354e-05
 -7.6465408e-04
  8.8771194e-05
  1.7358588e-04
  2.1911869e-04
  3.3180782e-04
 -3.0662748e-05
 -7.7144279e-05
 -1.1091534e-03
  3.0323304e-04
 -5.2507094e-04
 -1.5383592e-04
 -3.6597536e-05
 -3.3321974e-04
 -1.4281538e-04
  1.8807560e-04
  1.1147158e-05
  5.5129508e-06
  2.8146580e-05
  3.5893213e-04
  4.6607358e-05
 -1.1913656e-04
  3.8050646e-05
 -4.2438081e-05
  1.6955241e-04
  1.3865271e+00
  5.0124067e-01
  4.0628761e-01
  7.1869057e-01
 -3.6239105e-01
  3.6312518e-01
  9.3157536e-01
 -4.1475481e-01
 -1.3052943e-04
 -8.7231456e-08
  7.6316893e-02
  2.7767153e-04
  1.4911236e-01
 -2.7809909e-04
  2.6300293e-04
  4.2002203e-04
 -9.8985169e-05
 -2.6627564e-05
 -4.4099394e-02
  7.6943688e-05
  4.9937685e-04
  1.5728062e-04
  2.2880150e-02
 -1.4998759e-04
  4.8577249e-06
  6.0656894e-05
 -1.3610460e-04
  2.9449815e-05
 -9.0827199e-04
 -3.1402093e-04
  5.8012116e-01
 -1.2776433e+00
  4.1796808e-04
 -1.2155870e+00
  2.6561592e+00
  1.6190442e+00
 -7.2339341e-02
 -2.1495639e-01
 -1.5859743e+00
  1.1853474e-04
  7.4874306e-01
  1.2599000e+00
 -7.7209195e-05
 -1.0626688e-01
 -1.2931518e-01
  2.0455427e+00
 -1.8289352e-03
  5.0872677e-05
  1.8388519e-04
  7.5344656e-06
  1.3398378e-01
 -8.0971041e-04
 -2.1428929e-03
  1.3233562e-01
 -4.3277376e-04
  1.6194829e-01
 -6.2312392e-05
 -3.2509121e-04
  2.3515199e-04
  4.0791641e-04
  9.4041419e-01
  1.4946878e+00
  4.8895851e-01
  9.1176701e-01
  3.7046209e-01
 -1.2536979e+00
 -1.3468201e+00
  2.5079682e+00
  1.1311101e-01
  5.8551274e-02
 -9.2489101e-02
 -4.2170456e-01
 -2.6640438e-03
 -1.3467830e+00
 -4.6071661e-01
 -1.0661657e+00
 -1.0792382e+00
 -7.9427689e-01
 -5.3531981e-01
 -9.3647873e-01
 -4.0426385e-04
 -2.0807239e-01
 -1.1395754e-04
  2.9558790e-01
 -5.2640982e-02
 -9.1951326e-05
 -4.7623186e-04
 -1.8203907e-03
 -4.1299874e-05
  2.5326739e-05
 -3.3164762e-02
 -4.0808216e-01
  4.9227327e-02
 -6.2020326e-01
 -2.0328355e-03
  1.6230091e-02
  4.3023008e-01
 -3.8826512e-04
 -3.9044363e-04
  9.1253642e-06
  1.6876628e-01
 -2.4788812e-04
  5.5291406e-05
  1.3549173e-02
  1.7800655e-03
  7.9107217e-02
  1.6444632e-01
  2.1069598e-01
  4.8474302e-03
 -5.0784552e-06
 -2.1362146e-05
  7.9998244e-05
  7.0684105e-01
  6.2040039e-05
  3.2258831e-06
 -1.9918050e-05
  3.8301529e-04
  1.3620229e-04
  8.5733445e-05
 -7.2369421e-06
  1.1332191e+00
  1.2629017e-01
  6.9545650e-01
 -7.6672681e-02
 -8.0223805e-01
 -1.4875375e+00
  7.6661938e-01
  6.6876131e-01
  4.3564987e-01
 -5.0185543e-01
 -1.1937064e+00
  2.2342324e-01
  1.6581175e+00
 -3.5344675e-01
  1.5909508e+00
 -1.2577506e+00
  1.2506552e-01
 -6.1092705e-01
  1.7183448e-01
 -3.4358147e-01
  1.2039743e-01
  1.4277780e+00
 -1.7819662e-01
  4.0471923e-01
  1.5736603e+00
 -3.5648682e-05
  4.3827015e-01
  2.4149130e-04
  1.0494548e+00
  4.4224478e-05
 -4.4376162e-01
 -4.7177467e-01
 -6.2857294e-01
  6.6378140e-01
  5.5385958e-02
  1.5262213e+00
 -3.0906567e-01
 -1.7158327e+00
 -1.8006321e+00
  4.8232578e-02
 -9.1963768e-02
  2.4371509e-01
 -5.0622392e-01
  5.0892806e-01
  8.6057395e-01
  1.0402192e-04
 -8.2572736e-02
 -6.0688715e+00
  1.4007292e+00
  2.4846407e-02
 -2.8953291e-04
 -8.7717417e-06
  1.0625455e+00
 -1.7272770e+00
  1.8860906e-04
 -7.6836889e-04
 -3.3997927e-05
  5.5489135e+00
  2.4791893e-01
  1.4744973e-04
 -1.1982586e+00
  1.7995507e-03
 -5.2763474e-01
  5.7257706e-01
 -5.5052727e-01
  1.0435824e+00
 -2.6149452e-01
  3.2070961e-02
 -1.3650504e-04
 -7.5630164e-01
 -5.6964356e-01
  3.0636862e-03
  3.6346387e-02
 -5.6246746e-01
  1.1309399e-04
 -5.1299176e-06
 -9.9309456e-01
 -8.3579548e-02
 -2.3267274e-01
 -3.6070380e-01
  3.4082663e-04
  6.3672123e-05
 -1.0782757e+00
 -3.0338684e-01
  2.2005290e-05
  3.2184530e-06
  1.0053819e-04
 -7.5927470e-04
 -2.4411327e-04
 -1.7655855e-06
 -1.1479222e-04
 -5.2010721e-01
  8.4107739e-01
 -6.9787614e-02
 -4.3568751e-03
  2.6153150e-04
  1.1753295e-05
 -3.8621656e-04
  1.6483718e-04
 -2.0701675e-04
 -3.8854021e-05
 -4.0294585e-04
 -1.9097891e-04
 -8.5982334e-05
 -8.2197155e-05
 -3.0440174e-04
 -3.6647628e-04
  3.7678806e-04
 -1.2272310e-02
 -1.7107304e-04
  7.1653399e-06
 -1.6267905e-04
  1.1580421e-03
 -1.9648758e-04
 -2.4090496e-05
 -1.1008495e-04
 -2.9118728e-05
 -2.5668272e-04
  1.1355768e-04
  1.4023967e-04
  1.6516405e+00
  1.1677860e+00
 -9.9938415e-02
  1.0148485e+00
  1.1898086e+00
 -1.0969135e+00
 -1.0157820e+00
  7.4335132e-03
  1.6742979e+00
 -3.7591493e-01
 -1.9165617e+00
 -9.6218514e-01
  2.6726313e+00
 -2.0982211e+00
 -1.3664610e+00
 -1.2924523e+00
 -2.2667556e-01
 -1.3119887e-01
 -3.4705436e+00
 -1.2690393e+00
 -1.6084879e-03
 -2.5341007e-01
 -4.9087200e-01
 -1.8872622e+00
 -5.3183842e-01
  4.9976891e-01
 -8.3612353e-02
  4.2672732e-01
 -3.3108449e-01
  3.2712574e-04
 -9.6615940e-01
 -1.1046968e-01
 -4.3440464e-01
  2.1030174e-01
  1.4343292e+00
  2.5940081e-01
 -3.8811151e-04
  7.2348773e-02
 -6.1595505e-01
 -4.6145537e-01
 -6.0793155e-01
 -1.1475319e-04
 -6.3651003e-04
 -2.4365959e-01
  1.0063899e-03
 -8.8287407e-01
 -8.1898308e-01
 -1.3355617e-01
  1.6584472e-01
 -3.9370641e-01
 -1.1322275e-02
  1.1342167e+00
  2.4644102e-04
 -9.3716815e-02
 -7.1388604e-07
 -3.1974973e-04
 -1.7010573e-03
 -1.8076205e-05
  1.6460505e-04
  2.7751226e-05
 -3.9543313e-01
  3.4688184e-01
 -1.3721523e-01
 -1.3718745e-01
  1.5569081e+00
  3.7032107e-01
 -1.0527385e+00
 -8.2405484e-01
 -1.2154200e-02
 -7.9681510e-01
 -7.8762503e-05
 -2.8294471e-01
  6.2589818e-01
 -1.4118090e+00
  4.0600413e-01
 -6.7352861e-01
  1.7461434e-01
 -2.3632772e+00
 -1.1026311e+00
 -3.1251392e-01
 -1.9989608e-02
 -3.2298881e-04
 -9.0450281e-01
 -1.1954763e+00
 -3.0381205e-05
 -5.5570140e-02
 -4.9868011e-04
  6.6479348e-02
  6.4931706e-02
  5.1814312e-04
  4.0660591e+00
  3.1855364e+00
  3.7340915e+00
  4.5522261e-01
 -7.2780309e+00
 -3.2470580e-05
 -8.1364458e-05
 -3.1841770e-04
 -5.5280060e-01
 -1.3020502e-05
  7.8489697e-01
  2.8823153e-05
 -6.4703345e-04
 -1.4910153e+00
 -2.0140002e-03
  9.8211992e-01
  2.6496779e-04
 -1.2330510e-04
 -2.9136414e-05
  3.7059322e-05
  1.6830339e-04
 -1.9424475e-03
 -2.2599152e-04
 -4.9166818e-04
 -6.9831171e-05
  9.7777217e-04
  1.9432891e-04
 -6.0229850e-05
  4.9359658e-01
 -1.9742818e-04
  1.6427182e-02
  4.7199363e-01
 -1.8173875e+00
 -7.3583022e-02
 -5.6929708e-02
 -7.1529463e-02
  1.5540780e-04
 -5.7704710e-06
 -3.4676460e-03
 -2.2560787e-04
 -3.4653477e-04
 -1.2444153e-02
 -5.8836806e-05
  1.3782934e-04
  7.6063076e-04
  5.7077694e-05
 -6.2369745e-02
 -1.8073403e-04
 -3.3992385e-06
 -5.3789303e-05
  3.0712577e-05
  1.1593583e-02
  1.4219862e-04
 -1.6545919e-04
  1.0589425e-04
 -1.1620579e-03
 -6.9581998e-05
 -2.0265421e-04
 -4.0785960e-04
  1.2552299e-04
  1.5362616e+00
  3.0817857e-01
 -6.7841899e-01
  1.2565874e+00
 -4.1258964e-01
  2.0145050e-01
  3.0055037e+00
 -1.1546847e+00
 -1.2927722e+00
  3.8976803e-01
  1.1985544e-01
  4.4990603e-02
 -5.6475890e-01
 -4.7903636e-01
  5.3778017e-04
 -2.6168534e-01
 -8.2146114e-01
 -2.3220530e+00
  5.7245797e-01
  1.0388692e-01
 -3.4427127e-01
 -4.9993672e-05
 -7.6755846e-01
 -7.6550031e-01
  1.5690355e-04
  2.7839974e-01
 -6.1514872e-01
 -4.1461823e-04
 -1.6597430e-04
 -9.9427474e-05
  1.0628169e+00
  9.8414920e-02
 -1.4299006e+00
  3.2174504e+00
 -4.1801915e-01
 -5.1437277e-02
 -8.9415565e-02
  1.3337980e-04
  3.2242227e-01
  4.6698446e-05
 -3.2948132e-04
  4.9466151e-04
  2.4844121e-04
  3.3540057e-04
 -2.1739420e-04
 -1.9848703e-04
  1.9853906e-04
 -1.8865771e-04
  3.6081887e-04
 -1.6428468e-04
  3.4986172e-04
 -5.4921173e-07
  3.9367911e-05
 -6.5630684e-06
 -5.3124859e-06
  4.0890009e-05
 -1.8888411e-05
 -2.3552922e-04
 -3.0018395e-05
  4.6272442e-05
  8.0853856e-01
 -8.1752461e-01
  2.3830526e-01
  1.0591289e+00
 -7.0735383e-01
  1.9237557e-02
  7.1616340e-01
 -5.0147986e-01
 -1.3265567e-04
 -1.7721229e-04
  1.0624795e-03
 -1.4241821e-03
  1.7244443e-05
 -1.1769625e-01
 -2.4857963e-04
 -8.3699560e-05
 -1.9657465e-02
 -1.2438428e+00
 -1.6025139e+00
 -1.1775934e-04
 -1.0058151e-04
  5.3371554e-03
  3.7459866e-04
 -2.0204963e-05
  1.4354054e-04
  1.3435891e-04
 -2.7364949e-04
  7.6191798e-05
 -1.1628243e-03
 -6.7646804e-05
  1.7935473e-02
 -8.0851293e-01
 -3.6018614e-02
 -5.5035200e-02
  4.4985318e-01
  6.9572829e-02
 -7.7990699e-05
 -1.4907368e-05
  9.7209156e-02
 -4.3480290e-05
  2.7957445e-01
 -1.4742804e-04
  1.8383696e-04
  6.3503772e-02
 -2.5947086e-04
  1.9206189e-01
  3.5675295e-02
 -2.1709228e-02
 -1.3849555e-01
 -5.0169483e-06
  1.9868201e-02
 -1.7369608e-03
  7.9070501e-02
  6.5232182e-01
 -1.6523484e-04
  1.0759718e-04
  5.2611362e-05
 -2.4979218e-04
 -3.2286436e-04
 -2.5233674e-05
  2.0906789e-02
 -4.6160048e-01
  1.0461069e+00
 -7.3336828e-01
 -7.3527694e-01
  2.2684474e+00
  4.5180997e-01
  1.9754025e+00
  2.1039960e+00
  5.9859045e-02
  8.4270173e-01
  5.5440452e-02
  2.7144182e+00
  6.6332269e-01
  2.2884142e+00
  8.4162110e-01
 -4.0765336e-01
 -1.4272593e+00
  5.7928904e-04
  1.8454500e+00
 -6.2998452e-06
 -2.9834094e-03
  4.6397734e-01
  6.0552788e-01
  1.9565727e-01
  3.5717126e-03
 -8.6729181e-01
 -3.5140276e-01
 -1.6142677e-01
 -4.4766012e-01
 -6.0650939e-01
 -5.5592948e-01
  1.9719286e-01
 -9.7913288e-02
 -9.6725696e-01
  6.6882765e-01
  5.9830848e-02
  1.2427036e-04
  2.5347093e-01
  7.3847586e-05
  5.7161622e-02
  6.6579133e-01
  4.0484554e-01
  1.3173856e-02
 -7.8071753e-04
  5.9397602e-01
  6.3148091e-06
  3.5660943e-01
  6.2768266e-02
  5.5470620e-04
  6.1932826e-01
 -2.2685969e-04
  2.0539523e-05
  3.1548899e-04
  3.8138236e-04
  1.3776914e-04
  2.2670095e-04
 -6.2689796e-04
 -1.7201834e-03
 -1.0526180e-04
  6.3000733e-01
 -5.9851277e-01
 -7.6012731e-01
  4.6548930e-01
  9.5129710e-01
  1.4224593e-03
  4.7443245e-05
 -1.2746021e-04
 -3.8732702e-01
 -6.7629811e-04
  1.1693731e-04
 -1.1279950e-04
 -1.1741351e-04
 -2.3045331e-04
 -1.0340169e-05
 -2.8131550e-04
  1.7138712e-04
 -1.1083167e-04
  1.1108255e-05
  5.5175031e-05
 -4.1753135e-04
  1.2968753e-04
  3.1940345e-04
  2.5195150e-05
  3.3605273e-05
  1.0381946e-05
  1.1391866e-04
 -5.1033872e-05
 -8.8273722e-05
  2.7205249e-05
 -1.2205186e+00
  5.8846223e-01
 -2.6719389e-04
 -6.0092771e-01
  4.5675409e-01
 -2.6290730e-01
 -4.1720441e-01
 -1.6985731e+00
  9.6530694e-01
 -3.1538358e-01
 -1.1462494e+00
 -3.1073849e+00
 -2.2045090e+00
  8.7472361e-01
 -1.9228678e+00
 -1.8583465e+00
 -9.4428039e-01
 -3.5780323e-01
 -4.3087864e-01
 -1.9422693e-02
 -1.2649342e+00
 -1.5801195e+00
  3.7056905e-01
  8.6607009e-01
 -6.1646868e-02
 -5.9422904e-01
 -5.1127112e-01
  1.0721534e+00
  1.6304842e+00
  2.8063884e+00
 -1.6498786e-01
  5.4262054e-01
 -8.0874503e-05
 -8.6781877e-01
 -4.8940293e-02
 -1.3214308e-01
  1.2381378e+00
  2.4981692e-01
  2.4956180e-01
 -1.1956117e-01
  1.5351833e-01
  3.0342603e+00
 -1.0034139e+00
  3.5400537e-01
  6.3896871e-01
 -4.2067966e-01
 -1.0991755e+00
  6.2577046e-02
 -2.9998776e-01
 -2.9563293e-01
 -2.9290828e-01
  6.7874783e-01
  1.2287267e-01
 -4.2518911e-01
 -4.3507519e-01
  2.1207008e-01
  3.5915518e-01
  6.0703832e-01
  4.1630244e-01
  5.2665633e-01
  1.4074661e+00
  2.4630549e+00
  1.0518420e-01
 -1.5010026e+00
  8.9642560e-01
 -2.1725507e+00
  1.7865899e+00
  9.0637980e-03
 -3.1781006e+00
 -8.5914868e-01
 -9.6226358e-01
 -4.0949640e-04
  2.2799985e+00
 -2.7145617e+00
  5.2239138e-05
  1.4253212e+00
  7.4438494e-01
 -1.9991440e+00
  6.6724348e-01
  1.2373375e+00
  7.9949564e-01
 -2.9228439e+00
  2.1640854e+00
  2.4706945e-02
 -4.4218165e-01
 -3.0535221e+00
  2.8283808e+00
  2.3364511e+00
 -2.5023234e+00
 -3.2191906e+00
 -5.2680081e-01
 -6.8622404e-01
 -6.8072812e-05
  5.4447323e-01
  1.0340037e+00
  1.8160738e+00
 -1.5199823e+00
  6.5897458e-04
 -1.0696257e-04
  1.0318805e+00
 -6.5396357e-01
  1.2253362e-04
 -1.2572069e+00
 -3.2086749e-02
 -1.7390305e+00
  1.8289834e-01
 -1.9004177e+00
  8.5214689e-02
 -3.3709627e-01
 -1.5186714e+00
 -1.9429378e-02
  2.6870632e-01
  1.8984835e+00
  9.6248287e-01
  8.7361616e-01
 -2.5833890e-01
 -2.5046823e+00
 -4.4577923e-02
 -2.7429943e+00
  6.3550833e-05
 -1.4578233e+00
  6.9869298e-01
 -7.3205543e-01
  7.1575910e-02
 -3.6634386e-01
  1.2666050e+00
  8.8875717e-01
 -3.0020375e+00
 -7.7595674e-03
 -1.0600250e+00
 -1.3157073e+00
  2.3855721e-03
 -1.5780569e+00
  1.7520269e+00
  4.9065447e-01
 -3.4252501e-01
 -1.6707506e+00
  2.6738138e-05
  7.5728023e-01
  8.4995888e-03
  1.6036795e+00
 -7.0197895e-02
  2.2252395e+00
  1.6466813e-01
 -1.2187852e+00
 -9.2894423e-01
 -1.9074367e-01
  8.4517211e-01
  3.3404317e-01
 -2.4150598e+00
 -6.0409552e-01
  8.1661910e-01
  7.4121755e-01
 -1.4639525e+00
 -1.3658355e+00
 -2.8695363e-01
 -1.0756133e+00
 -2.7208522e-01
 -4.5405135e-01
  5.7240999e-01
 -3.9465764e-01
  1.3077228e+00
 -3.0635405e-01
  1.0074331e+00
 -1.2306750e-04
 -2.2250626e+00
 -1.3529215e+00
  1.3197422e+00
  2.3496367e-01
  1.0660884e+00
  3.8483892e-02
 -2.0092566e-01
  2.6694906e+00
 -1.4961445e-03
 -9.0156600e-02
 -6.6302943e-01
  6.8161494e-01
  6.6046858e-01
 -9.4788980e-01
  6.7515713e-01
 -2.6283340e+00
  3.2306883e+00
 -5.2864332e-02
  1.2991111e+00
  2.2663233e+00
  1.0402229e+00
 -3.3320358e-01
  7.2851114e-04
  2.2659314e-04
 -1.5885550e+00
  1.1838002e-04
 -2.6055048e-05
 -3.2898134e-01
  4.3683988e-01
 -4.7061500e-01
 -4.4228058e+00
 -4.5192611e-01
  2.7869359e-01
 -6.3136107e-01
  3.6992627e-01
 -1.8777529e-03
 -5.3058159e-01
 -5.2108401e-01
 -5.1226735e-01
  3.0058286e+00
  4.5604166e-01
  2.2396071e-01
 -1.7232417e+00
 -1.5480433e-01
  1.4368943e-05
 -3.2087469e+00
  1.4742239e+00
  1.2715871e+00
  1.1019516e+00
  8.2051939e-01
  3.2615761e-04
 -1.7773335e+00
  1.2887574e-05
 -1.1722470e-03
 -7.9995775e-01
 -9.8173916e-01
 -1.3350489e+00
 -1.3976028e+00
  1.3769573e+00
  2.1542288e-02
  2.3175306e+00
 -2.3711579e+00
 -3.7643840e-05
 -1.3991975e+00
 -1.6357316e+00
 -4.3503463e-01
  1.3132082e+00
  1.6311849e+00
  1.0508524e-01
 -2.8239200e+00
 -4.3669129e-03
 -6.3333340e-04
  1.3497764e+00
 -3.0610900e+00
  1.1725895e+00
  6.0978889e-01
 -2.7555453e-03
 -9.8879151e-05
  5.7568794e-01
  9.7461593e-01
 -1.6648200e-04
  2.0071003e+00
 -1.6840733e+00
 -2.3550465e+00
  5.4833043e-01
  1.5600107e+00
  1.3905220e+00
 -4.6471915e+00
  7.1694613e-01
 -3.6251695e-05
  1.6969655e-02
 -2.2613502e+00
 -1.7220259e+00
 -1.0784296e+00
  3.6964253e-01
  1.9508960e-04
 -2.3335569e+00
 -1.0142540e+00
 -1.2036633e-01
  3.4028320e+00
 -1.4602672e+00
  2.8005893e+00
 -6.7453730e-01
  8.3294612e-01
 -1.9224288e-03
 -1.1339264e+00
  2.0879239e-01
  1.1734947e-04
  2.1247747e+00
 -2.9536114e+00
 -1.6690860e+00
 -2.6739487e-01
  1.1859310e+00
  7.9723907e-01
 -6.7840302e-01
 -1.6216436e-02
 -2.4411304e-01
  1.9892745e-01
 -1.5282413e-01
 -5.1893950e+00
  3.2343987e-01
  5.2799499e-03
  2.8513986e-01
 -6.1342978e-01
 -6.0468614e-01
  3.2420800e-04
 -1.0902721e+00
  5.3753600e-02
 -3.1046429e+00
  9.7973275e-01
 -8.5761268e-03
  3.0641985e+00
  1.5644202e+00
 -3.4301429e+00
 -2.9778299e-01
  5.3983212e-01
  8.0761290e-01
  6.6178940e-02
 -7.0766300e-01
 -2.3957922e+00
 -4.0259408e-03
 -2.6071340e-01
  1.4379478e-04
 -2.5713909e-04
 -1.5425643e+00
  1.1864766e-01
 -2.1777728e+00
  6.0567131e+00
  3.1443055e+00
  2.9916241e+00
 -4.2967696e+00
 -3.1761765e+00
 -3.7491399e-01
  2.6934450e+00
 -2.5374055e+00
  4.8137307e+00
 -4.5472779e+00
 -1.1646464e+00
 -3.7084260e+00
 -3.9192623e-01
 -4.5504683e-01
  1.4470961e-04
 -5.6101823e-01
  3.8445741e-01
 -4.4212606e-02
  3.3693757e+00
 -1.2801678e+00
  1.5690297e-01
  2.3684092e+00
 -6.1533725e-01
 -9.2423911e-04
  1.3576612e+00
  3.1521770e-01
 -6.7073603e+00
 -2.2546163e-01
 -1.0866092e+00
 -6.8241581e-02
 -6.5654111e-01
 -1.9458427e+00
 -2.1452722e-01
  9.1204631e-01
  3.7590593e-01
 -1.9067575e+00
  1.6083902e+00
 -1.8596740e+00
 -4.1473269e+00
 -1.8175966e+00
 -3.3267140e+00
 -3.2192594e-04
 -3.8869437e-02
  1.7599382e-01
 -4.5327562e-01
 -9.3639761e-01
 -1.4972893e+00
 -2.2044573e+00
  2.6882887e-01
  1.3756970e+00
 -1.4579910e-01
 -1.7469305e+00
  5.0774045e-02
  8.8565439e-01
 -2.2104794e-01
  1.7237301e-01
 -4.0283647e-01
  1.3423120e+00
 -5.6422003e-02
  2.9633908e-05
 -2.9001594e-01
 -1.4120423e+00
 -2.8446271e+00
 -1.7606975e-01
  2.4609535e+00
  7.2991902e-01
  8.4989858e-01
  1.1850533e+00
 -2.5927383e-01
 -1.0599600e+00
 -2.7061934e+00
  8.9101113e-02
  1.8325166e+00
  3.5112023e+00
  1.1276598e-01
  2.9506508e-01
  6.0193226e-02
  7.7614578e-04
  4.0229211e+00
 -1.0091727e+00
 -1.9363284e+00
  4.1986197e-01
  2.3576394e-02
  1.6102538e-01
 -1.2730924e+00
  1.2213644e-01
 -3.6766380e-01
  3.4135721e+00
 -9.4987935e-01
  1.6848789e+00
  1.8221389e-01
 -1.8911728e+00
  1.9659914e+00
  5.0301862e-01
  1.3528939e-01
 -1.7912229e-05
  7.7560508e-01
  2.6350302e-01
  9.4674379e-01
 -7.6792848e-01
 -5.3163284e-01
  2.4955795e+00
 -9.8257735e-02
  1.6916087e+00
  9.0881986e-05
 -3.7234716e+00
  2.6758199e+00
  5.6657367e+00
 -1.8580503e+00
 -3.3912140e-01
 -1.1069798e+00
  8.5983807e-01
  4.9272883e-03
 -2.8502132e-04
  1.9518411e-04
  4.0191040e+00
  7.8185767e-01
 -6.2163275e-01
  2.9708416e+00
  9.2620694e-04
  1.2043079e-02
  2.6453249e-02
 -4.9843537e-05
  2.2887473e+00
 -1.6936321e+00
 -4.5898056e+00
 -1.7355299e+00
 -2.1011615e+00
 -1.8633983e-01
  6.7763269e-01
  2.1366186e+00
  2.7616130e-05
 -3.3251250e-03
  1.3006560e+00
  1.7166079e+00
 -1.0791449e-01
 -3.4934719e+00
 -1.6135907e-01
  1.2728742e+00
  6.3058489e-04
  2.0326047e-04
  3.4389389e-01
  2.5165796e+00
  2.5752494e+00
 -3.9121363e-02
  2.9016840e+00
  4.9956909e-01
  4.2667645e-01
  1.4545548e+00
  6.0277298e-04
  2.4690554e+00
 -2.2530310e+00
  1.7246453e+00
  1.9574400e+00
 -3.1698468e-01
 -7.4330461e-01
  2.7262029e-01
  3.3371885e+00
  1.4252815e-04
  6.2206178e-04
 -7.7470487e-01
  1.0267526e-01
  1.9832959e+00
 -3.6347353e+00
 -2.1285079e+00
  1.8077941e+00
  6.3937050e-01
  3.0822697e-04
  2.4732444e+00
  2.1925151e+00
 -2.9536483e-01
  3.0070087e-01
 -3.1608459e-01
 -6.5597463e-01
  6.7416155e-01
  1.0904109e-01
  1.0752728e-05
  1.8666730e+00
  1.6173642e+00
  4.5156163e-01
 -2.0799139e+00
  1.3521099e+00
 -3.0583298e+00
  3.2850587e-01
  6.2150735e-04
  4.5785969e-03
  2.8831923e+00
 -2.8228870e-01
  3.2306752e+00
  9.5634669e-02
 -1.6777061e+00
 -2.9855680e+00
 -1.6790734e-01
  1.4678062e+00
 -8.3300096e-05
  2.6124683e-01
  8.1143089e-02
  9.6133992e-02
 -1.5467669e-01
 -9.0297812e-01
 -8.2220054e-01
  1.0937208e+00
  9.0889877e-01
  2.6897275e-01
 -5.5326700e-01
 -1.9673683e-01
 -4.3640792e-01
  1.8614163e-01
  5.1406926e-01
 -8.7206411e-01
 -5.1331156e-01
  1.0360235e+00
 -2.2739547e-01
 -2.9093385e+00
  4.9444363e-02
  3.0626830e-01
 -9.9914795e-01
  1.6878802e-01
  1.7937738e+00
 -8.0792028e-01
  2.2409935e+00
 -3.2119500e-05
  1.9548439e+00
 -1.6699888e+00
  1.0280653e+00
 -5.4291248e-01
 -8.6046697e-05
 -1.6852751e-04
 -2.0571192e-01
 -6.5787166e-01
 -1.6607634e-04
  2.5919762e+00
 -2.7404323e-01
  5.0308881e+00
  2.2771059e-01
  6.8602897e-02
 -2.7662300e-05
 -5.8201599e-01
  5.4024750e-01
  2.4198749e-05
  2.2151341e+00
 -4.2698017e-01
 -1.6052777e+00
 -7.8780448e-01
 -2.2774625e-01
 -2.9562372e-01
  1.7872363e+00
 -5.9061609e-02
 -3.9443563e-05
  1.3418519e+00
  1.1748602e+00
 -3.7909696e+00
  9.8136753e-01
  1.2301360e+00
  2.7995821e-04
 -3.4390920e-01
  1.3991844e-04
  1.6218945e-04
 -4.7219971e-01
 -2.0987760e-01
  8.4717531e+00
  1.0983261e-01
  1.6026700e+00
 -6.3297248e-01
  2.1215510e-01
  2.5410039e+00
 -6.2940875e-05
  2.0035758e+00
  4.8275861e-01
  1.7825408e+00
  1.0781775e+00
  4.0863209e+00
  1.8055624e-01
  2.8919639e-02
 -3.8215446e+00
  2.4132851e-04
  4.7734036e-05
  1.9796047e+00
 -4.3050232e+00
  1.4282057e+00
  6.3234240e-01
 -1.6200008e-04
 -1.2013180e+00
 -3.9984532e-02
 -4.4663515e-04
 -6.8040901e-01
 -2.8577307e-01
 -3.0391037e+00
 -4.9080741e-01
 -3.8027290e-01
 -2.6436031e-01
 -1.3876603e+00
  3.4624457e-02
 -4.9394373e-05
  1.5497330e+00
  1.0032942e+00
  3.4242852e+00
 -5.6132227e-01
  3.4924462e+00
  1.5193384e+00
 -2.9535809e+00
 -4.6185145e+00
  8.9287692e-05
  1.2368559e+00
 -1.8298657e+00
  2.8299437e+00
 -1.2270864e+00
  2.2829967e+00
 -2.6422588e-04
 -2.5837951e+00
 -2.1412604e+00
 -2.5044297e-04
 -2.7453620e+00
  1.4776364e-01
  1.5340248e+00
 -3.2496020e-01
  8.2426645e-02
  6.3321434e-02
  8.8318133e-01
  3.3841725e-02
 -7.9948979e-04
 -1.5140774e+00
 -8.1084400e-01
 -3.3382064e-01
 -2.5160053e-01
  1.1051462e+00
  2.1219699e-01
  1.0024295e+00
 -4.8854834e-01
  2.7910361e-01
 -2.2518692e+00
  5.9659076e-01
 -6.1788815e-01
 -2.9107815e-01
  6.4549524e-01
  5.4019785e-01
  2.6848063e+00
  5.9031218e-01
 -1.3908747e-04
 -1.0902097e+00
 -2.0712821e+00
 -2.4051533e+00
  3.7617135e+00
  8.4932442e-05
  3.1661152e-04
 -8.7579036e-01
  3.6872926e-04
  2.4990761e-04
 -2.6273457e-02
 -5.6468401e-02
  5.8171505e-01
 -2.0011580e-01
  1.7070599e-01
  5.4609513e-01
  4.9994889e-01
  1.9652043e-01
  4.0533551e-04
  2.4438169e+00
  1.7790767e+00
  1.9457800e+00
 -8.5929573e-01
  1.6284499e+00
  8.0799443e-01
 -3.8514233e+00
 -2.1359241e+00
 -1.2097224e-04
 -6.4660329e-01
 -1.4700302e-01
  3.6301348e-01
 -8.7185258e-01
  1.3590491e-01
  2.3788931e-07
 -1.4232804e+00
  2.9242474e-01
  1.5765142e-04
 -9.9617918e-04
 -1.3830759e-02
 -1.0498296e+00
 -1.7037889e+00
  2.9661336e+00
  8.3312672e-01
 -1.8164046e+00
 -2.0800540e+00
 -6.5242656e-04
  1.0833336e+00
  7.2978032e-01
 -3.0726631e+00
  4.2133871e-01
  3.2153922e-01
  5.1553739e-05
 -8.5961801e-01
  1.5432165e+00
  1.1335972e-04
 -1.7189957e+00
  9.9461287e-01
  3.5213635e+00
  1.1909291e-02
  5.0244033e-01
  1.8322310e-01
 -4.5455864e-01
  1.6141460e+00
  1.7407161e-05
 -2.2882044e+00
 -4.8363772e-01
  1.1523366e+00
 -3.1951335e-01
 -2.1022456e-02
  2.1520104e-02
  7.2028792e-01
  1.2773745e+00
 -5.4160206e-05
 -1.0358156e+00
 -1.3649447e+00
 -8.5252710e-03
 -2.2509272e+00
  8.6761415e-01
  3.0608168e-01
  9.9135035e-01
  1.6563104e+00
  9.5884810e-05
  9.2535239e-01
  3.8982695e-01
  2.4316595e+00
 -1.6983001e+00
  1.2606741e-02
  1.4943091e+00
 -3.2828060e-01
  3.5463861e-01
 -1.6054978e-04
  1.1552744e+00
  2.0970972e+00
 -2.3436623e+00
 -1.6916380e+00
  9.4985557e-01
  3.0184016e-01
 -1.1008426e+00
 -1.5514749e+00
 -6.0920764e-05
  1.0931038e-02
  1.7757967e+00
  8.5566342e-01
 -1.1075295e+00
  3.9293560e-01
  2.5809074e-02
 -3.9704961e-01
 -7.6966232e-01
 -2.7112372e-04
 -8.1455600e-01
  5.6513673e-01
  8.0886883e-01
 -6.0620224e-01
  7.4882782e-01
  2.8557544e+00
 -1.1047968e+00
 -1.6389270e+00
 -8.0778678e-05
  1.1271571e+00
  1.5005834e+00
  1.1866527e+00
 -6.4238930e-01
  7.6962012e-04
  1.1863074e-03
 -1.7593724e+00
 -2.3773104e-04
  4.7241166e-04
  3.2104175e-03
  2.5254238e-01
  2.0445476e+00
 -7.4819511e-01
 -1.5066745e-02
  1.2649198e-03
 -6.9583826e-02
 -1.4156845e-01
  3.9234477e-05
  2.0200760e+00
 -9.4146740e-01
 -4.7658629e+00
  1.8346919e+00
  1.5152097e-02
  2.8785319e+00
 -1.5145856e+00
 -2.5560241e+00
  3.0544348e-04
  3.1732428e-01
  5.3667277e-01
  1.8310153e+00
  2.0304098e+00
 -7.7006000e-01
 -6.8347299e-01
 -1.6318113e+00
  3.4014886e-04
  1.5597028e-04
  9.5138150e-01
  2.8036404e+00
 -3.8289106e+00
 -2.6360017e-01
  1.1060995e+00
  1.2198899e+00
 -9.1094136e-02
 -2.3064322e+00
  4.2146210e-05
  3.8159704e-01
  7.4808560e-02
 -2.5028467e+00
 -1.6807263e-01
  8.0855894e-01
  2.6070485e-03
 -7.3360920e-02
 -2.3758328e-01
  7.7869743e-05
  2.6615769e-01
 -9.4035000e-01
 -7.1601361e-01
 -6.4717555e-01
  2.9787683e-01
 -4.6872208e-03
  2.8636181e+00
 -9.6887155e-03
  1.8492407e-05
  2.4578747e-01
 -1.6320626e+00
  4.8095900e-01
  2.4228933e-01
  7.0194185e-01
  7.3857391e-01
  7.9356587e-01
 -9.7657412e-01
 -4.7003943e-04
  6.7306155e-01
  1.0117807e+00
  1.5932781e+00
  5.6996900e-01
 -7.2501165e-01
  4.0376787e-03
 -9.1526955e-02
 -7.1573049e-02
  1.1857941e-04
  6.6192262e-02
  1.1527522e+00
  1.7739652e-01
 -2.9027367e-01
  8.7587100e-01
  8.2631850e-01
 -7.9024446e-01
 -2.1507585e-01
  4.5095669e-05
  9.4597590e-01
 -1.0525861e-01
  2.4772538e-01
 -8.3883542e-01
  2.3419557e+00
  6.0281581e-01
  5.7429483e-04
 -2.7665192e-01
  1.5454603e-04
 -6.1025316e-01
 -1.0004869e+00
  1.1240624e+00
 -2.6333258e-01
  1.2195088e+00
  1.9907545e-01
 -3.2335663e-01
 -3.7638173e-01
 -1.2991059e-04
 -3.3652863e-01
 -5.2884126e-01
  7.4543560e-01
  3.4636389e-02
  6.0574919e-01
 -3.7332447e+00
  4.9336538e+00
 -9.7938609e-01
  6.0837327e-05
  2.5610366e+00
 -8.9747781e-01
  2.0821132e-01
  1.1161021e+00
  3.6979850e-02
 -5.9874656e-06
  3.5308614e-01
  2.5219020e-05
 -2.5261176e-04
  2.6092228e-01
  2.0678768e+00
  2.0120601e-01
  1.0599918e+00
 -1.1216327e+00
 -1.8157247e+00
  8.2022429e-01
  5.7551374e-06
 -3.3805380e-04
 -1.1614072e-01
  3.8959959e-01
  4.2828183e+00
 -4.6858568e+00
  1.3257165e-01
  2.4656229e+00
 -1.9164971e+00
 -3.0489331e-01
 -6.3396055e-07
 -1.4574094e+00
  2.1907461e+00
 -8.8943416e-01
 -1.8133384e+00
 -8.2837647e-01
 -1.1826674e+00
 -1.6464118e+00
  1.4255981e-01
  3.2848452e-04
 -2.5554235e+00
 -1.4634511e+00
  7.7155262e-01
  6.5535516e-01
 -4.7401571e-01
 -1.1716282e+00
 -1.5020901e+00
 -1.5376750e-01
 -9.1996244e-06
 -4.3495396e-01
 -2.8855094e-01
 -1.1332158e+00
  1.9241848e+00
  2.1117146e+00
 -3.2879498e+00
 -1.5159715e+00
 -5.1542727e-04
  1.2987196e-04
 -3.3734367e+00
 -2.1260901e-01
 -1.4858143e-01
  7.3846591e-01
 -2.1085615e+00
 -1.0467949e+00
 -8.8984780e-02
  1.6777858e-05
  3.7731301e-05
  2.2105426e-01
 -1.2230367e-01
  3.3099007e-02
 -6.0907692e-01
  4.2975444e-02
 -5.1990032e+00
  6.2127829e-01
 -3.3996594e-01
  4.7104677e-05
  3.6803577e+00
 -1.4700035e+00
 -7.3350705e-02
 -1.3634746e+00
  5.1827830e-01
 -5.2888269e+00
  5.9362066e-01
  6.3408747e-02
 -1.1666143e-06
  1.5315101e+00
 -3.7318876e-01
 -4.3762001e-01
  1.3009875e-01
  3.7367322e-02
  5.0475322e-02
 -6.5565711e-01
 -6.0234141e-01
  1.7340586e-05
 -1.0683129e-01
 -1.4436853e-01
 -8.0238485e-01
  2.0326910e+00
  1.7173862e-01
 -2.8330287e-01
 -1.0222626e+00
 -2.5218245e-01
  3.1461397e-05
 -1.4723670e+00
  3.7370434e-01
 -1.6001524e+00
  2.3860693e+00
  1.5991230e+00
 -1.1523677e+00
 -6.6805184e-01
  4.8245221e-01
 -1.4971610e-04
 -1.9486183e+00
 -1.6200301e-01
  1.9969061e-01
  1.0501276e+00
  1.0561202e+00
  5.7164639e-01
 -5.7055211e-01
 -2.5574017e+00
 -1.8941853e-04
  5.8545548e-01
 -3.3937871e-01
 -4.3475109e-01
 -1.1992917e+00
 -3.9490985e-04
  6.1425366e-05
  1.6867445e-01
 -7.5381662e-04
 -1.7497585e-05
  6.5980053e-01
  5.3811878e-01
 -2.2874925e+00
  4.5386629e+00
  2.2166495e+00
  3.4091330e+00
 -4.8678604e-01
 -1.2055501e+00
 -1.8017796e-04
 -1.5387292e+00
 -6.9496250e-01
  2.6042547e+00
 -2.3062143e+00
 -3.9261692e+00
  2.9230211e+00
 -8.2595572e-02
 -2.9404950e-01
 -7.1878021e-05
  9.0161854e-01
 -1.2797334e+00
 -1.0626515e+00
 -2.4408901e+00
 -1.5563560e-01
  2.8757102e+00
 -2.2387753e-01
  1.9664304e+00
 -6.9681839e-05
  1.0405147e+00
  2.4822109e+00
  1.5617510e+00
  1.1294304e+00
  3.1629450e+00
 -5.1523203e-01
  8.1263915e-02
  4.5609114e-01
  2.3988790e-04
  2.7756839e+00
 -6.0102296e-01
 -1.1511017e+00
  8.5358900e-01
  2.2991920e+00
  1.2137549e+00
 -1.8064072e+00
  1.0208918e-01
  5.5010216e-05
  2.9572475e+00
  2.0090721e+00
 -9.6937430e-01
  1.0818778e+00
  8.6216649e-05
  1.7916690e+00
 -1.4877099e-02
  8.7343782e-01
 -9.5496725e-05
  7.4124491e-01
  1.4470059e+00
  5.5998218e-01
  2.5358361e-01
  9.0184939e-01
  2.1005440e+00
 -2.5503537e-01
 -1.5261264e+00
  8.2205202e-05
  1.3116491e-01
  8.4827207e-02
 -1.1286478e+00
  8.8914311e-01
 -1.5523052e+00
  8.0850512e-01
  2.8063306e-01
 -5.6322253e-01
 -6.2362989e-05
 -9.2212659e-01
 -2.6266921e+00
 -9.4217223e-01
  9.1059178e-01
 -1.0602477e+00
  9.2379791e-01
 -1.0662189e+00
  2.6054245e-01
  9.5645773e-05
 -3.0695025e-02
  2.9188597e-01
 -4.2987493e-01
  1.3130019e+00
  6.5103811e-01
  1.4018197e-01
 -8.5635591e-01
 -3.9958501e-01
 -1.1772550e-05
  1.9366282e-01
  1.5789676e+00
  7.1617013e-01
  7.0809352e-01
  8.1582129e-01
  1.3773175e-01
 -7.8861660e-01
 -7.1689630e-01
  4.9889961e-05
 -1.4064267e-01
  1.5693946e+00
 -4.5549959e-01
  3.5672769e-01
 -3.6698794e-01
  2.1915443e+00
 -4.1086841e-01
 -2.1167641e+00
  4.5509581e-04
 -1.4377679e+00
 -1.5676125e+00
  8.9641279e-01
 -1.9314420e+00
 -3.0828309e-05
  3.2651468e-04
  5.6271362e-01
 -1.0240952e-04
  2.0973469e-04
 -1.7979761e+00
  3.4246701e-01
  4.9671811e-01
 -1.8863851e+00
  9.3734801e-01
  2.4677918e-05
  2.0669551e+00
 -1.0930737e-02
 -1.2605223e-04
  2.3168218e+00
  8.5643783e-02
 -2.1987484e-01
  4.4358945e+00
  6.1697626e-01
  1.3603835e+00
 -1.9137263e+00
  5.7385116e+00
  3.9301765e-05
 -6.7160946e-01
 -1.3839380e+00
 -3.6579354e+00
  1.3689655e+00
 -1.2115393e-02
 -7.4635464e-01
 -2.4762933e+00
 -2.4516436e-01
  4.3142223e-05
 -9.7408432e-01
 -1.6121358e+00
 -1.5809428e-02
 -1.4965395e+00
  2.6001868e-01
  1.2930382e+00
 -5.6124981e-02
  7.7800268e-01
  1.9977575e-05
  5.4058218e-01
  4.3580455e-01
 -7.7122372e-01
 -3.5965815e+00
  1.0960183e-02
  2.1759062e+00
 -1.1946756e+00
  4.6800068e-01
  1.8844627e-04
 -6.1770016e-01
  2.9438126e-01
 -2.8809208e-02
 -4.0971044e-01
 -8.9565046e-02
  6.1499462e-02
 -1.4987968e+00
  8.3765221e-01
 -4.9904109e-05
 -5.4874605e-01
 -9.5446467e-01
  1.0352637e+00
 -1.2966900e+00
  2.2509058e+00
  1.8436050e+00
 -1.2384653e+00
  1.1901807e+00
  1.2924521e-04
  3.1763060e+00
 -3.7755501e-01
 -2.6968005e-01
  6.4705729e-02
  4.5416310e-02
  4.3506035e-01
  4.0153712e-02
 -6.8719316e-01
  1.1050113e-04
  1.1035731e+00
  2.0531068e+00
 -8.4734231e-01
  6.2758237e-01
 -2.3597687e-01
  8.6317576e-02
  4.4975910e-01
 -1.5762160e+00
  2.2250209e-04
  4.9018267e-01
  2.4213960e+00
 -4.8398802e-01
  2.3985229e+00
  9.2883211e-01
  1.2434568e+00
  3.6074927e-01
  8.3585918e-02
 -2.8177179e-04
  2.9465717e-01
  1.1564406e+00
  3.0931476e-01
  1.4789739e+00
  9.5416278e-01
  1.1603523e+00
 -5.8217067e-02
  1.0025398e-01
  9.6875476e-05
 -7.6564714e-02
  1.6561216e-01
  4.0273118e-01
  9.4870669e-01
  3.0939944e-02
  3.0939944e-02
  3.0939944e-02
  3.0939944e-02
  3.0939944e-02
  3.7188195e-02
  3.7188195e-02
  3.7188195e-02
  3.7188195e-02
  3.7188195e-02
  1.7949598e-02
  1.7949598e-02
  1.7949598e-02
  1.7949598e-02
  1.7949598e-02
  9.0226205e-03
  9.0226205e-03
  9.0226205e-03
  9.0226205e-03
  9.0226205e-03
  2.8016262e-03
  2.8016262e-03
  2.8016262e-03
  2.8016262e-03
  2.8016262e-03
  8.2926815e-03
  8.2926815e-03
  8.2926815e-03
  8.2926815e-03
  8.2926815e-03
